{"learner":{"attributes":{"best_iteration":"99","best_ntree_limit":"100","scikit_learn":"{\"use_label_encoder\": null, \"n_estimators\": 100, \"objective\": \"binary:logistic\", \"max_depth\": null, \"max_leaves\": null, \"max_bin\": null, \"grow_policy\": null, \"learning_rate\": null, \"verbosity\": null, \"booster\": null, \"tree_method\": null, \"gamma\": null, \"min_child_weight\": null, \"max_delta_step\": null, \"subsample\": null, \"sampling_method\": null, \"colsample_bytree\": null, \"colsample_bylevel\": null, \"colsample_bynode\": null, \"reg_alpha\": null, \"reg_lambda\": null, \"scale_pos_weight\": null, \"base_score\": null, \"missing\": NaN, \"num_parallel_tree\": null, \"random_state\": null, \"n_jobs\": null, \"monotone_constraints\": null, \"interaction_constraints\": null, \"importance_type\": null, \"gpu_id\": null, \"validate_parameters\": null, \"predictor\": null, \"enable_categorical\": false, \"feature_types\": null, \"max_cat_to_onehot\": null, \"max_cat_threshold\": null, \"eval_metric\": null, \"early_stopping_rounds\": null, \"callbacks\": null, \"classes_\": [0, 1], \"n_classes_\": 2, \"_estimator_type\": \"classifier\"}"},"feature_names":[],"feature_types":[],"gradient_booster":{"model":{"gbtree_model_param":{"num_parallel_tree":"1","num_trees":"100","size_leaf_vector":"0"},"tree_info":[0,0,0,0,0,0,0,0,0,0,0,0,0,0,0,0,0,0,0,0,0,0,0,0,0,0,0,0,0,0,0,0,0,0,0,0,0,0,0,0,0,0,0,0,0,0,0,0,0,0,0,0,0,0,0,0,0,0,0,0,0,0,0,0,0,0,0,0,0,0,0,0,0,0,0,0,0,0,0,0,0,0,0,0,0,0,0,0,0,0,0,0,0,0,0,0,0,0,0,0],"trees":[{"base_weights":[2.5598904E-1,-1.9869919E0,1.877647E0,-8.5714287E-1,1.9612591E0,1.2E0,-1.6363636E0,1.3043479E0,1.9897959E0,1.8E0,-1.2E0],"categories":[],"categories_nodes":[],"categories_segments":[],"categories_sizes":[],"default_left":[1,0,1,1,1,0,0,1,0,0,0],"id":0,"left_children":[1,-1,3,5,7,-1,-1,9,-1,-1,-1],"loss_changes":[1.3322722E3,0E0,5.0271667E1,1.3184416E1,1.2756958E0,0E0,0E0,1.6434782E1,0E0,0E0,0E0],"parents":[2147483647,0,0,2,2,3,3,4,4,7,7],"right_children":[2,-1,4,6,8,-1,-1,10,-1,-1,-1],"split_conditions":[1.6021153E-1,-5.960976E-1,-5.0540096E-1,-4.5622754E-1,2.8944945E-1,3.6E-1,-4.909091E-1,2.6150614E-1,5.969388E-1,5.4E-1,-3.6E-1],"split_indices":[2,0,4,0,2,0,0,2,0,0,0],"split_type":[0,0,0,0,0,0,0,0,0,0,0],"sum_hessian":[3.6425E2,1.5275E2,2.115E2,6E0,2.055E2,1.5E0,4.5E0,1.05E1,1.95E2,9E0,1.5E0],"tree_param":{"num_deleted":"0","num_feature":"5","num_nodes":"11","size_leaf_vector":"0"}},{"base_weights":[1.9788201E-1,-1.5399536E0,1.4521402E0,-6.5280545E-1,1.5188315E0,1.005434E0,-1.3043884E0,9.8590225E-1,1.5423651E0,1.3782647E0,-8.7678954E-2,8.9735955E-1,-1.005434E0],"categories":[],"categories_nodes":[],"categories_segments":[],"categories_sizes":[],"default_left":[1,0,1,1,1,0,0,1,0,0,1,0,0],"id":1,"left_children":[1,-1,3,5,7,-1,-1,9,-1,-1,11,-1,-1],"loss_changes":[7.3259735E2,0E0,2.8384064E1,8.541883E0,8.5528564E-1,0E0,0E0,4.663125E0,0E0,0E0,4.3613553E0,0E0,0E0],"parents":[2147483647,0,0,2,2,3,3,4,4,7,7,10,10],"right_children":[2,-1,4,6,8,-1,-1,10,-1,-1,12,-1,-1],"split_conditions":[1.6021153E-1,-4.619861E-1,-5.0540096E-1,-4.5622754E-1,-4.0891495E-1,3.0163023E-1,-3.9131653E-1,-4.450972E-1,4.6270955E-1,4.1347942E-1,-4.2069584E-2,2.6920786E-1,-3.0163023E-1],"split_indices":[2,0,4,0,4,0,0,4,0,0,0,0,0],"split_type":[0,0,0,0,0,0,0,0,0,0,0,0,0],"sum_hessian":[3.34075E2,1.399457E2,1.9412932E2,5.6918435E0,1.8843748E2,1.4524307E0,4.239413E0,9.783297E0,1.7865417E2,6.9569387E0,2.8263578E0,1.3739271E0,1.4524307E0],"tree_param":{"num_deleted":"0","num_feature":"5","num_nodes":"13","size_leaf_vector":"0"}},{"base_weights":[1.7183627E-1,-1.3356917E0,1.2555362E0,-5.3124946E-1,1.3159938E0,8.7010634E-1,-1.1147326E0,8.24887E-1,1.338366E0,1.2106054E0,-8.701064E-1],"categories":[],"categories_nodes":[],"categories_segments":[],"categories_sizes":[],"default_left":[1,0,1,1,1,0,0,1,0,0,0],"id":2,"left_children":[1,-1,3,5,7,-1,-1,9,-1,-1,-1],"loss_changes":[4.6023123E2,0E0,1.8394867E1,5.936222E0,6.4004517E-1,0E0,0E0,7.27918E0,0E0,0E0,0E0],"parents":[2147483647,0,0,2,2,3,3,4,4,7,7],"right_children":[2,-1,4,6,8,-1,-1,10,-1,-1,-1],"split_conditions":[1.6021153E-1,-4.007075E-1,-5.0540096E-1,-4.5622754E-1,2.8944945E-1,2.6103193E-1,-3.344198E-1,2.6150614E-1,4.0150982E-1,3.6318162E-1,-2.6103193E-1],"split_indices":[2,0,4,0,2,0,0,2,0,0,0],"split_type":[0,0,0,0,0,0,0,0,0,0,0],"sum_hessian":[2.7968314E2,1.1687147E2,1.6281166E2,5.0737224E0,1.5773793E2,1.3471162E0,3.7266061E0,8.522665E0,1.4921527E2,7.1755486E0,1.3471162E0],"tree_param":{"num_deleted":"0","num_feature":"5","num_nodes":"11","size_leaf_vector":"0"}},{"base_weights":[1.5628892E-1,-1.2194775E0,1.1409031E0,-4.4618747E-1,1.1990973E0,7.6829654E-1,-9.8563427E-1,7.1104205E-1,1.2222463E0,1.0818228E0,-7.682965E-1],"categories":[],"categories_nodes":[],"categories_segments":[],"categories_sizes":[],"default_left":[1,0,1,1,1,0,0,1,0,0,0],"id":3,"left_children":[1,-1,3,5,7,-1,-1,9,-1,-1,-1],"loss_changes":[3.0676364E2,0E0,1.2718399E1,4.29152E0,5.716095E-1,0E0,0E0,5.3099346E0,0E0,0E0,0E0],"parents":[2147483647,0,0,2,2,3,3,4,4,7,7],"right_children":[2,-1,4,6,8,-1,-1,10,-1,-1,-1],"split_conditions":[1.6021153E-1,-3.6584327E-1,-5.0540096E-1,-4.5622754E-1,2.8944945E-1,2.3048897E-1,-2.956903E-1,2.6150614E-1,3.666739E-1,3.2454684E-1,-2.3048896E-1],"split_indices":[2,0,4,0,2,0,0,2,0,0,0],"split_type":[0,0,0,0,0,0,0,0,0,0,0],"sum_hessian":[2.2443373E2,9.3521255E1,1.3091248E2,4.394587E0,1.2651788E2,1.2211406E0,3.1734464E0,7.165345E0,1.1935254E2,5.944205E0,1.2211406E0],"tree_param":{"num_deleted":"0","num_feature":"5","num_nodes":"11","size_leaf_vector":"0"}},{"base_weights":[1.4619297E-1,-1.1455985E0,1.0658114E0,-3.8068116E-1,1.1238983E0,6.8738943E-1,-8.872832E-1,6.218301E-1,1.1488374E0,9.5153224E-1,-1.5789518E-1],"categories":[],"categories_nodes":[],"categories_segments":[],"categories_sizes":[],"default_left":[1,0,1,1,1,0,0,1,0,0,0],"id":4,"left_children":[1,-1,3,5,7,-1,-1,9,-1,-1,-1],"loss_changes":[2.1143953E2,0E0,9.156746E0,3.1842675E0,5.3936005E-1,0E0,0E0,1.9287829E0,0E0,0E0,0E0],"parents":[2147483647,0,0,2,2,3,3,4,4,7,7],"right_children":[2,-1,4,6,8,-1,-1,10,-1,-1,-1],"split_conditions":[1.6021153E-1,-3.4367958E-1,-5.0540096E-1,-4.5622754E-1,-4.0891495E-1,2.0621684E-1,-2.66185E-1,-4.450972E-1,3.4465125E-1,2.854597E-1,-4.7368556E-2],"split_indices":[2,0,4,0,4,0,0,4,0,0,0],"split_type":[0,0,0,0,0,0,0,0,0,0,0],"sum_hessian":[1.759583E2,7.307036E1,1.0288795E2,3.7577553E0,9.913019E1,1.0941316E0,2.6636238E0,5.9183164E0,9.3211876E1,4.004637E0,1.9136796E0],"tree_param":{"num_deleted":"0","num_feature":"5","num_nodes":"11","size_leaf_vector":"0"}},{"base_weights":[1.3968033E-1,-1.0949129E0,1.0098151E0,-3.272678E-1,1.0689498E0,1.3217498E-1,-6.981915E-1,5.1193005E-1,1.0997822E0,9.075788E-1,-6.716258E-1],"categories":[],"categories_nodes":[],"categories_segments":[],"categories_sizes":[],"default_left":[1,0,1,1,1,0,0,1,0,0,0],"id":5,"left_children":[1,-1,3,5,7,-1,-1,9,-1,-1,-1],"loss_changes":[1.4868028E2,0E0,6.7622833E0,8.0812466E-1,7.748718E-1,0E0,0E0,3.3988934E0,0E0,0E0,0E0],"parents":[2147483647,0,0,2,2,3,3,4,4,7,7],"right_children":[2,-1,4,6,8,-1,-1,10,-1,-1,-1],"split_conditions":[1.6021153E-1,-3.2847387E-1,-5.0540096E-1,-4.2069577E-2,2.8944945E-1,3.9652497E-2,-2.0945747E-1,2.6150614E-1,3.299347E-1,2.7227366E-1,-2.0148775E-1],"split_indices":[2,0,4,0,2,0,0,2,0,0,0],"split_type":[0,0,0,0,0,0,0,0,0,0,0],"sum_hessian":[1.3637296E2,5.6272385E1,8.010056E1,3.2004967E0,7.690007E1,1.7171801E0,1.4833164E0,4.956661E0,7.1943405E1,3.8895924E0,1.0670688E0],"tree_param":{"num_deleted":"0","num_feature":"5","num_nodes":"11","size_leaf_vector":"0"}},{"base_weights":[1.3273688E-1,-1.0601999E0,9.678983E-1,-6.0455596E-1,1.0100502E0,4.132823E-1,1.0633786E0,8.680633E-1,-2.1151152E-1,-5.68973E-2,-2.6254666E-1],"categories":[],"categories_nodes":[],"categories_segments":[],"categories_sizes":[],"default_left":[1,0,1,0,1,1,0,0,1,0,0],"id":6,"left_children":[1,-1,3,-1,5,7,-1,-1,9,-1,-1],"loss_changes":[1.0652652E2,0E0,4.773754E0,0E0,1.5191383E0,2.0829034E0,0E0,0E0,1.3625488E-2,0E0,0E0],"parents":[2147483647,0,0,2,2,4,4,5,5,8,8],"right_children":[2,-1,4,-1,6,8,-1,-1,10,-1,-1],"split_conditions":[-5.295225E-1,-3.1805998E-1,1.6021153E-1,-1.813668E-1,2.8944945E-1,2.2308405E-1,3.190136E-1,2.6041898E-1,-4.450972E-1,-1.706919E-2,-7.8764E-2],"split_indices":[4,0,2,0,2,2,0,0,4,0,0],"split_type":[0,0,0,0,0,0,0,0,0,0,0],"sum_hessian":[1.0489271E2,4.308337E1,6.1809338E1,1.2653092E0,6.054403E1,5.6842723E0,5.4859756E1,3.0643811E0,2.6198912E0,1.1750046E0,1.4448864E0],"tree_param":{"num_deleted":"0","num_feature":"5","num_nodes":"11","size_leaf_vector":"0"}},{"base_weights":[1.271799E-1,-1.0302815E0,9.245739E-1,1.338618E-1,1.0354295E0,5.7506645E-1,-2.2296543E-1,-7.9727656E-1,6.426242E-1],"categories":[],"categories_nodes":[],"categories_segments":[],"categories_sizes":[],"default_left":[1,0,1,1,0,0,1,0,0],"id":7,"left_children":[1,-1,3,5,-1,-1,7,-1,-1],"loss_changes":[7.6186966E1,0E0,4.1382256E0,1.2535312E0,0E0,0E0,2.8350828E0,0E0,0E0],"parents":[2147483647,0,0,2,2,3,3,6,6],"right_children":[2,-1,4,6,-1,-1,8,-1,-1],"split_conditions":[-5.295225E-1,-3.0908448E-1,-4.0891495E-1,-1.8012223E-1,3.1062886E-1,1.7251994E-1,-3.2253683E-1,-2.3918298E-1,1.9278727E-1],"split_indices":[4,0,4,0,0,0,3,0,0],"split_type":[0,0,0,0,0,0,0,0,0],"sum_hessian":[8.051489E1,3.272324E1,4.7791653E1,6.1478367E0,4.1643814E1,2.4754355E0,3.6724014E0,2.25509E0,1.4173114E0],"tree_param":{"num_deleted":"0","num_feature":"5","num_nodes":"9","size_leaf_vector":"0"}},{"base_weights":[1.23733774E-1,-1.0045629E0,8.972814E-1,-2.174349E-1,9.687284E-1,3.8165858E-1,1.012294E0,-1.7878759E-1,6.911834E-1],"categories":[],"categories_nodes":[],"categories_segments":[],"categories_sizes":[],"default_left":[1,0,1,0,1,1,0,0,0],"id":8,"left_children":[1,-1,3,-1,5,7,-1,-1,-1],"loss_changes":[5.553857E1,0E0,3.2105465E0,0E0,5.2368164E-1,8.2843214E-1,0E0,0E0,0E0],"parents":[2147483647,0,0,2,2,4,4,5,5],"right_children":[2,-1,4,-1,6,8,-1,-1,-1],"split_conditions":[1.6021153E-1,-3.0136886E-1,-5.0540096E-1,-6.5230474E-2,2.8944945E-1,1.3457388E-3,3.0368823E-1,-5.363628E-2,2.0735502E-1],"split_indices":[2,0,4,0,2,1,0,0,0],"split_type":[0,0,0,0,0,0,0,0,0],"sum_hessian":[6.1600536E1,2.4933657E1,3.6666878E1,2.0855076E0,3.458137E1,3.0632324E0,3.1518137E1,1.2401376E0,1.8230948E0],"tree_param":{"num_deleted":"0","num_feature":"5","num_nodes":"9","size_leaf_vector":"0"}},{"base_weights":[1.1999695E-1,-9.825573E-1,8.586501E-1,1.3729048E-1,9.9115825E-1,4.9853784E-1,-1.816684E-1,-6.990325E-1,5.6415015E-1],"categories":[],"categories_nodes":[],"categories_segments":[],"categories_sizes":[],"default_left":[1,0,1,1,0,0,1,0,0],"id":9,"left_children":[1,-1,3,5,-1,-1,7,-1,-1],"loss_changes":[4.030432E1,0E0,2.6883507E0,7.5267476E-1,0E0,0E0,1.854721E0,0E0,0E0],"parents":[2147483647,0,0,2,2,3,3,6,6],"right_children":[2,-1,4,6,-1,-1,8,-1,-1],"split_conditions":[-5.295225E-1,-2.947672E-1,-4.0891495E-1,-1.8012223E-1,2.973475E-1,1.4956136E-1,-3.2253683E-1,-2.0970975E-1,1.6924505E-1],"split_indices":[4,0,4,0,0,0,3,0,0],"split_type":[0,0,0,0,0,0,0,0,0],"sum_hessian":[4.745334E1,1.8904799E1,2.854854E1,4.7463E0,2.380224E1,1.9616045E0,2.7846956E0,1.681201E0,1.1034946E0],"tree_param":{"num_deleted":"0","num_feature":"5","num_nodes":"9","size_leaf_vector":"0"}},{"base_weights":[1.167942E-1,-9.59142E-1,8.3199835E-1,1.407547E-1,9.707611E-1,6.788086E-1,-3.2768458E-1,-5.4354084E-1,2.7282103E-3],"categories":[],"categories_nodes":[],"categories_segments":[],"categories_sizes":[],"default_left":[1,0,1,1,0,0,1,0,0],"id":10,"left_children":[1,-1,3,5,-1,-1,7,-1,-1],"loss_changes":[2.9639694E1,0E0,2.0742855E0,1.4884938E0,0E0,0E0,2.4110305E-1,0E0,0E0],"parents":[2147483647,0,0,2,2,3,3,6,6],"right_children":[2,-1,4,6,-1,-1,8,-1,-1],"split_conditions":[1.6021153E-1,-2.877426E-1,2.964353E-1,2.2308405E-1,2.9122835E-1,2.0364259E-1,-3.5515246E-1,-1.6306226E-1,8.184631E-4],"split_indices":[2,0,2,2,0,0,1,0,0],"split_type":[0,0,0,0,0,0,0,0,0],"sum_hessian":[3.6480392E1,1.4430466E1,2.2049927E1,4.0231333E0,1.8026793E1,1.6634233E0,2.35971E0,1.0371268E0,1.3225831E0],"tree_param":{"num_deleted":"0","num_feature":"5","num_nodes":"9","size_leaf_vector":"0"}},{"base_weights":[1.119896E-1,-9.3399346E-1,7.9105884E-1,1.1316048E-1,9.4911426E-1,5.9618914E-1,-2.4387915E-1,-3.878476E-1,-9.379169E-3],"categories":[],"categories_nodes":[],"categories_segments":[],"categories_sizes":[],"default_left":[1,0,1,1,0,0,1,0,0],"id":11,"left_children":[1,-1,3,5,-1,-1,7,-1,-1],"loss_changes":[2.148892E1,0E0,1.848527E0,9.364487E-1,0E0,0E0,1.0936156E-1,0E0,0E0],"parents":[2147483647,0,0,2,2,3,3,6,6],"right_children":[2,-1,4,6,-1,-1,8,-1,-1],"split_conditions":[1.6021153E-1,-2.8019804E-1,-4.0891495E-1,2.2308405E-1,2.8473428E-1,1.7885675E-1,-4.8127946E-1,-1.1635429E-1,-2.8137509E-3],"split_indices":[2,0,4,2,0,0,4,0,0],"split_type":[0,0,0,0,0,0,0,0,0],"sum_hessian":[2.8213327E1,1.0958438E1,1.7254889E1,3.5868545E0,1.3668035E1,1.2397798E0,2.3470747E0,1.0490738E0,1.2980008E0],"tree_param":{"num_deleted":"0","num_feature":"5","num_nodes":"9","size_leaf_vector":"0"}},{"base_weights":[1.0732087E-1,-9.075795E-1,7.513233E-1,9.640534E-2,9.258553E-1,3.0845442E-1,-1.5516959E-1],"categories":[],"categories_nodes":[],"categories_segments":[],"categories_sizes":[],"default_left":[1,0,1,1,0,0,0],"id":12,"left_children":[1,-1,3,5,-1,-1,-1],"loss_changes":[1.5759756E1,0E0,1.5864973E0,2.719742E-1,0E0,0E0,0E0],"parents":[2147483647,0,0,2,2,3,3],"right_children":[2,-1,4,6,-1,-1,-1],"split_conditions":[-5.295225E-1,-2.7227387E-1,2.8944945E-1,2.2308405E-1,2.777566E-1,9.253633E-2,-4.6550877E-2],"split_indices":[4,0,2,2,0,0,0],"split_type":[0,0,0,0,0,0,0],"sum_hessian":[2.206902E1,8.4085245E0,1.3660495E1,3.2010736E0,1.045942E1,1.6143048E0,1.586769E0],"tree_param":{"num_deleted":"0","num_feature":"5","num_nodes":"7","size_leaf_vector":"0"}},{"base_weights":[1.0065665E-1,-8.779269E-1,7.0678484E-1,1.047207E-1,8.9848816E-1,3.5028842E-1,-2.772205E-1],"categories":[],"categories_nodes":[],"categories_segments":[],"categories_sizes":[],"default_left":[1,0,1,1,0,0,0],"id":13,"left_children":[1,-1,3,5,-1,-1,-1],"loss_changes":[1.1632829E1,0E0,1.2930846E0,4.7552037E-1,0E0,0E0,0E0],"parents":[2147483647,0,0,2,2,3,3],"right_children":[2,-1,4,6,-1,-1,-1],"split_conditions":[1.6021153E-1,-2.6337808E-1,-4.0891495E-1,2.6150614E-1,2.6954645E-1,1.0508653E-1,-8.316615E-2],"split_indices":[2,0,4,2,0,0,0],"split_type":[0,0,0,0,0,0,0],"sum_hessian":[1.7565924E1,6.547186E0,1.1018737E1,3.034582E0,7.984155E0,1.8974783E0,1.1371034E0],"tree_param":{"num_deleted":"0","num_feature":"5","num_nodes":"7","size_leaf_vector":"0"}},{"base_weights":[9.233901E-2,-8.435321E-1,6.4840204E-1,6.2418036E-2,8.6927134E-1,2.7560183E-1,-1.637139E-1],"categories":[],"categories_nodes":[],"categories_segments":[],"categories_sizes":[],"default_left":[1,0,1,1,0,0,0],"id":14,"left_children":[1,-1,3,5,-1,-1,-1],"loss_changes":[8.413544E0,0E0,1.2461724E0,2.2965059E-1,0E0,0E0,0E0],"parents":[2147483647,0,0,2,2,3,3],"right_children":[2,-1,4,6,-1,-1,-1],"split_conditions":[-5.295225E-1,-2.5305963E-1,2.8944945E-1,2.2308405E-1,2.607814E-1,8.268055E-2,-4.911417E-2],"split_indices":[4,0,2,2,0,0,0],"split_type":[0,0,0,0,0,0,0],"sum_hessian":[1.4116346E1,5.068661E0,9.047685E0,2.8278294E0,6.2198553E0,1.3429809E0,1.4848485E0],"tree_param":{"num_deleted":"0","num_feature":"5","num_nodes":"7","size_leaf_vector":"0"}},{"base_weights":[8.4858105E-2,-8.087397E-1,6.069251E-1,8.318623E-2,8.3370274E-1,2.6833257E-1,-1.9181484E-1],"categories":[],"categories_nodes":[],"categories_segments":[],"categories_sizes":[],"default_left":[1,0,1,1,0,0,0],"id":15,"left_children":[1,-1,3,5,-1,-1,-1],"loss_changes":[6.3411894E0,0E0,9.386771E-1,2.3860031E-1,0E0,0E0,0E0],"parents":[2147483647,0,0,2,2,3,3],"right_children":[2,-1,4,6,-1,-1,-1],"split_conditions":[1.6021153E-1,-2.4262193E-1,2.964353E-1,3.7208837E-1,2.5011083E-1,8.0499776E-2,-5.7544455E-2],"split_indices":[2,0,2,0,0,0,0],"split_type":[0,0,0,0,0,0,0],"sum_hessian":[1.154045E1,4.0533714E0,7.4870787E0,2.6753123E0,4.8117666E0,1.6133574E0,1.0619547E0],"tree_param":{"num_deleted":"0","num_feature":"5","num_nodes":"7","size_leaf_vector":"0"}},{"base_weights":[7.615796E-2,-7.6636165E-1,5.443345E-1,5.681263E-2,7.958998E-1,-1.4496407E-1,1.9343263E-1],"categories":[],"categories_nodes":[],"categories_segments":[],"categories_sizes":[],"default_left":[1,0,1,1,0,0,0],"id":16,"left_children":[1,-1,3,5,-1,-1,-1],"loss_changes":[4.587012E0,0E0,8.598938E-1,1.2697296E-1,0E0,0E0,0E0],"parents":[2147483647,0,0,2,2,3,3],"right_children":[2,-1,4,6,-1,-1,-1],"split_conditions":[1.6021153E-1,-2.2990851E-1,-4.0891495E-1,-5.0540096E-1,2.3876995E-1,-4.348922E-2,5.802979E-2],"split_indices":[2,0,4,4,0,0,0],"split_type":[0,0,0,0,0,0,0],"sum_hessian":[9.571371E0,3.1913621E0,6.3800087E0,2.5888243E0,3.7911842E0,1.0205214E0,1.5683029E0],"tree_param":{"num_deleted":"0","num_feature":"5","num_nodes":"7","size_leaf_vector":"0"}},{"base_weights":[6.706018E-2,-7.251879E-1,4.9266616E-1,4.494864E-3,7.2368425E-1,1.7924531E-1,-1.6960758E-1],"categories":[],"categories_nodes":[],"categories_segments":[],"categories_sizes":[],"default_left":[1,0,1,1,0,0,0],"id":17,"left_children":[1,-1,3,5,-1,-1,-1],"loss_changes":[3.4204514E0,0E0,7.3038137E-1,1.24591134E-1,0E0,0E0,0E0],"parents":[2147483647,0,0,2,2,3,3],"right_children":[2,-1,4,6,-1,-1,-1],"split_conditions":[-5.295225E-1,-2.1755637E-1,-3.993502E-1,-3.5515246E-1,2.1710528E-1,5.3773593E-2,-5.0882276E-2],"split_indices":[4,0,3,1,0,0,0],"split_type":[0,0,0,0,0,0,0],"sum_hessian":[8.084541E0,2.5793295E0,5.5052114E0,2.0958548E0,3.4093568E0,1.0312387E0,1.064616E0],"tree_param":{"num_deleted":"0","num_feature":"5","num_nodes":"7","size_leaf_vector":"0"}},{"base_weights":[5.5263445E-2,-3.799133E-1,7.176054E-1,-6.8332505E-1,1.7660914E-2,1.8486027E-1,-1.4497964E-1],"categories":[],"categories_nodes":[],"categories_segments":[],"categories_sizes":[],"default_left":[1,1,0,0,1,0,0],"id":18,"left_children":[1,3,-1,-1,5,-1,-1],"loss_changes":[2.5679004E0,6.706459E-1,0E0,0E0,1.1756958E-1,0E0,0E0],"parents":[2147483647,0,0,1,1,4,4],"right_children":[2,4,-1,-1,6,-1,-1],"split_conditions":[-4.0891495E-1,1.6021153E-1,2.1528164E-1,-2.0499752E-1,2.335628E-1,5.5458084E-2,-4.3493893E-2],"split_indices":[4,2,0,0,2,0,0],"split_type":[0,0,0,0,0,0,0],"sum_hessian":[6.9631763E0,4.4595437E0,2.5036328E0,2.1216526E0,2.337891E0,1.0854241E0,1.252467E0],"tree_param":{"num_deleted":"0","num_feature":"5","num_nodes":"7","size_leaf_vector":"0"}},{"base_weights":[4.8559166E-2,-3.430977E-1,6.751156E-1,-6.367403E-1,6.231515E-3,1.7487687E-1,-1.606568E-1],"categories":[],"categories_nodes":[],"categories_segments":[],"categories_sizes":[],"default_left":[1,1,0,0,1,0,0],"id":19,"left_children":[1,3,-1,-1,5,-1,-1],"loss_changes":[1.9652898E0,5.179179E-1,0E0,0E0,1.2036856E-1,0E0,0E0],"parents":[2147483647,0,0,1,1,4,4],"right_children":[2,4,-1,-1,6,-1,-1],"split_conditions":[2.964353E-1,1.6021153E-1,2.0253469E-1,-1.9102211E-1,2.335628E-1,5.2463062E-2,-4.8197042E-2],"split_indices":[2,2,0,0,2,0,0],"split_type":[0,0,0,0,0,0,0],"sum_hessian":[6.064766E0,4.0103354E0,2.0544305E0,1.7318273E0,2.2785082E0,1.1094798E0,1.1690284E0],"tree_param":{"num_deleted":"0","num_feature":"5","num_nodes":"7","size_leaf_vector":"0"}},{"base_weights":[4.1773215E-2,-4.823347E-1,4.30169E-1,-3.465542E-2,6.108747E-1],"categories":[],"categories_nodes":[],"categories_segments":[],"categories_sizes":[],"default_left":[1,0,1,0,0],"id":20,"left_children":[1,-1,3,-1,-1],"loss_changes":[1.5026934E0,0E0,3.7253588E-1,0E0,0E0],"parents":[2147483647,0,0,2,2],"right_children":[2,-1,4,-1,-1],"split_conditions":[-5.0540096E-1,-1.4470042E-1,-3.993502E-1,-1.0396626E-2,1.8326242E-1],"split_indices":[4,0,3,0,0],"split_type":[0,0,0,0,0],"sum_hessian":[5.362742E0,2.1796377E0,3.1831045E0,1.1173072E0,2.0657973E0],"tree_param":{"num_deleted":"0","num_feature":"5","num_nodes":"5","size_leaf_vector":"0"}},{"base_weights":[3.8837794E-2,-5.649759E-1,3.3164725E-1,-1.769393E-2,5.770199E-1],"categories":[],"categories_nodes":[],"categories_segments":[],"categories_sizes":[],"default_left":[1,0,1,0,0],"id":21,"left_children":[1,-1,3,-1,-1],"loss_changes":[1.2248354E0,0E0,4.029522E-1,0E0,0E0],"parents":[2147483647,0,0,2,2],"right_children":[2,-1,4,-1,-1],"split_conditions":[1.6021153E-1,-1.6949278E-1,-3.993502E-1,-5.308179E-3,1.7310597E-1],"split_indices":[2,0,3,0,0],"split_type":[0,0,0,0,0],"sum_hessian":[4.8679233E0,1.2861673E0,3.5817559E0,1.860632E0,1.7211239E0],"tree_param":{"num_deleted":"0","num_feature":"5","num_nodes":"5","size_leaf_vector":"0"}},{"base_weights":[2.9803265E-2,-2.7133125E-1,5.637766E-1,-5.288878E-1,-2.6649267E-3],"categories":[],"categories_nodes":[],"categories_segments":[],"categories_sizes":[],"default_left":[1,1,0,0,0],"id":22,"left_children":[1,3,-1,-1,-1],"loss_changes":[1.0260507E0,2.8554034E-1,0E0,0E0,0E0],"parents":[2147483647,0,0,1,1],"right_children":[2,4,-1,-1,-1],"split_conditions":[-4.0891495E-1,-5.295225E-1,1.69133E-1,-1.5866634E-1,-7.9947803E-4],"split_indices":[4,4,0,0,0],"split_type":[0,0,0,0,0],"sum_hessian":[4.429679E0,3.1468658E0,1.282813E0,1.1121435E0,2.0347223E0],"tree_param":{"num_deleted":"0","num_feature":"5","num_nodes":"5","size_leaf_vector":"0"}},{"base_weights":[2.5063876E-2,-2.4530245E-1,5.248578E-1,-3.844093E-1,-5.7952963E-2],"categories":[],"categories_nodes":[],"categories_segments":[],"categories_sizes":[],"default_left":[1,1,0,0,0],"id":23,"left_children":[1,3,-1,-1,-1],"loss_changes":[8.1375164E-1,8.121838E-2,0E0,0E0,0E0],"parents":[2147483647,0,0,1,1],"right_children":[2,4,-1,-1,-1],"split_conditions":[2.964353E-1,1.8466195E-1,1.5745735E-1,-1.153228E-1,-1.7385889E-2],"split_indices":[2,2,0,0,0],"split_type":[0,0,0,0,0],"sum_hessian":[4.0693083E0,2.9712088E0,1.0980992E0,1.1015092E0,1.8696997E0],"tree_param":{"num_deleted":"0","num_feature":"5","num_nodes":"5","size_leaf_vector":"0"}},{"base_weights":[2.5177678E-2,-3.1473425E-1,2.8822613E-1,-5.799663E-2,4.6971005E-1],"categories":[],"categories_nodes":[],"categories_segments":[],"categories_sizes":[],"default_left":[1,0,1,0,0],"id":24,"left_children":[1,-1,3,-1,-1],"loss_changes":[5.2196795E-1,0E0,2.3088449E-1,0E0,0E0],"parents":[2147483647,0,0,2,2],"right_children":[2,-1,4,-1,-1],"split_conditions":[-5.0540096E-1,-9.442028E-2,-3.993502E-1,-1.739899E-2,1.4091302E-1],"split_indices":[4,0,3,0,0],"split_type":[0,0,0,0,0],"sum_hessian":[3.8231452E0,1.5821713E0,2.2409737E0,1.004702E0,1.2362717E0],"tree_param":{"num_deleted":"0","num_feature":"5","num_nodes":"5","size_leaf_vector":"0"}},{"base_weights":[2.6008407E-2,-2.656292E-1,2.5309575E-1,-4.9272783E-2,4.2087507E-1],"categories":[],"categories_nodes":[],"categories_segments":[],"categories_sizes":[],"default_left":[1,0,1,0,0],"id":25,"left_children":[1,-1,3,-1,-1],"loss_changes":[3.7316602E-1,0E0,1.7847387E-1,0E0,0E0],"parents":[2147483647,0,0,2,2],"right_children":[2,-1,4,-1,-1],"split_conditions":[-5.0540096E-1,-7.9688765E-2,-3.993502E-1,-1.47818355E-2,1.2626253E-1],"split_indices":[4,0,3,0,0],"split_type":[0,0,0,0,0],"sum_hessian":[3.6194968E0,1.5102417E0,2.109255E0,1.0047816E0,1.1044735E0],"tree_param":{"num_deleted":"0","num_feature":"5","num_nodes":"5","size_leaf_vector":"0"}},{"base_weights":[2.6927304E-2,-2.2317238E-1,2.2229545E-1,-4.1860268E-2,3.7567192E-1],"categories":[],"categories_nodes":[],"categories_segments":[],"categories_sizes":[],"default_left":[1,0,1,0,0],"id":26,"left_children":[1,-1,3,-1,-1],"loss_changes":[2.6787105E-1,0E0,1.3763045E-1,0E0,0E0],"parents":[2147483647,0,0,2,2],"right_children":[2,-1,4,-1,-1],"split_conditions":[-5.0540096E-1,-6.6951714E-2,-3.993502E-1,-1.2558081E-2,1.1270158E-1],"split_indices":[4,0,3,0,0],"split_type":[0,0,0,0,0],"sum_hessian":[3.466928E0,1.4580694E0,2.0088587E0,1.0050192E0,1.0038394E0],"tree_param":{"num_deleted":"0","num_feature":"5","num_nodes":"5","size_leaf_vector":"0"}},{"base_weights":[2.7688121E-2,-2.3953371E-1,1.7973518E-1,2.3465732E-1,4.403261E-2],"categories":[],"categories_nodes":[],"categories_segments":[],"categories_sizes":[],"default_left":[1,0,1,0,0],"id":27,"left_children":[1,-1,3,-1,-1],"loss_changes":[2.198748E-1,0E0,1.459837E-2,0E0,0E0],"parents":[2147483647,0,0,2,2],"right_children":[2,-1,4,-1,-1],"split_conditions":[2.126053E-1,-7.186011E-2,-4.1552144E-1,7.03972E-2,1.32097835E-2],"split_indices":[2,0,3,0,0],"split_type":[0,0,0,0,0],"sum_hessian":[3.3519783E0,1.0069237E0,2.3450546E0,1.1502979E0,1.1947569E0],"tree_param":{"num_deleted":"0","num_feature":"5","num_nodes":"5","size_leaf_vector":"0"}},{"base_weights":[2.236251E-2,-1.9849026E-1,1.9514893E-1],"categories":[],"categories_nodes":[],"categories_segments":[],"categories_sizes":[],"default_left":[1,0,0],"id":28,"left_children":[1,-1,-1],"loss_changes":[2.0245889E-1,0E0,0E0],"parents":[2147483647,0,0],"right_children":[2,-1,-1],"split_conditions":[-5.0540096E-1,-5.954708E-2,5.854468E-2],"split_indices":[4,0,0],"split_type":[0,0,0],"sum_hessian":[3.2904136E0,1.3790165E0,1.9113971E0],"tree_param":{"num_deleted":"0","num_feature":"5","num_nodes":"3","size_leaf_vector":"0"}},{"base_weights":[1.5711157E-2,-1.2314885E-1,2.2765009E-1,2.0272067E-1,-3.9593872E-1],"categories":[],"categories_nodes":[],"categories_segments":[],"categories_sizes":[],"default_left":[1,1,0,0,0],"id":29,"left_children":[1,3,-1,-1,-1],"loss_changes":[1.5236665E-1,3.648443E-1,0E0,0E0,0E0],"parents":[2147483647,0,0,1,1],"right_children":[2,4,-1,-1,-1],"split_conditions":[-3.993502E-1,-1.8012223E-1,6.829503E-2,6.0816202E-2,-1.1878162E-1],"split_indices":[3,0,0,0,0],"split_type":[0,0,0,0,0],"sum_hessian":[3.2246852E0,2.2013364E0,1.0233489E0,1.1201218E0,1.0812144E0],"tree_param":{"num_deleted":"0","num_feature":"5","num_nodes":"5","size_leaf_vector":"0"}},{"base_weights":[1.3132199E-2,-1.765527E-1,1.6627724E-1],"categories":[],"categories_nodes":[],"categories_segments":[],"categories_sizes":[],"default_left":[1,0,0],"id":30,"left_children":[1,-1,-1],"loss_changes":[1.4867207E-1,0E0,0E0],"parents":[2147483647,0,0],"right_children":[2,-1,-1],"split_conditions":[-5.0540096E-1,-5.2965812E-2,4.9883176E-2],"split_indices":[4,0,0],"split_type":[0,0,0],"sum_hessian":[3.1073406E0,1.3197978E0,1.7875429E0],"tree_param":{"num_deleted":"0","num_feature":"5","num_nodes":"3","size_leaf_vector":"0"}},{"base_weights":[8.549015E-3,1.5306892E-1,-1.4185847E-1],"categories":[],"categories_nodes":[],"categories_segments":[],"categories_sizes":[],"default_left":[1,0,0],"id":31,"left_children":[1,-1,-1],"loss_changes":[1.0991263E-1,0E0,0E0],"parents":[2147483647,0,0],"right_children":[2,-1,-1],"split_conditions":[9.598307E-2,4.5920677E-2,-4.2557545E-2],"split_indices":[0,0,0],"split_type":[0,0,0],"sum_hessian":[3.0575523E0,1.5502709E0,1.5072814E0],"tree_param":{"num_deleted":"0","num_feature":"5","num_nodes":"3","size_leaf_vector":"0"}},{"base_weights":[6.8582515E-3,-1.6013041E-1,1.42808E-1],"categories":[],"categories_nodes":[],"categories_segments":[],"categories_sizes":[],"default_left":[1,0,0],"id":32,"left_children":[1,-1,-1],"loss_changes":[1.14545345E-1,0E0,0E0],"parents":[2147483647,0,0],"right_children":[2,-1,-1],"split_conditions":[-5.0540096E-1,-4.8039127E-2,4.2842403E-2],"split_indices":[4,0,0],"split_type":[0,0,0],"sum_hessian":[3.0382862E0,1.2836721E0,1.7546142E0],"tree_param":{"num_deleted":"0","num_feature":"5","num_nodes":"3","size_leaf_vector":"0"}},{"base_weights":[3.543469E-3,1.3326016E-1,-1.3013549E-1],"categories":[],"categories_nodes":[],"categories_segments":[],"categories_sizes":[],"default_left":[1,0,0],"id":33,"left_children":[1,-1,-1],"loss_changes":[8.667691E-2,0E0,0E0],"parents":[2147483647,0,0],"right_children":[2,-1,-1],"split_conditions":[9.598307E-2,3.997805E-2,-3.9040647E-2],"split_indices":[0,0,0],"split_type":[0,0,0],"sum_hessian":[2.9984696E0,1.5233778E0,1.4750918E0],"tree_param":{"num_deleted":"0","num_feature":"5","num_nodes":"3","size_leaf_vector":"0"}},{"base_weights":[2.7172067E-3,-1.4514363E-1,1.2371631E-1],"categories":[],"categories_nodes":[],"categories_segments":[],"categories_sizes":[],"default_left":[1,0,0],"id":34,"left_children":[1,-1,-1],"loss_changes":[8.92366E-2,0E0,0E0],"parents":[2147483647,0,0],"right_children":[2,-1,-1],"split_conditions":[-5.0540096E-1,-4.354309E-2,3.7114896E-2],"split_indices":[4,0,0],"split_type":[0,0,0],"sum_hessian":[2.984118E0,1.2531844E0,1.7309335E0],"tree_param":{"num_deleted":"0","num_feature":"5","num_nodes":"3","size_leaf_vector":"0"}},{"base_weights":[2.8278108E-4,1.5389018E-1,-1.07371986E-1],"categories":[],"categories_nodes":[],"categories_segments":[],"categories_sizes":[],"default_left":[1,0,0],"id":35,"left_children":[1,-1,-1],"loss_changes":[8.187302E-2,0E0,0E0],"parents":[2147483647,0,0],"right_children":[2,-1,-1],"split_conditions":[-6.500044E-1,4.6167053E-2,-3.2211598E-2],"split_indices":[3,0,0],"split_type":[0,0,0],"sum_hessian":[2.9518187E0,1.0393466E0,1.9124721E0],"tree_param":{"num_deleted":"0","num_feature":"5","num_nodes":"3","size_leaf_vector":"0"}},{"base_weights":[3.7660096E-3,-1.33944E-1,1.150675E-1],"categories":[],"categories_nodes":[],"categories_segments":[],"categories_sizes":[],"default_left":[1,0,0],"id":36,"left_children":[1,-1,-1],"loss_changes":[7.579207E-2,0E0,0E0],"parents":[2147483647,0,0],"right_children":[2,-1,-1],"split_conditions":[-5.0540096E-1,-4.01832E-2,3.452025E-2],"split_indices":[4,0,0],"split_type":[0,0,0],"sum_hessian":[2.9393332E0,1.2228737E0,1.7164594E0],"tree_param":{"num_deleted":"0","num_feature":"5","num_nodes":"3","size_leaf_vector":"0"}},{"base_weights":[1.1923506E-3,1.4404786E-1,-9.9622026E-2],"categories":[],"categories_nodes":[],"categories_segments":[],"categories_sizes":[],"default_left":[1,0,0],"id":37,"left_children":[1,-1,-1],"loss_changes":[7.0677E-2,0E0,0E0],"parents":[2147483647,0,0],"right_children":[2,-1,-1],"split_conditions":[-6.500044E-1,4.321436E-2,-2.9886609E-2],"split_indices":[3,0,0],"split_type":[0,0,0],"sum_hessian":[2.9110606E0,1.0269766E0,1.884084E0],"tree_param":{"num_deleted":"0","num_feature":"5","num_nodes":"3","size_leaf_vector":"0"}},{"base_weights":[4.2645736E-3,-1.24332085E-1,1.07153244E-1],"categories":[],"categories_nodes":[],"categories_segments":[],"categories_sizes":[],"default_left":[1,0,0],"id":38,"left_children":[1,-1,-1],"loss_changes":[6.493436E-2,0E0,0E0],"parents":[2147483647,0,0],"right_children":[2,-1,-1],"split_conditions":[-5.0540096E-1,-3.7299626E-2,3.2145973E-2],"split_indices":[4,0,0],"split_type":[0,0,0],"sum_hessian":[2.900781E0,1.1966809E0,1.7041E0],"tree_param":{"num_deleted":"0","num_feature":"5","num_nodes":"3","size_leaf_vector":"0"}},{"base_weights":[1.6662724E-3,1.3885073E-1,-1.09510995E-1],"categories":[],"categories_nodes":[],"categories_segments":[],"categories_sizes":[],"default_left":[1,0,0],"id":39,"left_children":[1,-1,-1],"loss_changes":[7.431988E-2,0E0,0E0],"parents":[2147483647,0,0],"right_children":[2,-1,-1],"split_conditions":[-3.5515246E-1,4.165522E-2,-3.28533E-2],"split_indices":[1,0,0],"split_type":[0,0,0],"sum_hessian":[2.8758848E0,1.1759442E0,1.6999404E0],"tree_param":{"num_deleted":"0","num_feature":"5","num_nodes":"3","size_leaf_vector":"0"}},{"base_weights":[3.4732062E-3,-1.1854083E-1,1.0115687E-1],"categories":[],"categories_nodes":[],"categories_segments":[],"categories_sizes":[],"default_left":[1,0,0],"id":40,"left_children":[1,-1,-1],"loss_changes":[5.803704E-2,0E0,0E0],"parents":[2147483647,0,0],"right_children":[2,-1,-1],"split_conditions":[-5.0540096E-1,-3.556225E-2,3.0347062E-2],"split_indices":[4,0,0],"split_type":[0,0,0],"sum_hessian":[2.8633006E0,1.1781667E0,1.6851338E0],"tree_param":{"num_deleted":"0","num_feature":"5","num_nodes":"3","size_leaf_vector":"0"}},{"base_weights":[1.0792922E-3,1.2900649E-1,-1.02252685E-1],"categories":[],"categories_nodes":[],"categories_segments":[],"categories_sizes":[],"default_left":[1,0,0],"id":41,"left_children":[1,-1,-1],"loss_changes":[6.3961394E-2,0E0,0E0],"parents":[2147483647,0,0],"right_children":[2,-1,-1],"split_conditions":[-3.5515246E-1,3.8701948E-2,-3.0675806E-2],"split_indices":[1,0,0],"split_type":[0,0,0],"sum_hessian":[2.8407025E0,1.1582714E0,1.6824311E0],"tree_param":{"num_deleted":"0","num_feature":"5","num_nodes":"3","size_leaf_vector":"0"}},{"base_weights":[2.8587058E-3,1.0893553E-1,-1.0465658E-1],"categories":[],"categories_nodes":[],"categories_segments":[],"categories_sizes":[],"default_left":[1,0,0],"id":42,"left_children":[1,-1,-1],"loss_changes":[5.5084858E-2,0E0,0E0],"parents":[2147483647,0,0],"right_children":[2,-1,-1],"split_conditions":[9.598307E-2,3.268066E-2,-3.1396974E-2],"split_indices":[0,0,0],"split_type":[0,0,0],"sum_hessian":[2.830294E0,1.418028E0,1.4122659E0],"tree_param":{"num_deleted":"0","num_feature":"5","num_nodes":"3","size_leaf_vector":"0"}},{"base_weights":[2.3527814E-3,-1.2211128E-1,1.0199699E-1],"categories":[],"categories_nodes":[],"categories_segments":[],"categories_sizes":[],"default_left":[1,0,0],"id":43,"left_children":[1,-1,-1],"loss_changes":[5.985521E-2,0E0,0E0],"parents":[2147483647,0,0],"right_children":[2,-1,-1],"split_conditions":[-5.0540096E-1,-3.6633387E-2,3.0599097E-2],"split_indices":[4,0,0],"split_type":[0,0,0],"sum_hessian":[2.8219445E0,1.1544569E0,1.6674875E0],"tree_param":{"num_deleted":"0","num_feature":"5","num_nodes":"3","size_leaf_vector":"0"}},{"base_weights":[5.5983277E-5,1.16441704E-1,-9.264206E-2],"categories":[],"categories_nodes":[],"categories_segments":[],"categories_sizes":[],"default_left":[1,0,0],"id":44,"left_children":[1,-1,-1],"loss_changes":[5.1774938E-2,0E0,0E0],"parents":[2147483647,0,0],"right_children":[2,-1,-1],"split_conditions":[-3.5515246E-1,3.4932513E-2,-2.779262E-2],"split_indices":[1,0,0],"split_type":[0,0,0],"sum_hessian":[2.7991073E0,1.1274339E0,1.6716735E0],"tree_param":{"num_deleted":"0","num_feature":"5","num_nodes":"3","size_leaf_vector":"0"}},{"base_weights":[1.9347093E-3,-1.1498292E-1,9.548022E-2],"categories":[],"categories_nodes":[],"categories_segments":[],"categories_sizes":[],"default_left":[1,0,0],"id":45,"left_children":[1,-1,-1],"loss_changes":[5.2441552E-2,0E0,0E0],"parents":[2147483647,0,0],"right_children":[2,-1,-1],"split_conditions":[-5.0540096E-1,-3.4494877E-2,2.8644066E-2],"split_indices":[4,0,0],"split_type":[0,0,0],"sum_hessian":[2.791031E0,1.1386839E0,1.652347E0],"tree_param":{"num_deleted":"0","num_feature":"5","num_nodes":"3","size_leaf_vector":"0"}},{"base_weights":[-2.067471E-4,1.1830824E-1,-8.836361E-2],"categories":[],"categories_nodes":[],"categories_segments":[],"categories_sizes":[],"default_left":[1,0,0],"id":46,"left_children":[1,-1,-1],"loss_changes":[4.9848672E-2,0E0,0E0],"parents":[2147483647,0,0],"right_children":[2,-1,-1],"split_conditions":[-5.448913E-1,3.5492472E-2,-2.6509084E-2],"split_indices":[3,0,0],"split_type":[0,0,0],"sum_hessian":[2.7705657E0,1.0359079E0,1.7346578E0],"tree_param":{"num_deleted":"0","num_feature":"5","num_nodes":"3","size_leaf_vector":"0"}},{"base_weights":[2.2509873E-3,-1.0777786E-1,8.9714594E-2],"categories":[],"categories_nodes":[],"categories_segments":[],"categories_sizes":[],"default_left":[1,0,0],"id":47,"left_children":[1,-1,-1],"loss_changes":[4.5893025E-2,0E0,0E0],"parents":[2147483647,0,0],"right_children":[2,-1,-1],"split_conditions":[-5.0540096E-1,-3.233336E-2,2.6914379E-2],"split_indices":[4,0,0],"split_type":[0,0,0],"sum_hessian":[2.7640882E0,1.1212726E0,1.6428156E0],"tree_param":{"num_deleted":"0","num_feature":"5","num_nodes":"3","size_leaf_vector":"0"}},{"base_weights":[1.2573018E-4,1.1559658E-1,-9.123757E-2],"categories":[],"categories_nodes":[],"categories_segments":[],"categories_sizes":[],"default_left":[1,0,0],"id":48,"left_children":[1,-1,-1],"loss_changes":[5.0063394E-2,0E0,0E0],"parents":[2147483647,0,0],"right_children":[2,-1,-1],"split_conditions":[-3.5515246E-1,3.4678973E-2,-2.737127E-2],"split_indices":[1,0,0],"split_type":[0,0,0],"sum_hessian":[2.7457254E0,1.0956858E0,1.6500397E0],"tree_param":{"num_deleted":"0","num_feature":"5","num_nodes":"3","size_leaf_vector":"0"}},{"base_weights":[2.065174E-3,-1.0305281E-1,8.553058E-2],"categories":[],"categories_nodes":[],"categories_segments":[],"categories_sizes":[],"default_left":[1,0,0],"id":49,"left_children":[1,-1,-1],"loss_changes":[4.1611444E-2,0E0,0E0],"parents":[2147483647,0,0],"right_children":[2,-1,-1],"split_conditions":[-5.0540096E-1,-3.0915843E-2,2.5659176E-2],"split_indices":[4,0,0],"split_type":[0,0,0],"sum_hessian":[2.7381294E0,1.1080067E0,1.6301227E0],"tree_param":{"num_deleted":"0","num_feature":"5","num_nodes":"3","size_leaf_vector":"0"}},{"base_weights":[1.725524E-5,1.1468166E-1,-8.525164E-2],"categories":[],"categories_nodes":[],"categories_segments":[],"categories_sizes":[],"default_left":[1,0,0],"id":50,"left_children":[1,-1,-1],"loss_changes":[4.6159886E-2,0E0,0E0],"parents":[2147483647,0,0],"right_children":[2,-1,-1],"split_conditions":[-5.448913E-1,3.44045E-2,-2.5575493E-2],"split_indices":[3,0,0],"split_type":[0,0,0],"sum_hessian":[2.7211766E0,1.0134327E0,1.7077439E0],"tree_param":{"num_deleted":"0","num_feature":"5","num_nodes":"3","size_leaf_vector":"0"}},{"base_weights":[2.402852E-3,1.0251659E-1,-7.715072E-2],"categories":[],"categories_nodes":[],"categories_segments":[],"categories_sizes":[],"default_left":[1,0,0],"id":51,"left_children":[1,-1,-1],"loss_changes":[3.75E-2,0E0,0E0],"parents":[2147483647,0,0],"right_children":[2,-1,-1],"split_conditions":[-3.5515246E-1,3.0754978E-2,-2.3145216E-2],"split_indices":[1,0,0],"split_type":[0,0,0],"sum_hessian":[2.7153773E0,1.0745134E0,1.6408639E0],"tree_param":{"num_deleted":"0","num_feature":"5","num_nodes":"3","size_leaf_vector":"0"}},{"base_weights":[3.747152E-3,-1.0827149E-1,9.171018E-2],"categories":[],"categories_nodes":[],"categories_segments":[],"categories_sizes":[],"default_left":[1,0,0],"id":52,"left_children":[1,-1,-1],"loss_changes":[4.648628E-2,0E0,0E0],"parents":[2147483647,0,0],"right_children":[2,-1,-1],"split_conditions":[-5.0540096E-1,-3.2481447E-2,2.7513055E-2],"split_indices":[4,0,0],"split_type":[0,0,0],"sum_hessian":[2.7100208E0,1.0904659E0,1.619555E0],"tree_param":{"num_deleted":"0","num_feature":"5","num_nodes":"3","size_leaf_vector":"0"}},{"base_weights":[1.2833879E-3,9.286578E-2,-8.9758314E-2],"categories":[],"categories_nodes":[],"categories_segments":[],"categories_sizes":[],"default_left":[1,0,0],"id":53,"left_children":[1,-1,-1],"loss_changes":[3.911677E-2,0E0,0E0],"parents":[2147483647,0,0],"right_children":[2,-1,-1],"split_conditions":[9.598307E-2,2.7859734E-2,-2.6927495E-2],"split_indices":[0,0,0],"split_type":[0,0,0],"sum_hessian":[2.6917686E0,1.3319114E0,1.3598572E0],"tree_param":{"num_deleted":"0","num_feature":"5","num_nodes":"3","size_leaf_vector":"0"}},{"base_weights":[1.1554969E-3,-9.965434E-2,8.082426E-2],"categories":[],"categories_nodes":[],"categories_segments":[],"categories_sizes":[],"default_left":[1,0,0],"id":54,"left_children":[1,-1,-1],"loss_changes":[3.766038E-2,0E0,0E0],"parents":[2147483647,0,0],"right_children":[2,-1,-1],"split_conditions":[-5.0540096E-1,-2.9896302E-2,2.424728E-2],"split_indices":[4,0,0],"split_type":[0,0,0],"sum_hessian":[2.6862698E0,1.075065E0,1.6112047E0],"tree_param":{"num_deleted":"0","num_feature":"5","num_nodes":"3","size_leaf_vector":"0"}},{"base_weights":[-7.3947525E-4,1.0443788E-1,-8.241835E-2],"categories":[],"categories_nodes":[],"categories_segments":[],"categories_sizes":[],"default_left":[1,0,0],"id":55,"left_children":[1,-1,-1],"loss_changes":[4.014303E-2,0E0,0E0],"parents":[2147483647,0,0],"right_children":[2,-1,-1],"split_conditions":[-3.5515246E-1,3.1331364E-2,-2.4725506E-2],"split_indices":[1,0,0],"split_type":[0,0,0],"sum_hessian":[2.6708512E0,1.045687E0,1.6251643E0],"tree_param":{"num_deleted":"0","num_feature":"5","num_nodes":"3","size_leaf_vector":"0"}},{"base_weights":[1.2893758E-3,-9.536109E-2,7.748584E-2],"categories":[],"categories_nodes":[],"categories_segments":[],"categories_sizes":[],"default_left":[1,0,0],"id":56,"left_children":[1,-1,-1],"loss_changes":[3.438046E-2,0E0,0E0],"parents":[2147483647,0,0],"right_children":[2,-1,-1],"split_conditions":[-5.0540096E-1,-2.8608328E-2,2.3245752E-2],"split_indices":[4,0,0],"split_type":[0,0,0],"sum_hessian":[2.6650968E0,1.0639837E0,1.6011132E0],"tree_param":{"num_deleted":"0","num_feature":"5","num_nodes":"3","size_leaf_vector":"0"}},{"base_weights":[-5.7638553E-4,9.898617E-2,-7.7888094E-2],"categories":[],"categories_nodes":[],"categories_segments":[],"categories_sizes":[],"default_left":[1,0,0],"id":57,"left_children":[1,-1,-1],"loss_changes":[3.581132E-2,0E0,0E0],"parents":[2147483647,0,0],"right_children":[2,-1,-1],"split_conditions":[-3.5515246E-1,2.9695852E-2,-2.3366429E-2],"split_indices":[1,0,0],"split_type":[0,0,0],"sum_hessian":[2.6507983E0,1.0361218E0,1.6146765E0],"tree_param":{"num_deleted":"0","num_feature":"5","num_nodes":"3","size_leaf_vector":"0"}},{"base_weights":[1.3432825E-3,-9.1361195E-2,7.428707E-2],"categories":[],"categories_nodes":[],"categories_segments":[],"categories_sizes":[],"default_left":[1,0,0],"id":58,"left_children":[1,-1,-1],"loss_changes":[3.1441677E-2,0E0,0E0],"parents":[2147483647,0,0],"right_children":[2,-1,-1],"split_conditions":[-5.0540096E-1,-2.740836E-2,2.2286123E-2],"split_indices":[4,0,0],"split_type":[0,0,0],"sum_hessian":[2.645953E0,1.0539707E0,1.5919822E0],"tree_param":{"num_deleted":"0","num_feature":"5","num_nodes":"3","size_leaf_vector":"0"}},{"base_weights":[-4.7653256E-4,8.694132E-2,-8.618381E-2],"categories":[],"categories_nodes":[],"categories_segments":[],"categories_sizes":[],"default_left":[1,0,0],"id":59,"left_children":[1,-1,-1],"loss_changes":[3.4710232E-2,0E0,0E0],"parents":[2147483647,0,0],"right_children":[2,-1,-1],"split_conditions":[9.598307E-2,2.6082397E-2,-2.5855144E-2],"split_indices":[0,0,0],"split_type":[0,0,0],"sum_hessian":[2.6326802E0,1.2962059E0,1.3364743E0],"tree_param":{"num_deleted":"0","num_feature":"5","num_nodes":"3","size_leaf_vector":"0"}},{"base_weights":[-2.635933E-4,8.96734E-2,-6.967275E-2],"categories":[],"categories_nodes":[],"categories_segments":[],"categories_sizes":[],"default_left":[1,0,0],"id":60,"left_children":[1,-1,-1],"loss_changes":[2.8895428E-2,0E0,0E0],"parents":[2147483647,0,0],"right_children":[2,-1,-1],"split_conditions":[-3.5515246E-1,2.6902022E-2,-2.0901825E-2],"split_indices":[1,0,0],"split_type":[0,0,0],"sum_hessian":[2.6280043E0,1.0175539E0,1.6104504E0],"tree_param":{"num_deleted":"0","num_feature":"5","num_nodes":"3","size_leaf_vector":"0"}},{"base_weights":[1.4774016E-3,-9.430163E-2,7.645615E-2],"categories":[],"categories_nodes":[],"categories_segments":[],"categories_sizes":[],"default_left":[1,0,0],"id":61,"left_children":[1,-1,-1],"loss_changes":[3.3237733E-2,0E0,0E0],"parents":[2147483647,0,0],"right_children":[2,-1,-1],"split_conditions":[-5.0540096E-1,-2.8290492E-2,2.2936847E-2],"split_indices":[4,0,0],"split_type":[0,0,0],"sum_hessian":[2.624338E0,1.0391719E0,1.585166E0],"tree_param":{"num_deleted":"0","num_feature":"5","num_nodes":"3","size_leaf_vector":"0"}},{"base_weights":[-4.5159465E-4,8.663072E-2,-6.755056E-2],"categories":[],"categories_nodes":[],"categories_segments":[],"categories_sizes":[],"default_left":[1,0,0],"id":62,"left_children":[1,-1,-1],"loss_changes":[2.6949404E-2,0E0,0E0],"parents":[2147483647,0,0],"right_children":[2,-1,-1],"split_conditions":[-3.5515246E-1,2.5989216E-2,-2.026517E-2],"split_indices":[1,0,0],"split_type":[0,0,0],"sum_hessian":[2.6106398E0,1.0094578E0,1.601182E0],"tree_param":{"num_deleted":"0","num_feature":"5","num_nodes":"3","size_leaf_vector":"0"}},{"base_weights":[1.2662539E-3,-8.9434825E-2,7.222835E-2],"categories":[],"categories_nodes":[],"categories_segments":[],"categories_sizes":[],"default_left":[1,0,0],"id":63,"left_children":[1,-1,-1],"loss_changes":[2.9677877E-2,0E0,0E0],"parents":[2147483647,0,0],"right_children":[2,-1,-1],"split_conditions":[-5.0540096E-1,-2.6830448E-2,2.1668505E-2],"split_indices":[4,0,0],"split_type":[0,0,0],"sum_hessian":[2.6073532E0,1.0302316E0,1.5771216E0],"tree_param":{"num_deleted":"0","num_feature":"5","num_nodes":"3","size_leaf_vector":"0"}},{"base_weights":[-5.4489484E-4,7.706577E-2,-7.611895E-2],"categories":[],"categories_nodes":[],"categories_segments":[],"categories_sizes":[],"default_left":[1,0,0],"id":64,"left_children":[1,-1,-1],"loss_changes":[2.6951412E-2,0E0,0E0],"parents":[2147483647,0,0],"right_children":[2,-1,-1],"split_conditions":[9.598307E-2,2.3119733E-2,-2.2835687E-2],"split_indices":[0,0,0],"split_type":[0,0,0],"sum_hessian":[2.5948806E0,1.2704526E0,1.3244278E0],"tree_param":{"num_deleted":"0","num_feature":"5","num_nodes":"3","size_leaf_vector":"0"}},{"base_weights":[-3.063778E-4,-8.253329E-2,6.431862E-2],"categories":[],"categories_nodes":[],"categories_segments":[],"categories_sizes":[],"default_left":[1,0,0],"id":65,"left_children":[1,-1,-1],"loss_changes":[2.4393259E-2,0E0,0E0],"parents":[2147483647,0,0],"right_children":[2,-1,-1],"split_conditions":[-5.0540096E-1,-2.475999E-2,1.9295586E-2],"split_indices":[4,0,0],"split_type":[0,0,0],"sum_hessian":[2.5914829E0,1.0184838E0,1.5729992E0],"tree_param":{"num_deleted":"0","num_feature":"5","num_nodes":"3","size_leaf_vector":"0"}},{"base_weights":[-1.7419973E-3,7.274284E-2,-6.975135E-2],"categories":[],"categories_nodes":[],"categories_segments":[],"categories_sizes":[],"default_left":[1,0,0],"id":66,"left_children":[1,-1,-1],"loss_changes":[2.3212967E-2,0E0,0E0],"parents":[2147483647,0,0],"right_children":[2,-1,-1],"split_conditions":[-4.2360705E-1,2.1822853E-2,-2.0925406E-2],"split_indices":[3,0,0],"split_type":[0,0,0],"sum_hessian":[2.5807848E0,1.1985332E0,1.3822516E0],"tree_param":{"num_deleted":"0","num_feature":"5","num_nodes":"3","size_leaf_vector":"0"}},{"base_weights":[-9.6637115E-4,-7.935658E-2,6.0971495E-2],"categories":[],"categories_nodes":[],"categories_segments":[],"categories_sizes":[],"default_left":[1,0,0],"id":67,"left_children":[1,-1,-1],"loss_changes":[2.221376E-2,0E0,0E0],"parents":[2147483647,0,0],"right_children":[2,-1,-1],"split_conditions":[-5.0540096E-1,-2.3806976E-2,1.829145E-2],"split_indices":[4,0,0],"split_type":[0,0,0],"sum_hessian":[2.5786028E0,1.0140127E0,1.5645902E0],"tree_param":{"num_deleted":"0","num_feature":"5","num_nodes":"3","size_leaf_vector":"0"}},{"base_weights":[-2.237519E-3,6.705436E-2,-6.893584E-2],"categories":[],"categories_nodes":[],"categories_segments":[],"categories_sizes":[],"default_left":[1,0,0],"id":68,"left_children":[1,-1,-1],"loss_changes":[2.1115389E-2,0E0,0E0],"parents":[2147483647,0,0],"right_children":[2,-1,-1],"split_conditions":[9.598307E-2,2.0116309E-2,-2.0680754E-2],"split_indices":[0,0,0],"split_type":[0,0,0],"sum_hessian":[2.5686243E0,1.2571999E0,1.3114243E0],"tree_param":{"num_deleted":"0","num_feature":"5","num_nodes":"3","size_leaf_vector":"0"}},{"base_weights":[-1.7267053E-3,-7.321911E-2,5.4865796E-2],"categories":[],"categories_nodes":[],"categories_segments":[],"categories_sizes":[],"default_left":[1,0,0],"id":69,"left_children":[1,-1,-1],"loss_changes":[1.8446306E-2,0E0,0E0],"parents":[2147483647,0,0],"right_children":[2,-1,-1],"split_conditions":[-5.0540096E-1,-2.1965735E-2,1.6459739E-2],"split_indices":[4,0,0],"split_type":[0,0,0],"sum_hessian":[2.5663161E0,1.0040811E0,1.5622351E0],"tree_param":{"num_deleted":"0","num_feature":"5","num_nodes":"3","size_leaf_vector":"0"}},{"base_weights":[-2.767784E-3,7.032706E-2,-6.8403475E-2],"categories":[],"categories_nodes":[],"categories_segments":[],"categories_sizes":[],"default_left":[1,0,0],"id":70,"left_children":[1,-1,-1],"loss_changes":[2.1879021E-2,0E0,0E0],"parents":[2147483647,0,0],"right_children":[2,-1,-1],"split_conditions":[-4.2360705E-1,2.1098118E-2,-2.0521043E-2],"split_indices":[3,0,0],"split_type":[0,0,0],"sum_hessian":[2.557674E0,1.1762611E0,1.3814127E0],"tree_param":{"num_deleted":"0","num_feature":"5","num_nodes":"3","size_leaf_vector":"0"}},{"base_weights":[-1.7682448E-3,-7.120396E-2,5.3283118E-2],"categories":[],"categories_nodes":[],"categories_segments":[],"categories_sizes":[],"default_left":[1,0,0],"id":71,"left_children":[1,-1,-1],"loss_changes":[1.738605E-2,0E0,0E0],"parents":[2147483647,0,0],"right_children":[2,-1,-1],"split_conditions":[-5.0540096E-1,-2.1361189E-2,1.5984936E-2],"split_indices":[4,0,0],"split_type":[0,0,0],"sum_hessian":[2.5557806E0,1.0004781E0,1.5553024E0],"tree_param":{"num_deleted":"0","num_feature":"5","num_nodes":"3","size_leaf_vector":"0"}},{"base_weights":[-2.7603193E-3,6.629052E-2,-6.458442E-2],"categories":[],"categories_nodes":[],"categories_segments":[],"categories_sizes":[],"default_left":[1,0,0],"id":72,"left_children":[1,-1,-1],"loss_changes":[1.942585E-2,0E0,0E0],"parents":[2147483647,0,0],"right_children":[2,-1,-1],"split_conditions":[-4.2360705E-1,1.9887157E-2,-1.9375326E-2],"split_indices":[3,0,0],"split_type":[0,0,0],"sum_hessian":[2.547551E0,1.1693119E0,1.3782392E0],"tree_param":{"num_deleted":"0","num_feature":"5","num_nodes":"3","size_leaf_vector":"0"}},{"base_weights":[-1.7986574E-3,-5.920047E-2,6.211764E-2],"categories":[],"categories_nodes":[],"categories_segments":[],"categories_sizes":[],"default_left":[1,0,0],"id":73,"left_children":[1,-1,-1],"loss_changes":[1.6687393E-2,0E0,0E0],"parents":[2147483647,0,0],"right_children":[2,-1,-1],"split_conditions":[2.4404156E-1,-1.776014E-2,1.8635293E-2],"split_indices":[2,0,0],"split_type":[0,0,0],"sum_hessian":[2.546011E0,1.3802344E0,1.1657767E0],"tree_param":{"num_deleted":"0","num_feature":"5","num_nodes":"3","size_leaf_vector":"0"}},{"base_weights":[-9.995506E-4,6.132958E-2,-5.750268E-2],"categories":[],"categories_nodes":[],"categories_segments":[],"categories_sizes":[],"default_left":[1,0,0],"id":74,"left_children":[1,-1,-1],"loss_changes":[1.5988931E-2,0E0,0E0],"parents":[2147483647,0,0],"right_children":[2,-1,-1],"split_conditions":[-4.2360705E-1,1.8398875E-2,-1.7250804E-2],"split_indices":[3,0,0],"split_type":[0,0,0],"sum_hessian":[2.5386305E0,1.1664687E0,1.3721617E0],"tree_param":{"num_deleted":"0","num_feature":"5","num_nodes":"3","size_leaf_vector":"0"}},{"base_weights":[-3.829447E-4,-5.3085104E-2,5.7655096E-2],"categories":[],"categories_nodes":[],"categories_segments":[],"categories_sizes":[],"default_left":[1,0,0],"id":75,"left_children":[1,-1,-1],"loss_changes":[1.3881321E-2,0E0,0E0],"parents":[2147483647,0,0],"right_children":[2,-1,-1],"split_conditions":[2.4404156E-1,-1.5925532E-2,1.729653E-2],"split_indices":[2,0,0],"split_type":[0,0,0],"sum_hessian":[2.5376432E0,1.374684E0,1.1629592E0],"tree_param":{"num_deleted":"0","num_feature":"5","num_nodes":"3","size_leaf_vector":"0"}},{"base_weights":[1.2391638E-4,5.8544774E-2,-5.6405954E-2],"categories":[],"categories_nodes":[],"categories_segments":[],"categories_sizes":[],"default_left":[1,0,0],"id":76,"left_children":[1,-1,-1],"loss_changes":[1.4964167E-2,0E0,0E0],"parents":[2147483647,0,0],"right_children":[2,-1,-1],"split_conditions":[9.598307E-2,1.7563432E-2,-1.6921787E-2],"split_indices":[0,0,0],"split_type":[0,0,0],"sum_hessian":[2.5312066E0,1.2272552E0,1.3039514E0],"tree_param":{"num_deleted":"0","num_feature":"5","num_nodes":"3","size_leaf_vector":"0"}},{"base_weights":[2.6552763E-4,-4.8155297E-2,5.3298656E-2],"categories":[],"categories_nodes":[],"categories_segments":[],"categories_sizes":[],"default_left":[1,0,0],"id":77,"left_children":[1,-1,-1],"loss_changes":[1.1631274E-2,0E0,0E0],"parents":[2147483647,0,0],"right_children":[2,-1,-1],"split_conditions":[2.4404156E-1,-1.4446589E-2,1.5989598E-2],"split_indices":[2,0,0],"split_type":[0,0,0],"sum_hessian":[2.529979E0,1.3705778E0,1.1594013E0],"tree_param":{"num_deleted":"0","num_feature":"5","num_nodes":"3","size_leaf_vector":"0"}},{"base_weights":[6.3089555E-4,5.5629317E-2,-4.973263E-2],"categories":[],"categories_nodes":[],"categories_segments":[],"categories_sizes":[],"default_left":[1,0,0],"id":78,"left_children":[1,-1,-1],"loss_changes":[1.2528816E-2,0E0,0E0],"parents":[2147483647,0,0],"right_children":[2,-1,-1],"split_conditions":[-4.2360705E-1,1.6688796E-2,-1.49197895E-2],"split_indices":[3,0,0],"split_type":[0,0,0],"sum_hessian":[2.524377E0,1.1566865E0,1.3676907E0],"tree_param":{"num_deleted":"0","num_feature":"5","num_nodes":"3","size_leaf_vector":"0"}},{"base_weights":[9.3858683E-4,4.850654E-2,-4.526161E-2],"categories":[],"categories_nodes":[],"categories_segments":[],"categories_sizes":[],"default_left":[1,0,0],"id":79,"left_children":[1,-1,-1],"loss_changes":[9.9398E-3,0E0,0E0],"parents":[2147483647,0,0],"right_children":[2,-1,-1],"split_conditions":[9.598307E-2,1.4551963E-2,-1.3578484E-2],"split_indices":[0,0,0],"split_type":[0,0,0],"sum_hessian":[2.5239096E0,1.218951E0,1.3049586E0],"tree_param":{"num_deleted":"0","num_feature":"5","num_nodes":"3","size_leaf_vector":"0"}},{"base_weights":[9.4054686E-4,-4.7207303E-2,5.3300846E-2],"categories":[],"categories_nodes":[],"categories_segments":[],"categories_sizes":[],"default_left":[1,0,0],"id":80,"left_children":[1,-1,-1],"loss_changes":[1.139897E-2,0E0,0E0],"parents":[2147483647,0,0],"right_children":[2,-1,-1],"split_conditions":[2.4404156E-1,-1.4162191E-2,1.5990255E-2],"split_indices":[2,0,0],"split_type":[0,0,0],"sum_hessian":[2.5234647E0,1.365883E0,1.1575817E0],"tree_param":{"num_deleted":"0","num_feature":"5","num_nodes":"3","size_leaf_vector":"0"}},{"base_weights":[1.1872425E-3,4.6494506E-2,-4.0461E-2],"categories":[],"categories_nodes":[],"categories_segments":[],"categories_sizes":[],"default_left":[1,0,0],"id":81,"left_children":[1,-1,-1],"loss_changes":[8.519579E-3,0E0,0E0],"parents":[2147483647,0,0],"right_children":[2,-1,-1],"split_conditions":[-4.2360705E-1,1.3948352E-2,-1.2138301E-2],"split_indices":[3,0,0],"split_type":[0,0,0],"sum_hessian":[2.5180063E0,1.1502925E0,1.3677137E0],"tree_param":{"num_deleted":"0","num_feature":"5","num_nodes":"3","size_leaf_vector":"0"}},{"base_weights":[1.3371096E-3,-5.0624397E-2,4.5874443E-2],"categories":[],"categories_nodes":[],"categories_segments":[],"categories_sizes":[],"default_left":[1,0,0],"id":82,"left_children":[1,-1,-1],"loss_changes":[1.0463862E-2,0E0,0E0],"parents":[2147483647,0,0],"right_children":[2,-1,-1],"split_conditions":[-4.8127946E-1,-1.5187319E-2,1.3762333E-2],"split_indices":[4,0,0],"split_type":[0,0,0],"sum_hessian":[2.51802E0,1.0990685E0,1.4189515E0],"tree_param":{"num_deleted":"0","num_feature":"5","num_nodes":"3","size_leaf_vector":"0"}},{"base_weights":[5.317863E-4,4.355691E-2,-4.105514E-2],"categories":[],"categories_nodes":[],"categories_segments":[],"categories_sizes":[],"default_left":[1,0,0],"id":83,"left_children":[1,-1,-1],"loss_changes":[8.07315E-3,0E0,0E0],"parents":[2147483647,0,0],"right_children":[2,-1,-1],"split_conditions":[9.598307E-2,1.3067073E-2,-1.2316543E-2],"split_indices":[0,0,0],"split_type":[0,0,0],"sum_hessian":[2.512534E0,1.211631E0,1.300903E0],"tree_param":{"num_deleted":"0","num_feature":"5","num_nodes":"3","size_leaf_vector":"0"}},{"base_weights":[5.8733654E-4,-4.115734E-2,4.61428E-2],"categories":[],"categories_nodes":[],"categories_segments":[],"categories_sizes":[],"default_left":[1,0,0],"id":84,"left_children":[1,-1,-1],"loss_changes":[8.578562E-3,0E0,0E0],"parents":[2147483647,0,0],"right_children":[2,-1,-1],"split_conditions":[2.4404156E-1,-1.2347202E-2,1.3842841E-2],"split_indices":[2,0,0],"split_type":[0,0,0],"sum_hessian":[2.5123591E0,1.3613931E0,1.1509659E0],"tree_param":{"num_deleted":"0","num_feature":"5","num_nodes":"3","size_leaf_vector":"0"}},{"base_weights":[8.378916E-4,4.4359535E-2,-3.8838897E-2],"categories":[],"categories_nodes":[],"categories_segments":[],"categories_sizes":[],"default_left":[1,0,0],"id":85,"left_children":[1,-1,-1],"loss_changes":[7.7803633E-3,0E0,0E0],"parents":[2147483647,0,0],"right_children":[2,-1,-1],"split_conditions":[-4.2360705E-1,1.3307861E-2,-1.165167E-2],"split_indices":[3,0,0],"split_type":[0,0,0],"sum_hessian":[2.5079286E0,1.1397308E0,1.3681979E0],"tree_param":{"num_deleted":"0","num_feature":"5","num_nodes":"3","size_leaf_vector":"0"}},{"base_weights":[1.0537769E-3,-4.593082E-2,4.1480314E-2],"categories":[],"categories_nodes":[],"categories_segments":[],"categories_sizes":[],"default_left":[1,0,0],"id":86,"left_children":[1,-1,-1],"loss_changes":[8.568526E-3,0E0,0E0],"parents":[2147483647,0,0],"right_children":[2,-1,-1],"split_conditions":[-4.8127946E-1,-1.3779247E-2,1.2444095E-2],"split_indices":[4,0,0],"split_type":[0,0,0],"sum_hessian":[2.508063E0,1.0969772E0,1.4110858E0],"tree_param":{"num_deleted":"0","num_feature":"5","num_nodes":"3","size_leaf_vector":"0"}},{"base_weights":[3.6297445E-4,4.2421103E-2,-3.7701376E-2],"categories":[],"categories_nodes":[],"categories_segments":[],"categories_sizes":[],"default_left":[1,0,0],"id":87,"left_children":[1,-1,-1],"loss_changes":[7.2078924E-3,0E0,0E0],"parents":[2147483647,0,0],"right_children":[2,-1,-1],"split_conditions":[-4.2360705E-1,1.2726331E-2,-1.13104135E-2],"split_indices":[3,0,0],"split_type":[0,0,0],"sum_hessian":[2.5033445E0,1.1349053E0,1.3684392E0],"tree_param":{"num_deleted":"0","num_feature":"5","num_nodes":"3","size_leaf_vector":"0"}},{"base_weights":[6.536453E-4,-4.373084E-2,3.9059352E-2],"categories":[],"categories_nodes":[],"categories_segments":[],"categories_sizes":[],"default_left":[1,0,0],"id":88,"left_children":[1,-1,-1],"loss_changes":[7.68032E-3,0E0,0E0],"parents":[2147483647,0,0],"right_children":[2,-1,-1],"split_conditions":[-4.8127946E-1,-1.3119252E-2,1.1717806E-2],"split_indices":[4,0,0],"split_type":[0,0,0],"sum_hessian":[2.5035555E0,1.0970585E0,1.406497E0],"tree_param":{"num_deleted":"0","num_feature":"5","num_nodes":"3","size_leaf_vector":"0"}},{"base_weights":[6.528074E-5,4.0599454E-2,-3.641834E-2],"categories":[],"categories_nodes":[],"categories_segments":[],"categories_sizes":[],"default_left":[1,0,0],"id":89,"left_children":[1,-1,-1],"loss_changes":[6.6533117E-3,0E0,0E0],"parents":[2147483647,0,0],"right_children":[2,-1,-1],"split_conditions":[-4.2360705E-1,1.2179837E-2,-1.09255025E-2],"split_indices":[3,0,0],"split_type":[0,0,0],"sum_hessian":[2.4992087E0,1.1304446E0,1.3687642E0],"tree_param":{"num_deleted":"0","num_feature":"5","num_nodes":"3","size_leaf_vector":"0"}},{"base_weights":[3.953921E-4,-4.164885E-2,3.6936738E-2],"categories":[],"categories_nodes":[],"categories_segments":[],"categories_sizes":[],"default_left":[1,0,0],"id":90,"left_children":[1,-1,-1],"loss_changes":[6.9147996E-3,0E0,0E0],"parents":[2147483647,0,0],"right_children":[2,-1,-1],"split_conditions":[-4.8127946E-1,-1.2494655E-2,1.1081021E-2],"split_indices":[4,0,0],"split_type":[0,0,0],"sum_hessian":[2.4994733E0,1.097232E0,1.4022415E0],"tree_param":{"num_deleted":"0","num_feature":"5","num_nodes":"3","size_leaf_vector":"0"}},{"base_weights":[-1.2648609E-4,3.887523E-2,-3.507744E-2],"categories":[],"categories_nodes":[],"categories_segments":[],"categories_sizes":[],"default_left":[1,0,0],"id":91,"left_children":[1,-1,-1],"loss_changes":[6.128419E-3,0E0,0E0],"parents":[2147483647,0,0],"right_children":[2,-1,-1],"split_conditions":[-4.2360705E-1,1.1662569E-2,-1.0523233E-2],"split_indices":[3,0,0],"split_type":[0,0,0],"sum_hessian":[2.495423E0,1.1263034E0,1.3691196E0],"tree_param":{"num_deleted":"0","num_feature":"5","num_nodes":"3","size_leaf_vector":"0"}},{"base_weights":[2.3863366E-4,-3.9681226E-2,3.5051953E-2],"categories":[],"categories_nodes":[],"categories_segments":[],"categories_sizes":[],"default_left":[1,0,0],"id":92,"left_children":[1,-1,-1],"loss_changes":[6.249142E-3,0E0,0E0],"parents":[2147483647,0,0],"right_children":[2,-1,-1],"split_conditions":[-4.8127946E-1,-1.1904368E-2,1.05155865E-2],"split_indices":[4,0,0],"split_type":[0,0,0],"sum_hessian":[2.4957817E0,1.097485E0,1.3982967E0],"tree_param":{"num_deleted":"0","num_feature":"5","num_nodes":"3","size_leaf_vector":"0"}},{"base_weights":[-2.3200369E-4,3.7406858E-2,-3.6366154E-2],"categories":[],"categories_nodes":[],"categories_segments":[],"categories_sizes":[],"default_left":[1,0,0],"id":93,"left_children":[1,-1,-1],"loss_changes":[6.109642E-3,0E0,0E0],"parents":[2147483647,0,0],"right_children":[2,-1,-1],"split_conditions":[2.2308405E-1,1.1222058E-2,-1.0909846E-2],"split_indices":[2,0,0],"split_type":[0,0,0],"sum_hessian":[2.492007E0,1.2033378E0,1.2886693E0],"tree_param":{"num_deleted":"0","num_feature":"5","num_nodes":"3","size_leaf_vector":"0"}},{"base_weights":[-7.383901E-5,-3.561125E-2,3.9057747E-2],"categories":[],"categories_nodes":[],"categories_segments":[],"categories_sizes":[],"default_left":[1,0,0],"id":94,"left_children":[1,-1,-1],"loss_changes":[6.2473523E-3,0E0,0E0],"parents":[2147483647,0,0],"right_children":[2,-1,-1],"split_conditions":[2.4404156E-1,-1.0683375E-2,1.1717324E-2],"split_indices":[2,0,0],"split_type":[0,0,0],"sum_hessian":[2.4922583E0,1.3532572E0,1.1390011E0],"tree_param":{"num_deleted":"0","num_feature":"5","num_nodes":"3","size_leaf_vector":"0"}},{"base_weights":[2.5456728E-4,3.7112873E-2,-3.5390854E-2],"categories":[],"categories_nodes":[],"categories_segments":[],"categories_sizes":[],"default_left":[1,0,0],"id":95,"left_children":[1,-1,-1],"loss_changes":[5.897128E-3,0E0,0E0],"parents":[2147483647,0,0],"right_children":[2,-1,-1],"split_conditions":[2.2308405E-1,1.1133863E-2,-1.0617256E-2],"split_indices":[2,0,0],"split_type":[0,0,0],"sum_hessian":[2.4887865E0,1.2033366E0,1.2854497E0],"tree_param":{"num_deleted":"0","num_feature":"5","num_nodes":"3","size_leaf_vector":"0"}},{"base_weights":[3.236136E-4,-3.4542665E-2,3.8484465E-2],"categories":[],"categories_nodes":[],"categories_segments":[],"categories_sizes":[],"default_left":[1,0,0],"id":96,"left_children":[1,-1,-1],"loss_changes":[5.9716334E-3,0E0,0E0],"parents":[2147483647,0,0],"right_children":[2,-1,-1],"split_conditions":[2.4404156E-1,-1.03628E-2,1.154534E-2],"split_indices":[2,0,0],"split_type":[0,0,0],"sum_hessian":[2.4890518E0,1.3502176E0,1.1388341E0],"tree_param":{"num_deleted":"0","num_feature":"5","num_nodes":"3","size_leaf_vector":"0"}},{"base_weights":[5.6621275E-4,3.916668E-2,-3.417974E-2],"categories":[],"categories_nodes":[],"categories_segments":[],"categories_sizes":[],"default_left":[1,0,0],"id":97,"left_children":[1,-1,-1],"loss_changes":[6.0137017E-3,0E0,0E0],"parents":[2147483647,0,0],"right_children":[2,-1,-1],"split_conditions":[-4.2360705E-1,1.1750005E-2,-1.0253922E-2],"split_indices":[3,0,0],"split_type":[0,0,0],"sum_hessian":[2.4856546E0,1.1172421E0,1.3684125E0],"tree_param":{"num_deleted":"0","num_feature":"5","num_nodes":"3","size_leaf_vector":"0"}},{"base_weights":[8.251443E-4,-3.575258E-2,3.243909E-2],"categories":[],"categories_nodes":[],"categories_segments":[],"categories_sizes":[],"default_left":[1,0,0],"id":98,"left_children":[1,-1,-1],"loss_changes":[5.190903E-3,0E0,0E0],"parents":[2147483647,0,0],"right_children":[2,-1,-1],"split_conditions":[-4.8127946E-1,-1.0725774E-2,9.731728E-3],"split_indices":[4,0,0],"split_type":[0,0,0],"sum_hessian":[2.4860256E0,1.0918407E0,1.394185E0],"tree_param":{"num_deleted":"0","num_feature":"5","num_nodes":"3","size_leaf_vector":"0"}},{"base_weights":[2.9446496E-4,3.6978275E-2,-3.5281524E-2],"categories":[],"categories_nodes":[],"categories_segments":[],"categories_sizes":[],"default_left":[1,0,0],"id":99,"left_children":[1,-1,-1],"loss_changes":[5.849816E-3,0E0,0E0],"parents":[2147483647,0,0],"right_children":[2,-1,-1],"split_conditions":[2.2308405E-1,1.1093482E-2,-1.0584458E-2],"split_indices":[2,0,0],"split_type":[0,0,0],"sum_hessian":[2.4827185E0,1.2029216E0,1.2797967E0],"tree_param":{"num_deleted":"0","num_feature":"5","num_nodes":"3","size_leaf_vector":"0"}}]},"name":"gbtree"},"learner_model_param":{"base_score":"5E-1","boost_from_average":"1","num_class":"0","num_feature":"5","num_target":"1"},"objective":{"name":"binary:logistic","reg_loss_param":{"scale_pos_weight":"1"}}},"version":[1,7,6]}