{"learner":{"attributes":{"best_iteration":"99","best_ntree_limit":"100","scikit_learn":"{\"n_estimators\": 100, \"objective\": \"reg:squarederror\", \"max_depth\": null, \"max_leaves\": null, \"max_bin\": null, \"grow_policy\": null, \"learning_rate\": null, \"verbosity\": null, \"booster\": null, \"tree_method\": null, \"gamma\": null, \"min_child_weight\": null, \"max_delta_step\": null, \"subsample\": null, \"sampling_method\": null, \"colsample_bytree\": null, \"colsample_bylevel\": null, \"colsample_bynode\": null, \"reg_alpha\": null, \"reg_lambda\": null, \"scale_pos_weight\": null, \"base_score\": null, \"missing\": NaN, \"num_parallel_tree\": null, \"random_state\": null, \"n_jobs\": null, \"monotone_constraints\": null, \"interaction_constraints\": null, \"importance_type\": null, \"gpu_id\": null, \"validate_parameters\": null, \"predictor\": null, \"enable_categorical\": false, \"feature_types\": null, \"max_cat_to_onehot\": null, \"max_cat_threshold\": null, \"eval_metric\": null, \"early_stopping_rounds\": null, \"callbacks\": null, \"_estimator_type\": \"regressor\"}"},"feature_names":[],"feature_types":[],"gradient_booster":{"model":{"gbtree_model_param":{"num_parallel_tree":"1","num_trees":"100","size_leaf_vector":"0"},"tree_info":[0,0,0,0,0,0,0,0,0,0,0,0,0,0,0,0,0,0,0,0,0,0,0,0,0,0,0,0,0,0,0,0,0,0,0,0,0,0,0,0,0,0,0,0,0,0,0,0,0,0,0,0,0,0,0,0,0,0,0,0,0,0,0,0,0,0,0,0,0,0,0,0,0,0,0,0,0,0,0,0,0,0,0,0,0,0,0,0,0,0,0,0,0,0,0,0,0,0,0,0],"trees":[{"base_weights":[6.535597E0,2.5061765E0,1.58829155E1,7.190678E-1,6.540575E0,1.3395692E1,2.2773912E1,7.6162785E-2,2.434197E0,5.3659387E0,9.628235E0,1.0708281E1,1.5813018E1,1.8185453E1,2.6537704E1,-1.7469881E-2,2.5263157E0,1.3764706E0,3.2366972E0,3.6268656E0,6.0478525E0,7.128E0,1.0495082E1,9.197938E0,1.2934426E1,1.4546087E1,1.8174545E1,-2.6145834E-1,3.156398E-1,1.9846153E0,3.1714284E0,5.0526315E-1,1.602985E0,2.8153846E0,5.0842104E0,3.0139534E0,4.5360003E0,5.222951E0,6.4776697E0,6.046154E0,9.571765E0,8.400001E0,1.480734E1,1.1142858E1,1.8808163E1,-4.3140495E-1,-1.375E-1,2.7804878E-1,1.3714285E0,1.3591837E0,2.1473684E0,2.256E0,2.9820895E0,1.7142857E0,3.1783783E0,6.8955226E0,5.545946E0],"categories":[],"categories_nodes":[],"categories_segments":[],"categories_sizes":[],"default_left":[1,1,1,1,1,1,1,1,1,1,1,1,1,0,0,1,1,1,1,1,1,0,0,1,0,1,1,1,1,0,0,0,1,1,0,1,0,0,1,0,0,0,0,0,0,0,0,0,0,0,0,0,0,0,0,0,0],"id":0,"left_children":[1,3,5,7,9,11,13,15,17,19,21,23,25,-1,-1,27,29,31,33,35,37,-1,-1,39,-1,41,43,45,47,-1,-1,-1,49,51,-1,53,-1,-1,55,-1,-1,-1,-1,-1,-1,-1,-1,-1,-1,-1,-1,-1,-1,-1,-1,-1,-1],"loss_changes":[5.487471E4,7.349404E3,7.2191406E3,7.8050146E2,1.0835488E3,1.9419844E3,1.5034492E3,1.18421936E2,1.5936816E2,2.4963574E2,1.09413086E2,4.0890234E2,2.4126172E2,0E0,0E0,4.0557438E1,3.456421E-1,1.5964066E1,7.052954E1,2.3662476E1,2.396045E1,0E0,0E0,5.641504E1,0E0,6.0271484E1,3.5470703E1,6.007778E0,7.99288E0,0E0,0E0,0E0,5.9736786E0,1.7583618E0,0E0,3.7403564E0,0E0,0E0,1.8583984E0,0E0,0E0,0E0,0E0,0E0,0E0,0E0,0E0,0E0,0E0,0E0,0E0,0E0,0E0,0E0,0E0,0E0,0E0],"parents":[2147483647,0,0,1,1,2,2,3,3,4,4,5,5,6,6,7,7,8,8,9,9,10,10,11,11,12,12,15,15,16,16,17,17,18,18,19,19,20,20,23,23,25,25,26,26,27,27,28,28,32,32,33,33,35,35,38,38],"right_children":[2,4,6,8,10,12,14,16,18,20,22,24,26,-1,-1,28,30,32,34,36,38,-1,-1,40,-1,42,44,46,48,-1,-1,-1,50,52,-1,54,-1,-1,56,-1,-1,-1,-1,-1,-1,-1,-1,-1,-1,-1,-1,-1,-1,-1,-1,-1,-1],"split_conditions":[4.353377E-1,-3.6067194E-1,1.2339447E0,-6.5013E-1,2.8388456E-1,9.1776776E-1,8.483163E-1,-4.3582976E-2,-4.6403512E-1,-3.9530736E-1,4.8155993E-1,4.4559693E-1,9.9501884E-1,5.455636E0,7.961312E0,-8.038337E-1,5.10141E-1,-5.898262E-1,4.0516883E-1,-9.53354E-2,-1.09101385E-2,2.1384E0,3.1485248E0,-3.0636558E-1,3.880328E0,-7.5925454E-2,-5.9754215E-2,-1.8586949E0,2.1403348E0,5.953846E-1,9.514286E-1,1.5157895E-1,3.069141E-1,1.3576111E-1,1.5252632E0,-8.703854E-1,1.3608001E0,1.5668854E0,3.7208837E-1,1.8138462E0,2.8715296E0,2.5200002E0,4.442202E0,3.3428574E0,5.642449E0,-1.2942149E-1,-4.125E-2,8.341464E-2,4.1142857E-1,4.077551E-1,6.442106E-1,6.768E-1,8.946269E-1,5.1428574E-1,9.5351356E-1,2.068657E0,1.6637839E0],"split_indices":[4,4,3,4,3,4,2,3,3,3,2,3,2,0,0,2,0,4,3,4,4,0,0,3,0,3,3,2,1,0,0,0,2,2,0,0,0,0,0,0,0,0,0,0,0,0,0,0,0,0,0,0,0,0,0,0,0],"split_type":[0,0,0,0,0,0,0,0,0,0,0,0,0,0,0,0,0,0,0,0,0,0,0,0,0,0,0,0,0,0,0,0,0,0,0,0,0,0,0,0,0,0,0,0,0,0,0,0,0,0,0,0,0,0,0,0,0],"sum_hessian":[1.457E3,1.019E3,4.38E2,7.07E2,3.12E2,3.24E2,1.14E2,5.15E2,1.92E2,2.28E2,8.4E1,1.56E2,1.68E2,5.4E1,6E1,4.97E2,1.8E1,8.4E1,1.08E2,6.6E1,1.62E2,2.4E1,6E1,9.6E1,6E1,1.14E2,5.4E1,2.87E2,2.1E2,1.2E1,6E0,1.8E1,6.6E1,9E1,1.8E1,4.2E1,2.4E1,6E1,1.02E2,1.2E1,8.4E1,6E0,1.08E2,6E0,4.8E1,1.2E2,1.67E2,2.04E2,6E0,4.8E1,1.8E1,2.4E1,6.6E1,6E0,3.6E1,6.6E1,3.6E1],"tree_param":{"num_deleted":"0","num_feature":"5","num_nodes":"57","size_leaf_vector":"0"}},{"base_weights":[4.6143665E0,1.9061311E0,1.1555766E1,5.1206386E-1,4.778124E0,9.6858E0,1.6252153E1,5.693989E-2,1.7262188E0,3.8534243E0,6.8953514E0,8.314572E0,1.1759768E1,1.2853267E1,1.8495337E1,-1.1577968E-2,1.8498322E0,1.3784158E0,3.1553767E0,2.657277E0,4.347302E0,5.6441374E0,7.8847E0,6.9993963E0,9.717603E0,6.563827E0,1.1985563E1,-1.6448504E-1,2.870665E-1,1.4350296E0,2.3559182E0,7.267939E-1,1.7129867E0,2.5054567E0,3.6392243E0,2.2038057E0,3.43979E0,3.8248835E0,4.8185754E0,4.908845E0,6.546765E0,5.272246E0,8.491146E0,1.0901587E1,1.3395817E1,-2.7637306E-1,-4.8155762E-2,1.7757207E-1,5.515921E-1,3.930019E-1,9.7253597E-1,1.3048894E0,1.9725801E0,1.4917849E0,2.394413E0,3.0129156E0,4.094954E0],"categories":[],"categories_nodes":[],"categories_segments":[],"categories_sizes":[],"default_left":[1,1,1,1,1,1,1,1,1,1,1,1,1,0,0,1,1,1,1,1,1,1,1,0,0,0,1,1,1,0,0,1,1,0,0,1,0,1,0,0,0,0,0,0,0,0,0,0,0,0,0,0,0,0,0,0,0],"id":1,"left_children":[1,3,5,7,9,11,13,15,17,19,21,23,25,-1,-1,27,29,31,33,35,37,39,41,-1,-1,-1,43,45,47,-1,-1,49,51,-1,-1,53,-1,55,-1,-1,-1,-1,-1,-1,-1,-1,-1,-1,-1,-1,-1,-1,-1,-1,-1,-1,-1],"loss_changes":[2.7386836E4,4.201492E3,3.4344531E3,3.9113617E2,6.449541E2,7.4116797E2,6.3907227E2,6.3409508E1,9.158423E1,1.3081885E2,8.3E1,2.6596875E2,5.6249023E1,0E0,0E0,2.2788311E1,6.0778046E-1,3.2983154E1,2.5171814E0,1.8323181E1,2.317749E1,3.840332E-1,4.236963E1,0E0,0E0,0E0,2.059082E1,4.2819223E0,4.796982E0,0E0,0E0,4.129261E0,8.337769E0,0E0,0E0,3.0781555E0,0E0,6.301758E0,0E0,0E0,0E0,0E0,0E0,0E0,0E0,0E0,0E0,0E0,0E0,0E0,0E0,0E0,0E0,0E0,0E0,0E0,0E0],"parents":[2147483647,0,0,1,1,2,2,3,3,4,4,5,5,6,6,7,7,8,8,9,9,10,10,11,11,12,12,15,15,16,16,17,17,18,18,19,19,20,20,21,21,22,22,26,26,27,27,28,28,31,31,32,32,35,35,37,37],"right_children":[2,4,6,8,10,12,14,16,18,20,22,24,26,-1,-1,28,30,32,34,36,38,40,42,-1,-1,-1,44,46,48,-1,-1,50,52,-1,-1,54,-1,56,-1,-1,-1,-1,-1,-1,-1,-1,-1,-1,-1,-1,-1,-1,-1,-1,-1,-1,-1],"split_conditions":[5.077022E-1,-3.6067194E-1,1.1975595E0,-6.5013E-1,2.1515681E-1,1.1831043E0,1.2554688E0,-4.3582976E-2,8.8792294E-4,-1.1945691E-1,7.649789E-1,5.4666716E-1,7.575004E-1,3.8559802E0,5.548601E0,-8.4310204E-1,5.10141E-1,-6.5809E-1,4.0516883E-1,-2.255094E-1,1.3381888E-1,6.038121E-1,4.5012367E-1,2.099819E0,2.9152808E0,1.9691482E0,6.2348056E-1,-1.4011227E0,-5.448913E-1,4.305089E-1,7.067755E-1,1.4973277E-1,-4.933402E-1,7.5163704E-1,1.0917673E0,-6.338331E-1,1.031937E0,-3.3466524E-1,1.4455726E0,1.4726535E0,1.9640296E0,1.5816739E0,2.547344E0,3.270476E0,4.0187454E0,-8.291192E-2,-1.4446729E-2,5.3271625E-2,1.6547763E-1,1.1790058E-1,2.917608E-1,3.9146686E-1,5.9177405E-1,4.4753549E-1,7.1832395E-1,9.038747E-1,1.2284863E0],"split_indices":[4,4,3,4,3,4,4,3,3,4,3,3,2,0,0,4,0,3,3,3,4,2,2,0,0,0,3,2,3,0,0,2,4,0,0,3,0,3,0,0,0,0,0,0,0,0,0,0,0,0,0,0,0,0,0,0,0],"split_type":[0,0,0,0,0,0,0,0,0,0,0,0,0,0,0,0,0,0,0,0,0,0,0,0,0,0,0,0,0,0,0,0,0,0,0,0,0,0,0,0,0,0,0,0,0,0,0,0,0,0,0,0,0,0,0,0,0],"sum_hessian":[1.457E3,1.049E3,4.08E2,7.07E2,3.42E2,2.94E2,1.14E2,5.15E2,1.92E2,2.4E2,1.02E2,1.8E2,1.14E2,4.8E1,6.6E1,4.97E2,1.8E1,1.56E2,3.6E1,7.2E1,1.68E2,4.8E1,5.4E1,9.6E1,8.4E1,6E0,1.08E2,3.29E2,1.68E2,1.2E1,6E0,5.4E1,1.02E2,1.8E1,1.8E1,4.8E1,2.4E1,8.4E1,8.4E1,3E1,1.8E1,1.2E1,4.2E1,6.6E1,4.2E1,1.67E2,1.62E2,1.2E2,4.8E1,2.4E1,3E1,4.2E1,6E1,1.2E1,3.6E1,2.4E1,6E1],"tree_param":{"num_deleted":"0","num_feature":"5","num_nodes":"57","size_leaf_vector":"0"}},{"base_weights":[3.25853E0,1.4287605E0,8.35441E0,3.6479354E-1,3.477425E0,7.1191764E0,1.2266932E1,4.229721E-2,1.2251216E0,2.507448E0,4.5273E0,5.774066E0,8.087874E0,1.0275656E1,1.4250783E1,-7.860828E-3,1.3547397E0,9.207984E-1,2.1006672E0,1.7109921E0,2.8538868E0,3.8752804E0,5.682299E0,4.992336E0,6.706652E0,5.666916E0,8.449502E0,-1.0458861E-1,2.2834261E-1,1.0376368E0,1.7501106E0,5.1620406E-1,1.1552148E0,1.7238466E0,2.6049182E0,1.0786752E0,1.8438315E0,2.3110034E0,2.9895713E0,3.0911257E0,4.2840934E0,4.7961693E0,6.7664795E0,7.625338E0,9.659492E0,-1.8414885E-1,-3.585347E-3,1.3979709E-1,4.8302147E-1,3.5138497E-1,8.09999E-1,8.752757E-1,1.3225336E0,1.0404911E0,1.8462323E0,3.1193125E0,2.2518046E0,2.9827938E0,5.050926E0,6.8567863E0,8.561689E0],"categories":[],"categories_nodes":[],"categories_segments":[],"categories_sizes":[],"default_left":[1,1,1,1,1,1,1,1,1,1,1,1,1,0,0,1,1,1,1,1,1,1,1,0,0,0,1,1,1,0,0,1,1,1,0,0,0,0,1,0,0,1,0,1,0,0,0,0,0,0,0,0,0,0,0,0,0,0,0,0,0],"id":2,"left_children":[1,3,5,7,9,11,13,15,17,19,21,23,25,-1,-1,27,29,31,33,35,37,39,41,-1,-1,-1,43,45,47,-1,-1,49,51,53,-1,-1,-1,-1,55,-1,-1,57,-1,59,-1,-1,-1,-1,-1,-1,-1,-1,-1,-1,-1,-1,-1,-1,-1,-1,-1],"loss_changes":[1.3582871E4,2.3397417E3,1.7733262E3,1.9638464E2,3.6238428E2,3.3768848E2,2.130498E2,3.3978687E1,4.9490326E1,4.837024E1,1.097688E2,5.910498E1,1.00075195E2,0E0,0E0,1.1401904E1,5.6611633E-1,1.3155998E1,4.8201294E0,3.1348877E0,2.8879395E0,2.3623169E1,2.6151245E1,0E0,0E0,0E0,7.094141E1,2.8440282E0,3.2023225E0,0E0,0E0,2.378643E0,3.1047745E0,6.7163086E-1,0E0,0E0,0E0,0E0,2.834961E0,0E0,0E0,2.0269775E0,0E0,6.78125E0,0E0,0E0,0E0,0E0,0E0,0E0,0E0,0E0,0E0,0E0,0E0,0E0,0E0,0E0,0E0,0E0,0E0],"parents":[2147483647,0,0,1,1,2,2,3,3,4,4,5,5,6,6,7,7,8,8,9,9,10,10,11,11,12,12,15,15,16,16,17,17,18,18,19,19,20,20,21,21,22,22,26,26,27,27,28,28,31,31,32,32,33,33,38,38,41,41,43,43],"right_children":[2,4,6,8,10,12,14,16,18,20,22,24,26,-1,-1,28,30,32,34,36,38,40,42,-1,-1,-1,44,46,48,-1,-1,50,52,54,-1,-1,-1,-1,56,-1,-1,58,-1,60,-1,-1,-1,-1,-1,-1,-1,-1,-1,-1,-1,-1,-1,-1,-1,-1,-1],"split_conditions":[5.559452E-1,-3.6067194E-1,1.4886417E0,-6.5013E-1,-5.5711407E-2,9.6601075E-1,1.7137773E0,-4.3582976E-2,-2.0529535E-1,-1.1945691E-1,7.649789E-1,5.8709526E-1,1.706859E-1,3.082697E0,4.275235E0,-8.189805E-1,5.10141E-1,-6.5809E-1,4.0516883E-1,-6.338331E-1,-3.993502E-1,6.145437E-2,1.7959484E-1,1.4977008E0,2.0119958E0,1.7000748E0,9.9501884E-1,-9.3958807E-1,-5.448913E-1,3.1129104E-1,5.2503324E-1,2.126053E-1,-4.933402E-1,-5.942801E-1,7.814755E-1,3.2360256E-1,5.5314946E-1,6.933011E-1,6.4819366E-1,9.2733777E-1,1.285228E0,3.732795E-1,2.029944E0,1.0708404E0,2.8978477E0,-5.524466E-2,-1.0756041E-3,4.193913E-2,1.4490645E-1,1.0541549E-1,2.429997E-1,2.6258272E-1,3.967601E-1,3.1214735E-1,5.538697E-1,9.357938E-1,6.755414E-1,8.9483815E-1,1.515278E0,2.057036E0,2.568507E0],"split_indices":[4,4,3,4,3,4,4,3,3,4,3,3,3,0,0,4,0,3,3,3,3,4,1,0,0,0,2,4,3,0,0,2,4,0,0,0,0,0,0,0,0,2,0,1,0,0,0,0,0,0,0,0,0,0,0,0,0,0,0,0,0],"split_type":[0,0,0,0,0,0,0,0,0,0,0,0,0,0,0,0,0,0,0,0,0,0,0,0,0,0,0,0,0,0,0,0,0,0,0,0,0,0,0,0,0,0,0,0,0,0,0,0,0,0,0,0,0,0,0,0,0,0,0,0,0],"sum_hessian":[1.457E3,1.073E3,3.84E2,7.07E2,3.66E2,2.94E2,9E1,5.15E2,1.92E2,1.92E2,1.74E2,1.26E2,1.68E2,4.8E1,4.2E1,4.97E2,1.8E1,1.44E2,4.8E1,6E1,1.32E2,1.14E2,6E1,7.2E1,5.4E1,2.4E1,1.44E2,3.53E2,1.44E2,1.2E1,6E0,5.4E1,9E1,3E1,1.8E1,1.2E1,4.8E1,3E1,1.02E2,4.2E1,7.2E1,3.6E1,2.4E1,9E1,5.4E1,1.97E2,1.56E2,1.08E2,3.6E1,3.6E1,1.8E1,3.6E1,5.4E1,6E0,2.4E1,8.4E1,1.8E1,6E0,3E1,5.4E1,3.6E1],"tree_param":{"num_deleted":"0","num_feature":"5","num_nodes":"61","size_leaf_vector":"0"}},{"base_weights":[2.3039799E0,8.875391E-1,5.589779E0,2.6047143E-1,2.3031185E0,4.776679E0,8.407341E0,3.1481788E-2,8.7134284E-1,1.9493283E0,3.7327216E0,3.268457E0,5.401451E0,7.4109645E0,1.0980467E1,-5.240481E-3,9.9233484E-1,6.5150887E-1,1.5040892E0,1.2048554E0,2.174528E0,3.2109919E0,4.717019E0,2.9655051E0,4.095046E0,4.9570136E0,6.814332E0,5.2641516E0,8.017846E0,-8.938406E-2,1.3517682E-1,5.6812763E-1,1.1444206E0,3.873083E-1,8.3344686E-1,1.2346286E0,1.8645731E0,9.875637E-1,1.478253E0,1.9524057E0,2.4703445E0,1.6690975E0,3.0491948E0,4.65328E0,6.0626016E0,4.5147305E0,7.351088E0,-1.9030744E-1,-4.761193E-2,1.1054664E-1,7.52732E-1,1.938829E-1,5.6823987E-1,6.197897E-1,9.777707E-1,7.729362E-1,1.3145173E0,6.124938E-1,1.0404E0,2.0758128E0,1.5510502E0,1.2632912E0,2.5522492E0,3.9919121E0,5.1198487E0],"categories":[],"categories_nodes":[],"categories_segments":[],"categories_sizes":[],"default_left":[1,1,1,1,1,1,1,1,1,1,1,1,1,1,0,1,1,1,1,1,1,0,0,1,0,1,1,0,0,1,1,0,0,1,1,1,0,1,0,1,1,0,0,1,0,0,0,0,0,0,0,0,0,0,0,0,0,0,0,0,0,0,0,0,0],"id":3,"left_children":[1,3,5,7,9,11,13,15,17,19,21,23,25,27,-1,29,31,33,35,37,39,-1,-1,41,-1,43,45,-1,-1,47,49,-1,-1,51,53,55,-1,57,-1,59,61,-1,-1,63,-1,-1,-1,-1,-1,-1,-1,-1,-1,-1,-1,-1,-1,-1,-1,-1,-1,-1,-1,-1,-1],"loss_changes":[6.780775E3,9.048174E2,9.6557227E2,9.900989E1,1.5103271E2,3.055537E2,1.6731299E2,1.8212105E1,2.586621E1,3.9796753E1,1.6179443E1,1.3649048E1,1.175542E2,5.290161E1,0E0,5.896059E0,5.7562447E-1,6.6470757E0,2.4576187E0,2.1639633E0,7.8584595E0,0E0,0E0,3.4818115E0,0E0,3.4584473E1,3.4699707E1,0E0,0E0,1.3062639E0,2.7611508E0,0E0,0E0,2.0246305E0,2.01503E0,1.2736511E-1,0E0,9.6004486E-2,0E0,2.4762573E0,4.5859375E0,0E0,0E0,2.6156738E1,0E0,0E0,0E0,0E0,0E0,0E0,0E0,0E0,0E0,0E0,0E0,0E0,0E0,0E0,0E0,0E0,0E0,0E0,0E0,0E0,0E0],"parents":[2147483647,0,0,1,1,2,2,3,3,4,4,5,5,6,6,7,7,8,8,9,9,10,10,11,11,12,12,13,13,15,15,16,16,17,17,18,18,19,19,20,20,23,23,25,25,26,26,29,29,30,30,33,33,34,34,35,35,37,37,39,39,40,40,43,43],"right_children":[2,4,6,8,10,12,14,16,18,20,22,24,26,28,-1,30,32,34,36,38,40,-1,-1,42,-1,44,46,-1,-1,48,50,-1,-1,52,54,56,-1,58,-1,60,62,-1,-1,64,-1,-1,-1,-1,-1,-1,-1,-1,-1,-1,-1,-1,-1,-1,-1,-1,-1,-1,-1,-1,-1],"split_conditions":[4.353377E-1,-3.6067194E-1,1.4886417E0,-6.5013E-1,5.4262435E-1,1.8685713E-1,3.0774655E0,-4.3582976E-2,-2.0529535E-1,-4.5999235E-1,1.6948249E0,1.2004042E0,9.9501884E-1,8.09221E-1,3.29414E0,-7.0603204E-1,-7.46616E-1,-6.378759E-1,4.0516883E-1,5.23475E-1,-8.401107E-2,9.632976E-1,1.4151058E0,-4.7212076E-1,1.2285138E0,1.0708404E0,1.9308709E0,1.5792456E0,2.405354E0,-1.0601956E0,2.1403348E0,1.7043829E-1,3.433262E-1,-5.295225E-1,-4.933402E-1,-5.942801E-1,5.5937195E-1,-8.703854E-1,4.4347593E-1,6.4819366E-1,-2.7624667E-1,5.0072926E-1,9.147585E-1,7.7496505E-1,1.8187805E0,1.3544192E0,2.2053266E0,-5.7092234E-2,-1.428358E-2,3.3163995E-2,2.258196E-1,5.8164872E-2,1.7047197E-1,1.8593693E-1,2.933312E-1,2.3188087E-1,3.943552E-1,1.8374816E-1,3.1212002E-1,6.2274384E-1,4.6531507E-1,3.789874E-1,7.6567477E-1,1.1975737E0,1.5359547E0],"split_indices":[4,4,3,4,3,3,3,3,3,3,3,0,2,4,0,2,4,3,3,2,3,0,0,3,0,1,4,0,0,4,1,0,0,4,4,0,0,0,0,0,4,0,0,2,0,0,0,0,0,0,0,0,0,0,0,0,0,0,0,0,0,0,0,0,0],"split_type":[0,0,0,0,0,0,0,0,0,0,0,0,0,0,0,0,0,0,0,0,0,0,0,0,0,0,0,0,0,0,0,0,0,0,0,0,0,0,0,0,0,0,0,0,0,0,0,0,0,0,0,0,0,0,0,0,0,0,0,0,0,0,0,0,0],"sum_hessian":[1.457E3,1.019E3,4.38E2,7.07E2,3.12E2,3.42E2,9.6E1,5.15E2,1.92E2,2.52E2,6E1,1.02E2,2.4E2,7.2E1,2.4E1,4.97E2,1.8E1,1.44E2,4.8E1,6E1,1.92E2,4.2E1,1.8E1,7.8E1,2.4E1,1.86E2,5.4E1,1.8E1,5.4E1,3.11E2,1.86E2,6E0,1.2E1,6E1,8.4E1,3E1,1.8E1,3.6E1,2.4E1,1.14E2,7.8E1,6E0,7.2E1,1.5E2,3.6E1,1.2E1,4.2E1,9E1,2.21E2,1.8E2,6E0,3E1,3E1,3.6E1,4.8E1,6E0,2.4E1,6E0,3E1,8.4E1,3E1,6E0,7.2E1,6.6E1,8.4E1],"tree_param":{"num_deleted":"0","num_feature":"5","num_nodes":"65","size_leaf_vector":"0"}},{"base_weights":[1.6307422E0,6.29263E-1,3.9539266E0,1.8599509E-1,1.6299161E0,3.3750339E0,5.960177E0,-2.8793946E-2,5.2030146E-1,1.3311815E0,2.497925E0,2.3135896E0,3.8146758E0,4.7624807E0,7.3535056E0,-7.181025E-2,9.933521E-2,2.4894515E-1,8.388409E-1,9.418032E-1,1.5415523E0,2.1833544E0,3.3763926E0,2.0889928E0,2.9307718E0,3.4942532E0,4.8347554E0,2.46788E0,4.9930873E0,4.036712E0,7.7822638E0,-1.4668939E-1,-4.2383716E-2,7.643956E-2,4.2203766E-1,1.7244859E-1,4.7997648E-1,7.197474E-1,1.2959524E0,7.559377E-1,1.1624953E0,1.2824496E0,1.8008338E0,1.7952747E0,2.670378E0,1.2399012E0,2.1417964E0,3.0966718E0,4.0727134E0,3.2644968E0,5.1970487E0,5.1837816E0,3.108379E0,5.454921E0,8.681191E0,-1.7175157E-1,-1.1471875E-1,-7.811386E-2,-1.4662976E-2,1.6918665E-2,1.08168416E-1,1.138878E-1,2.9282302E-1,1.7084537E-1,5.3429717E-1,6.1644983E-1,8.495475E-1,5.8640504E-1,8.354597E-1,7.2522026E-1,1.223735E0,1.1167108E0,1.5030545E0,1.5971447E0,2.025279E0,2.7295215E0,3.5354965E0,3.3042629E0,4.5319986E0],"categories":[],"categories_nodes":[],"categories_segments":[],"categories_sizes":[],"default_left":[1,1,1,1,1,1,1,1,1,1,1,1,1,1,1,1,1,1,1,1,1,1,0,1,0,1,1,0,1,0,1,1,1,1,0,1,1,1,0,1,1,1,1,0,0,0,0,1,1,0,0,0,0,0,0,0,0,0,0,0,0,0,0,0,0,0,0,0,0,0,0,0,0,0,0,0,0,0,0],"id":4,"left_children":[1,3,5,7,9,11,13,15,17,19,21,23,25,27,29,31,33,35,37,39,41,43,-1,45,-1,47,49,-1,51,-1,53,55,57,59,-1,61,63,65,-1,67,69,71,73,-1,-1,-1,-1,75,77,-1,-1,-1,-1,-1,-1,-1,-1,-1,-1,-1,-1,-1,-1,-1,-1,-1,-1,-1,-1,-1,-1,-1,-1,-1,-1,-1,-1,-1,-1],"loss_changes":[3.3897253E3,4.5212537E2,4.8974023E2,5.0853172E1,7.7837036E1,1.5123706E2,1.2685132E2,2.3881633E0,2.3734413E1,1.7797913E1,1.4459045E1,8.155212E0,6.1878662E1,1.6780884E1,2.9735596E1,7.076951E-1,7.730844E-1,2.585868E0,5.980995E0,2.6078491E0,7.834778E0,6.735199E0,0E0,8.8635254E-1,0E0,3.0395264E1,1.4323364E1,0E0,1.4976807E0,0E0,3.0053223E1,5.3210735E-2,2.3062363E-1,1.9268852E-1,0E0,7.773113E-1,5.300293E-1,8.573189E-1,0E0,1.7067909E-1,1.0332489E-1,1.2099915E0,1.0267639E-1,0E0,0E0,0E0,0E0,8.87793E0,1.0789429E1,0E0,0E0,0E0,0E0,0E0,0E0,0E0,0E0,0E0,0E0,0E0,0E0,0E0,0E0,0E0,0E0,0E0,0E0,0E0,0E0,0E0,0E0,0E0,0E0,0E0,0E0,0E0,0E0,0E0,0E0],"parents":[2147483647,0,0,1,1,2,2,3,3,4,4,5,5,6,6,7,7,8,8,9,9,10,10,11,11,12,12,13,13,14,14,15,15,16,16,17,17,18,18,19,19,20,20,21,21,23,23,25,25,26,26,28,28,30,30,31,31,32,32,33,33,35,35,36,36,37,37,39,39,40,40,41,41,42,42,47,47,48,48],"right_children":[2,4,6,8,10,12,14,16,18,20,22,24,26,28,30,32,34,36,38,40,42,44,-1,46,-1,48,50,-1,52,-1,54,56,58,60,-1,62,64,66,-1,68,70,72,74,-1,-1,-1,-1,76,78,-1,-1,-1,-1,-1,-1,-1,-1,-1,-1,-1,-1,-1,-1,-1,-1,-1,-1,-1,-1,-1,-1,-1,-1,-1,-1,-1,-1,-1,-1],"split_conditions":[4.353377E-1,-3.6067194E-1,1.4886417E0,-7.46616E-1,3.2835546E-1,1.8685713E-1,1.7137773E0,-6.176619E-1,-4.6403512E-1,-8.327465E-2,1.6948249E0,9.6601075E-1,9.9501884E-1,9.598307E-2,9.598307E-2,-1.0138571E0,1.3834342E-1,2.126053E-1,4.0516883E-1,-2.255094E-1,-1.9316691E-1,5.898404E-1,1.0129179E0,-4.7212076E-1,8.792316E-1,7.771073E-1,1.9308709E0,7.40364E-1,1.2004042E0,1.2110137E0,1.3457388E-3,-2.2988024E0,-9.3958807E-1,-5.593295E-1,1.266113E-1,-6.823468E-1,-5.295225E-1,1.5671861E-1,3.8878575E-1,-5.368057E-1,-7.3233277E-1,1.820619E-1,1.3381888E-1,5.3858244E-1,8.011134E-1,3.7197036E-1,6.425389E-1,7.9941547E-1,7.489172E-1,9.793491E-1,1.5591147E0,1.5551345E0,9.325137E-1,1.6364763E0,2.6043575E0,-5.1525474E-2,-3.4415625E-2,-2.3434158E-2,-4.398893E-3,5.0755995E-3,3.2450527E-2,3.4166344E-2,8.7846905E-2,5.1253613E-2,1.6028915E-1,1.8493496E-1,2.5486428E-1,1.7592151E-1,2.5063792E-1,2.1756609E-1,3.671205E-1,3.3501324E-1,4.5091638E-1,4.7914344E-1,6.0758376E-1,8.188565E-1,1.060649E0,9.912789E-1,1.3595996E0],"split_indices":[4,4,3,4,3,3,4,3,3,4,3,4,2,0,0,3,3,2,3,3,3,2,0,3,0,3,4,0,0,0,1,2,4,2,0,3,4,2,0,3,0,4,4,0,0,0,0,2,4,0,0,0,0,0,0,0,0,0,0,0,0,0,0,0,0,0,0,0,0,0,0,0,0,0,0,0,0,0,0],"split_type":[0,0,0,0,0,0,0,0,0,0,0,0,0,0,0,0,0,0,0,0,0,0,0,0,0,0,0,0,0,0,0,0,0,0,0,0,0,0,0,0,0,0,0,0,0,0,0,0,0,0,0,0,0,0,0,0,0,0,0,0,0,0,0,0,0,0,0,0,0,0,0,0,0,0,0,0,0,0,0],"sum_hessian":[1.457E3,1.019E3,4.38E2,7.07E2,3.12E2,3.42E2,9.6E1,4.31E2,2.76E2,2.34E2,7.8E1,1.02E2,2.4E2,5.4E1,4.2E1,3.23E2,1.08E2,1.5E2,1.26E2,8.4E1,1.5E2,6E1,1.8E1,7.8E1,2.4E1,1.86E2,5.4E1,6E0,4.8E1,6E0,3.6E1,9E1,2.33E2,1.02E2,6E0,1.14E2,3.6E1,1.02E2,2.4E1,4.8E1,3.6E1,7.8E1,7.2E1,3.6E1,2.4E1,6E0,7.2E1,1.14E2,7.2E1,1.2E1,4.2E1,4.2E1,6E0,1.2E1,2.4E1,4.8E1,4.2E1,1.01E2,1.32E2,3.6E1,6.6E1,7.8E1,3.6E1,6E0,3E1,6E1,4.2E1,1.8E1,3E1,6E0,3E1,4.8E1,3E1,4.2E1,3E1,6.6E1,4.8E1,3E1,4.2E1],"tree_param":{"num_deleted":"0","num_feature":"5","num_nodes":"79","size_leaf_vector":"0"}},{"base_weights":[1.1578374E0,5.287228E-1,3.0265985E0,1.5227929E-1,1.309812E0,2.5639663E0,4.401571E0,7.97214E-2,7.565315E-1,1.119149E0,2.210398E0,1.8731354E0,2.8549335E0,3.54593E0,5.2742414E0,3.4447957E-3,3.8193437E-1,5.8717525E-1,9.3290406E-1,9.562706E-1,1.4737747E0,1.9075134E0,2.570251E0,1.5537702E0,2.3793275E0,2.3532236E0,3.0971353E0,2.9987004E0,5.5622025E0,-4.986225E-2,7.6577134E-2,3.2664612E-1,6.9647205E-1,6.595681E-1,3.6937875E-1,6.954442E-1,1.0751129E0,1.746337E0,1.2636186E0,1.7977262E0,1.189114E0,1.7123337E0,2.7104638E0,2.6009004E0,1.8330903E0,3.1706204E0,1.3844441E0,3.9443269E0,6.1810093E0,-1.03626974E-1,-2.6980529E-2,3.281326E-2,1.9226459E-1,2.7040875E-1,5.182843E-1,4.32393E-1,1.0874087E0,4.1566557E-1,7.0147806E-1,4.1769156E-1,7.1591675E-1,8.557096E-1,1.2044314E0,2.896512E0,3.7146366E0],"categories":[],"categories_nodes":[],"categories_segments":[],"categories_sizes":[],"default_left":[1,1,1,1,1,1,1,1,1,1,1,1,1,0,1,1,1,1,0,1,1,0,0,1,1,1,1,0,1,1,1,1,1,1,0,1,1,0,0,0,0,0,0,0,0,1,0,0,0,0,0,0,0,0,0,0,0,0,0,0,0,0,0,0,0],"id":5,"left_children":[1,3,5,7,9,11,13,15,17,19,21,23,25,-1,27,29,31,33,-1,35,37,-1,-1,39,41,43,45,-1,47,49,51,53,55,57,-1,59,61,-1,-1,-1,-1,-1,-1,-1,-1,63,-1,-1,-1,-1,-1,-1,-1,-1,-1,-1,-1,-1,-1,-1,-1,-1,-1,-1,-1],"loss_changes":[1.712519E3,3.2088782E2,2.2216577E2,3.2296013E1,5.8482605E1,5.0331787E1,4.924695E1,1.521286E1,1.8119392E0,1.5630157E1,1.7458801E0,1.0044189E1,1.6164307E1,0E0,1.149707E1,2.0622098E0,2.0854015E0,4.343462E-1,0E0,5.6067657E0,3.0058289E0,0E0,0E0,2.7550964E0,2.2056122E0,3.8635864E0,1.1594238E1,0E0,1.266272E1,3.736543E-1,1.1227249E0,1.0992327E0,1.4913378E0,2.5300026E-2,0E0,8.194733E-2,2.9131927E0,0E0,0E0,0E0,0E0,0E0,0E0,0E0,0E0,7.2839355E0,0E0,0E0,0E0,0E0,0E0,0E0,0E0,0E0,0E0,0E0,0E0,0E0,0E0,0E0,0E0,0E0,0E0,0E0,0E0],"parents":[2147483647,0,0,1,1,2,2,3,3,4,4,5,5,6,6,7,7,8,8,9,9,10,10,11,11,12,12,14,14,15,15,16,16,17,17,19,19,20,20,23,23,24,24,25,25,26,26,28,28,29,29,30,30,31,31,32,32,33,33,35,35,36,36,45,45],"right_children":[2,4,6,8,10,12,14,16,18,20,22,24,26,-1,28,30,32,34,-1,36,38,-1,-1,40,42,44,46,-1,48,50,52,54,56,58,-1,60,62,-1,-1,-1,-1,-1,-1,-1,-1,64,-1,-1,-1,-1,-1,-1,-1,-1,-1,-1,-1,-1,-1,-1,-1,-1,-1,-1,-1],"split_conditions":[6.041882E-1,-2.7624667E-1,1.4886417E0,-2.0529535E-1,7.649789E-1,2.7579895E-1,1.7137773E0,-5.898262E-1,6.4819366E-1,2.1824415E-1,1.7959484E-1,1.2004042E0,9.6601075E-1,1.063779E0,9.598307E-2,-8.036311E-1,-3.6296493E-1,1.7959484E-1,2.7987123E-1,-2.8615153E-1,6.7017746E-1,5.7225406E-1,7.710753E-1,7.959225E-1,1.1831043E0,1.3457388E-3,3.1490068E0,8.9961016E-1,1.3457388E-3,-1.0138571E0,-7.224945E-1,3.2787156E-1,3.7208837E-1,-1.0084381E0,1.10813625E-1,4.117016E-1,-2.297089E-2,5.2390116E-1,3.790856E-1,5.3931785E-1,3.5673422E-1,5.137001E-1,8.1313914E-1,7.8027016E-1,5.499271E-1,2.1359038E0,4.1533324E-1,1.1832981E0,1.8543029E0,-3.1088093E-2,-8.094159E-3,9.843978E-3,5.7679377E-2,8.112263E-2,1.554853E-1,1.2971792E-1,3.262226E-1,1.24699675E-1,2.1044342E-1,1.2530747E-1,2.1477504E-1,2.5671288E-1,3.6132944E-1,8.6895365E-1,1.114391E0],"split_indices":[4,4,3,3,3,3,4,4,0,4,1,0,4,0,0,3,3,1,0,3,2,0,0,2,4,1,4,0,1,3,4,2,0,0,0,2,4,0,0,0,0,0,0,0,0,4,0,0,0,0,0,0,0,0,0,0,0,0,0,0,0,0,0,0,0],"split_type":[0,0,0,0,0,0,0,0,0,0,0,0,0,0,0,0,0,0,0,0,0,0,0,0,0,0,0,0,0,0,0,0,0,0,0,0,0,0,0,0,0,0,0,0,0,0,0,0,0,0,0,0,0,0,0,0,0,0,0,0,0,0,0,0,0],"sum_hessian":[1.457E3,1.091E3,3.66E2,7.37E2,3.54E2,2.76E2,9E1,6.59E2,7.8E1,2.94E2,6E1,8.4E1,1.92E2,4.8E1,4.2E1,5.27E2,1.32E2,4.2E1,3.6E1,2.04E2,9E1,3.6E1,2.4E1,5.4E1,3E1,6.6E1,1.26E2,6E0,3.6E1,3.05E2,2.22E2,1.14E2,1.8E1,3E1,1.2E1,6.6E1,1.38E2,3.6E1,5.4E1,3E1,2.4E1,1.2E1,1.8E1,4.2E1,2.4E1,1.2E2,6E0,1.2E1,2.4E1,9E1,2.15E2,1.62E2,6E1,9E1,2.4E1,1.2E1,6E0,6E0,2.4E1,6E0,6E1,5.4E1,8.4E1,8.4E1,3.6E1],"tree_param":{"num_deleted":"0","num_feature":"5","num_nodes":"65","size_leaf_vector":"0"}},{"base_weights":[8.211884E-1,3.7436527E-1,2.1484628E0,1.085558E-1,9.2589486E-1,1.8303651E0,3.1822646E0,5.6897227E-2,5.3875965E-1,7.8971314E-1,1.5693002E0,1.4382019E0,2.135934E0,2.5069911E0,3.7835317E0,2.4650241E-3,2.7256116E-1,4.7613746E-1,8.200618E-1,6.4095366E-1,9.983345E-1,1.3507255E0,1.8300188E0,1.298083E0,1.957964E0,1.8747966E0,2.458734E0,2.649182E0,1.3972696E0,2.2276056E0,3.9756386E0,-4.020867E-2,5.345075E-2,2.3070972E-1,5.1152736E-1,3.8623923E-1,5.680761E-1,5.611697E-1,8.728215E-1,7.7549976E-1,1.1069872E0,7.8404456E-1,1.4351139E0,1.9759971E0,1.1723605E0,1.0355219E0,1.4618869E0,8.1738526E-1,1.9398211E0,1.8706455E0,2.8850045E0,2.8520517E0,4.400878E0,-9.856024E-2,-2.6321726E-2,4.435366E-2,3.5121712E-1,1.2915897E-1,2.8736687E-1,3.1265348E-1,8.077892E-1,2.1853065E-1,4.1164955E-1,4.6336502E-1,6.9144964E-1,9.649801E-1,5.8591855E-1,1.2251724E0,1.7537487E0,2.0173402E0,1.3553053E0,1.0284445E0,3.211163E0],"categories":[],"categories_nodes":[],"categories_segments":[],"categories_sizes":[],"default_left":[1,1,1,1,1,1,1,1,1,1,1,1,1,1,1,1,1,1,0,1,1,1,1,1,0,1,1,0,0,0,1,1,1,1,1,1,0,1,1,0,0,0,0,0,0,0,1,0,1,0,1,0,0,0,0,0,0,0,0,0,0,0,0,0,0,0,0,0,0,0,0,0,0],"id":6,"left_children":[1,3,5,7,9,11,13,15,17,19,21,23,25,27,29,31,33,35,-1,37,39,41,43,45,-1,47,49,-1,-1,-1,51,53,55,57,59,61,-1,63,65,-1,-1,-1,-1,-1,-1,-1,67,-1,69,-1,71,-1,-1,-1,-1,-1,-1,-1,-1,-1,-1,-1,-1,-1,-1,-1,-1,-1,-1,-1,-1,-1,-1],"loss_changes":[8.638726E2,1.5998865E2,1.1486316E2,1.6370451E1,2.9865845E1,3.0840881E1,2.5026306E1,7.74711E0,1.0011845E0,8.515244E0,1.0043182E0,6.707611E0,8.624695E0,3.0834656E0,3.9967651E0,1.1509447E0,1.2121296E0,3.3434868E-1,0E0,2.747589E0,2.0711365E0,6.4419556E-1,8.351135E-2,2.9160614E0,0E0,4.671356E0,1.1399017E1,0E0,0E0,0E0,5.126831E0,2.3077938E-1,6.372447E-1,6.245451E-1,8.6689854E-1,6.7718506E-2,0E0,1.3742905E0,5.7154465E-1,0E0,0E0,0E0,0E0,0E0,0E0,0E0,2.0657196E0,0E0,1.1173401E0,0E0,1.9102234E1,0E0,0E0,0E0,0E0,0E0,0E0,0E0,0E0,0E0,0E0,0E0,0E0,0E0,0E0,0E0,0E0,0E0,0E0,0E0,0E0,0E0,0E0],"parents":[2147483647,0,0,1,1,2,2,3,3,4,4,5,5,6,6,7,7,8,8,9,9,10,10,11,11,12,12,13,13,14,14,15,15,16,16,17,17,19,19,20,20,21,21,22,22,23,23,25,25,26,26,30,30,31,31,32,32,33,33,34,34,35,35,37,37,38,38,46,46,48,48,50,50],"right_children":[2,4,6,8,10,12,14,16,18,20,22,24,26,28,30,32,34,36,-1,38,40,42,44,46,-1,48,50,-1,-1,-1,52,54,56,58,60,62,-1,64,66,-1,-1,-1,-1,-1,-1,-1,68,-1,70,-1,72,-1,-1,-1,-1,-1,-1,-1,-1,-1,-1,-1,-1,-1,-1,-1,-1,-1,-1,-1,-1,-1,-1],"split_conditions":[6.041882E-1,-2.7624667E-1,1.6180116E0,-2.0529535E-1,7.649789E-1,5.1432467E-1,1.7137773E0,-5.898262E-1,1.1530886E0,-5.5711407E-2,1.7959484E-1,1.8343849E0,1.2072258E0,1.2004042E0,9.598307E-2,-8.672235E-1,-3.6296493E-1,1.5322569E-1,2.4601854E-1,3.5784394E-1,5.793617E-1,-1.8012223E-1,6.5620583E-1,6.4819366E-1,5.8738923E-1,7.2257125E-1,-5.334016E-1,7.947547E-1,4.191809E-1,6.682817E-1,1.3457388E-3,-2.2988024E0,1.9620857E0,2.126053E-1,3.7208837E-1,-7.46616E-1,1.7042282E-1,5.898404E-1,3.7208837E-1,2.3264994E-1,3.320962E-1,2.3521338E-1,4.3053418E-1,5.927991E-1,3.5170817E-1,3.1065658E-1,3.5784394E-1,2.4521558E-1,1.2004042E0,5.611937E-1,7.575004E-1,8.5561556E-1,1.3202634E0,-2.9568072E-2,-7.896518E-3,1.3306099E-2,1.0536514E-1,3.8747694E-2,8.6210065E-2,9.379605E-2,2.4233676E-1,6.55592E-2,1.2349487E-1,1.390095E-1,2.0743491E-1,2.8949404E-1,1.7577557E-1,3.6755174E-1,5.261246E-1,6.052021E-1,4.0659162E-1,3.0853337E-1,9.633489E-1],"split_indices":[4,4,3,3,3,3,4,4,3,3,1,4,4,0,0,4,3,2,0,1,2,0,2,0,0,2,1,0,0,0,1,2,1,2,0,4,0,2,0,0,0,0,0,0,0,0,1,0,0,0,2,0,0,0,0,0,0,0,0,0,0,0,0,0,0,0,0,0,0,0,0,0,0],"split_type":[0,0,0,0,0,0,0,0,0,0,0,0,0,0,0,0,0,0,0,0,0,0,0,0,0,0,0,0,0,0,0,0,0,0,0,0,0,0,0,0,0,0,0,0,0,0,0,0,0,0,0,0,0,0,0,0,0,0,0,0,0,0,0,0,0,0,0,0,0,0,0,0,0],"sum_hessian":[1.457E3,1.091E3,3.66E2,7.37E2,3.54E2,2.82E2,8.4E1,6.59E2,7.8E1,2.94E2,6E1,1.26E2,1.56E2,4.2E1,4.2E1,5.27E2,1.32E2,6.6E1,1.2E1,1.74E2,1.2E2,3.6E1,2.4E1,1.02E2,2.4E1,9E1,6.6E1,3.6E1,6E0,6E0,3.6E1,2.87E2,2.4E2,1.14E2,1.8E1,3.6E1,3E1,1.32E2,4.2E1,4.2E1,7.8E1,6E0,3E1,1.8E1,6E0,4.2E1,6E1,6E0,8.4E1,3E1,3.6E1,1.2E1,2.4E1,5.4E1,2.33E2,2.34E2,6E0,4.2E1,7.2E1,1.2E1,6E0,6E0,3E1,7.8E1,5.4E1,3E1,1.2E1,3.6E1,2.4E1,7.2E1,1.2E1,6E0,3E1],"tree_param":{"num_deleted":"0","num_feature":"5","num_nodes":"73","size_leaf_vector":"0"}},{"base_weights":[5.8379924E-1,1.8405493E-1,1.3378038E0,7.035796E-2,5.564411E-1,1.0628724E0,1.9753063E0,1.879318E-3,2.4638903E-1,4.833466E-1,1.1160158E0,9.416837E-1,1.7067797E0,1.6663057E0,2.5845258E0,-1.9388035E-2,7.8425445E-2,1.9859022E-1,3.9451197E-1,2.9290155E-1,5.324281E-1,6.235252E-1,1.2387221E0,7.492526E-1,1.1435459E0,7.639871E-1,1.8066322E0,1.5405017E0,2.4187555E0,2.8411849E0,1.655225E0,-3.2543916E-2,3.191584E-2,2.4345936E-2,1.917729E-1,1.268206E-1,2.9310435E-1,9.862212E-2,4.335054E-1,2.1912627E-1,3.7455842E-1,3.5938385E-1,5.60952E-1,5.2497E-1,7.980991E-1,9.4647855E-1,1.2962035E0,1.424096E0,2.3356843E0,1.0543562E0,1.64593E0,1.6547928E0,3.0174286E0,-2.5480963E-2,-8.778619E-2,4.4508528E-2,-4.1252017E-2,4.2611208E-2,-7.166323E-2,7.373111E-2,2.9972136E-1,-4.75362E-2,1.3968737E-1,2.675274E-1,3.7876797E-1,4.6326858E-1,2.1425629E-1,3.9935708E-1,1.995445E-1,5.723417E-1,2.7417427E-1,6.695837E-1,3.9839384E-1,7.5442064E-1,1.0066705E0,1.0221603E0,5.5348074E-1,2.0668871E0,1.2045462E0,6.072006E-1,1.214028E0,1.7593632E0,1.2309431E0],"categories":[],"categories_nodes":[],"categories_segments":[],"categories_sizes":[],"default_left":[1,1,1,1,1,1,1,1,1,1,1,1,1,1,1,1,1,1,1,1,1,0,0,1,1,0,1,1,0,1,0,1,1,1,1,1,1,0,1,0,0,1,1,1,1,1,1,0,0,1,1,0,0,0,0,0,0,0,0,0,0,0,0,0,0,0,0,0,0,0,0,0,0,0,0,0,0,0,0,0,0,0,0],"id":7,"left_children":[1,3,5,7,9,11,13,15,17,19,21,23,25,27,29,31,33,35,37,39,41,-1,-1,43,45,-1,47,49,-1,51,-1,53,55,57,59,61,63,-1,65,-1,-1,67,69,71,73,75,77,-1,-1,79,81,-1,-1,-1,-1,-1,-1,-1,-1,-1,-1,-1,-1,-1,-1,-1,-1,-1,-1,-1,-1,-1,-1,-1,-1,-1,-1,-1,-1,-1,-1,-1,-1],"loss_changes":[4.3920816E2,4.0352432E1,8.641162E1,8.823336E0,8.581688E0,2.609491E1,2.4119019E1,8.610694E-1,1.3730736E0,1.7041702E0,7.3841476E-1,1.0835419E1,3.7974548E0,6.023987E0,6.984375E0,2.8046703E-1,7.002553E-1,1.0277977E0,5.2259684E-1,1.7696762E-1,5.7334137E-1,0E0,0E0,1.3010254E0,3.1353302E0,0E0,6.5904694E0,2.9286804E0,0E0,2.743225E0,0E0,1.2652043E-1,8.015336E-2,1.4159073E-1,4.4937098E-1,2.1079075E-1,4.5467377E-2,0E0,1.8134117E-1,0E0,0E0,8.004308E-2,2.7749634E-1,3.0068684E-1,3.9752197E-1,1.4270172E0,3.090805E0,0E0,0E0,6.1940575E-1,1.2706604E0,0E0,0E0,0E0,0E0,0E0,0E0,0E0,0E0,0E0,0E0,0E0,0E0,0E0,0E0,0E0,0E0,0E0,0E0,0E0,0E0,0E0,0E0,0E0,0E0,0E0,0E0,0E0,0E0,0E0,0E0,0E0,0E0],"parents":[2147483647,0,0,1,1,2,2,3,3,4,4,5,5,6,6,7,7,8,8,9,9,10,10,11,11,12,12,13,13,14,14,15,15,16,16,17,17,18,18,19,19,20,20,23,23,24,24,26,26,27,27,29,29,31,31,32,32,33,33,34,34,35,35,36,36,38,38,41,41,42,42,43,43,44,44,45,45,46,46,49,49,50,50],"right_children":[2,4,6,8,10,12,14,16,18,20,22,24,26,28,30,32,34,36,38,40,42,-1,-1,44,46,-1,48,50,-1,52,-1,54,56,58,60,62,64,-1,66,-1,-1,68,70,72,74,76,78,-1,-1,80,82,-1,-1,-1,-1,-1,-1,-1,-1,-1,-1,-1,-1,-1,-1,-1,-1,-1,-1,-1,-1,-1,-1,-1,-1,-1,-1,-1,-1,-1,-1,-1,-1],"split_conditions":[1.9412264E-1,-2.1338096E-1,9.9137616E-1,-5.898262E-1,1.6948249E0,1.8343849E0,1.7378988E0,-5.853194E-1,-3.9126456E-1,-5.174617E-1,-3.5515246E-1,2.919702E-1,8.098942E-1,1.0708404E0,1.2004042E0,-2.798961E-1,1.3457388E-3,3.2787156E-1,-5.942802E-1,3.7208837E-1,-7.323328E-1,1.8705757E-1,3.7161663E-1,-2.9423714E-1,7.9716027E-1,2.2919615E-1,5.7900965E-1,7.435287E-1,7.256267E-1,9.598307E-2,4.9656752E-1,-6.641171E-1,1.00831926E-1,-3.5515246E-1,-4.4786388E-1,-1.2845433E0,-4.6807796E-1,2.9586637E-2,1.6145622E0,6.573788E-2,1.1236753E-1,4.501237E-1,1.4765096E0,-7.1165067E-1,1.2004042E0,7.7845794E-1,8.2128173E-1,4.272288E-1,7.007053E-1,3.5784394E-1,1.2004042E0,4.9643785E-1,9.052286E-1,-7.644289E-3,-2.6335858E-2,1.3352559E-2,-1.2375605E-2,1.27833625E-2,-2.149897E-2,2.2119334E-2,8.991641E-2,-1.4260861E-2,4.1906215E-2,8.025822E-2,1.1363039E-1,1.3898058E-1,6.427689E-2,1.1980713E-1,5.9863355E-2,1.717025E-1,8.225229E-2,2.0087512E-1,1.1951815E-1,2.263262E-1,3.0200115E-1,3.066481E-1,1.6604424E-1,6.2006617E-1,3.613639E-1,1.821602E-1,3.642084E-1,5.2780896E-1,3.6928293E-1],"split_indices":[4,3,3,4,3,4,4,3,3,4,1,3,2,1,0,2,1,2,0,0,0,0,0,3,4,0,3,2,0,0,0,2,2,1,3,0,3,0,0,0,0,2,0,1,0,2,4,0,0,1,0,0,0,0,0,0,0,0,0,0,0,0,0,0,0,0,0,0,0,0,0,0,0,0,0,0,0,0,0,0,0,0,0],"split_type":[0,0,0,0,0,0,0,0,0,0,0,0,0,0,0,0,0,0,0,0,0,0,0,0,0,0,0,0,0,0,0,0,0,0,0,0,0,0,0,0,0,0,0,0,0,0,0,0,0,0,0,0,0,0,0,0,0,0,0,0,0,0,0,0,0,0,0,0,0,0,0,0,0,0,0,0,0,0,0,0,0,0,0],"sum_hessian":[1.457E3,9.53E2,5.04E2,7.31E2,2.22E2,3.54E2,1.5E2,5.27E2,2.04E2,1.98E2,2.4E1,3E2,5.4E1,1.02E2,4.8E1,4.13E2,1.14E2,1.56E2,4.8E1,4.2E1,1.56E2,6E0,1.8E1,1.56E2,1.44E2,6E0,4.8E1,9E1,1.2E1,3.6E1,1.2E1,3.29E2,8.4E1,7.8E1,3.6E1,9E1,6.6E1,6E0,4.2E1,2.4E1,1.8E1,2.4E1,1.32E2,3E1,1.26E2,6.6E1,7.8E1,3E1,1.8E1,1.8E1,7.2E1,6E0,3E1,2.93E2,3.6E1,7.2E1,1.2E1,6.6E1,1.2E1,1.8E1,1.8E1,6E0,8.4E1,5.4E1,1.2E1,3.6E1,6E0,1.8E1,6E0,1.26E2,6E0,1.2E1,1.8E1,1.08E2,1.8E1,5.4E1,1.2E1,6E0,7.2E1,6E0,1.2E1,5.4E1,1.8E1],"tree_param":{"num_deleted":"0","num_feature":"5","num_nodes":"83","size_leaf_vector":"0"}},{"base_weights":[4.1512206E-1,1.879897E-1,1.089818E0,5.4243516E-2,4.6550152E-1,9.2188007E-1,1.6361314E0,3.2536578E-3,1.6756484E-1,3.9323387E-1,8.5253894E-1,5.387384E-1,9.9784625E-1,1.3312413E0,1.9956851E0,-1.0143602E-2,1.02032565E-1,3.4665152E-2,2.083758E-1,3.0662563E-1,4.9196705E-1,6.021327E-1,9.5808434E-1,7.7140677E-1,3.787566E-1,9.0143895E-1,1.2580664E0,1.3995517E0,7.214421E-1,1.2292753E0,2.1043684E0,-3.9238706E-2,7.164246E-3,6.9756515E-2,2.158398E-1,3.309121E-4,9.970208E-2,1.6863059E-1,3.5205716E-1,2.2645757E-1,3.6756673E-1,4.600086E-1,7.6633316E-1,1.017358E0,5.587177E-1,1.8598938E-1,4.907154E-1,8.109298E-1,1.2957097E0,5.6753296E-1,1.3230786E0,2.2644072E0,1.2321771E0,-6.202447E-2,-2.7901376E-2,-8.361022E-2,1.14923045E-2,-2.1393133E-2,9.989675E-2,1.4144407E-1,2.594013E-1,2.6992707E-2,-5.0967224E-2,1.6208102E-1,-3.0387666E-2,1.2945025E-1,2.0228061E-1,2.5142735E-1,3.9030236E-1,1.8032935E-1,2.5444633E-1,2.6067954E-1,3.9035153E-1,3.785624E-1,5.150707E-1,1.0967818E0,5.883645E-1,2.3994501E-1,1.0546385E-1,5.7996017E-1,2.54873E-1,8.6688745E-1,3.9421645E-1,1.6261561E0,7.130796E-1,1.0729429E0,1.482121E0],"categories":[],"categories_nodes":[],"categories_segments":[],"categories_sizes":[],"default_left":[1,1,1,1,1,1,1,1,1,1,1,1,1,1,1,1,1,1,1,1,1,0,1,0,1,1,1,0,0,0,1,1,1,1,1,1,1,1,1,1,1,1,0,1,0,1,1,1,1,0,1,0,0,0,0,0,0,0,0,0,0,0,0,0,0,0,0,0,0,0,0,0,0,0,0,0,0,0,0,0,0,0,0,0,0,0,0],"id":8,"left_children":[1,3,5,7,9,11,13,15,17,19,21,23,25,27,29,31,33,35,37,39,41,-1,43,-1,45,47,49,-1,-1,-1,51,53,55,57,59,61,63,65,67,69,71,73,-1,75,-1,77,79,81,83,-1,85,-1,-1,-1,-1,-1,-1,-1,-1,-1,-1,-1,-1,-1,-1,-1,-1,-1,-1,-1,-1,-1,-1,-1,-1,-1,-1,-1,-1,-1,-1,-1,-1,-1,-1,-1,-1],"loss_changes":[2.2322678E2,4.0505577E1,3.216272E1,4.263795E0,9.594208E0,7.699356E0,6.6613464E0,6.759521E-1,1.2348189E0,2.4230347E0,8.76709E-1,1.5317373E0,4.7613983E0,1.0314331E0,4.9510193E-1,2.2688928E-1,2.0901197E-1,1.22781664E-1,9.399948E-1,7.131052E-1,8.662758E-1,0E0,3.0744553E-1,0E0,5.777736E-1,5.194168E0,1.987587E0,0E0,0E0,0E0,1.5369568E0,4.1668832E-2,1.121451E-1,1.3675345E-1,5.4394007E-3,5.198066E-2,1.5910761E-1,1.5707493E-1,4.4266224E-2,4.8363924E-2,1.19864464E-1,3.745575E-1,0E0,4.1093063E-1,0E0,3.1176925E-2,2.5209045E-1,3.0394135E0,4.8087883E0,0E0,5.9778595E-1,0E0,0E0,0E0,0E0,0E0,0E0,0E0,0E0,0E0,0E0,0E0,0E0,0E0,0E0,0E0,0E0,0E0,0E0,0E0,0E0,0E0,0E0,0E0,0E0,0E0,0E0,0E0,0E0,0E0,0E0,0E0,0E0,0E0,0E0,0E0,0E0],"parents":[2147483647,0,0,1,1,2,2,3,3,4,4,5,5,6,6,7,7,8,8,9,9,10,10,11,11,12,12,13,13,14,14,15,15,16,16,17,17,18,18,19,19,20,20,22,22,24,24,25,25,26,26,30,30,31,31,32,32,33,33,34,34,35,35,36,36,37,37,38,38,39,39,40,40,41,41,43,43,45,45,46,46,47,47,48,48,50,50],"right_children":[2,4,6,8,10,12,14,16,18,20,22,24,26,28,30,32,34,36,38,40,42,-1,44,-1,46,48,50,-1,-1,-1,52,54,56,58,60,62,64,66,68,70,72,74,-1,76,-1,78,80,82,84,-1,86,-1,-1,-1,-1,-1,-1,-1,-1,-1,-1,-1,-1,-1,-1,-1,-1,-1,-1,-1,-1,-1,-1,-1,-1,-1,-1,-1,-1,-1,-1,-1,-1,-1,-1,-1,-1],"split_conditions":[6.041882E-1,-2.7624667E-1,1.6180116E0,-5.448913E-1,8.539207E-1,9.791534E-2,1.8343849E0,-5.898262E-1,-7.46616E-1,1.3381888E-1,5.4093957E-1,-1.9720973E-1,1.6293521E0,1.2004042E0,9.598307E-2,-9.6370953E-1,-6.378759E-1,1.3457388E-3,3.121842E-1,-1.9316691E-1,7.143421E-1,1.806398E-1,2.539772E0,2.3142204E-1,-3.5515246E-1,1.0708404E0,8.098942E-1,4.1986555E-1,2.1643265E-1,3.687826E-1,1.2004042E0,-2.2988024E0,-1.0138571E0,-5.295225E-1,-4.5622754E-1,-8.8989973E-1,1.2490895E0,-3.6700773E-1,6.4819366E-1,-8.3274655E-2,-8.703854E-1,-9.61395E-2,2.2989996E-1,9.2429894E-1,1.6761532E-1,9.598306E-2,3.5784394E-1,1.4725623E0,7.8893673E-1,1.702599E-1,5.7900965E-1,6.793222E-1,3.6965317E-1,-1.8607343E-2,-8.370413E-3,-2.5083067E-2,3.4476914E-3,-6.4179404E-3,2.9969027E-2,4.2433225E-2,7.782039E-2,8.0978125E-3,-1.5290168E-2,4.8624307E-2,-9.1163E-3,3.8835075E-2,6.0684185E-2,7.542821E-2,1.1709071E-1,5.4098807E-2,7.63339E-2,7.8203864E-2,1.1710546E-1,1.1356872E-1,1.5452121E-1,3.2903457E-1,1.7650935E-1,7.198351E-2,3.1639155E-2,1.7398806E-1,7.6461904E-2,2.6006624E-1,1.18264936E-1,4.8784685E-1,2.1392389E-1,3.2188287E-1,4.4463632E-1],"split_indices":[4,4,3,3,3,3,4,4,4,4,2,3,4,0,0,4,3,1,3,3,1,0,3,0,1,1,2,0,0,0,0,2,3,4,0,1,1,3,0,4,0,3,0,0,0,0,1,4,2,0,3,0,0,0,0,0,0,0,0,0,0,0,0,0,0,0,0,0,0,0,0,0,0,0,0,0,0,0,0,0,0,0,0,0,0,0,0],"split_type":[0,0,0,0,0,0,0,0,0,0,0,0,0,0,0,0,0,0,0,0,0,0,0,0,0,0,0,0,0,0,0,0,0,0,0,0,0,0,0,0,0,0,0,0,0,0,0,0,0,0,0,0,0,0,0,0,0,0,0,0,0,0,0,0,0,0,0,0,0,0,0,0,0,0,0,0,0,0,0,0,0,0,0,0,0,0,0],"sum_hessian":[1.457E3,1.091E3,3.66E2,7.37E2,3.54E2,2.82E2,8.4E1,5.09E2,2.28E2,3E2,5.4E1,4.8E1,2.34E2,4.8E1,3.6E1,4.49E2,6E1,5.4E1,1.74E2,1.62E2,1.38E2,1.8E1,3.6E1,1.8E1,3E1,1.74E2,6E1,4.2E1,6E0,6E0,3E1,1.67E2,2.82E2,4.8E1,1.2E1,3.6E1,1.8E1,1.38E2,3.6E1,7.2E1,9E1,1.26E2,1.2E1,3E1,6E0,1.2E1,1.8E1,1.44E2,3E1,6E0,5.4E1,2.4E1,6E0,5.4E1,1.13E2,1.2E1,2.7E2,1.2E1,3.6E1,6E0,6E0,2.4E1,1.2E1,1.2E1,6E0,6.6E1,7.2E1,1.2E1,2.4E1,3E1,4.2E1,1.8E1,7.2E1,5.4E1,7.2E1,2.4E1,6E0,6E0,6E0,1.2E1,6E0,1.26E2,1.8E1,1.8E1,1.2E1,2.4E1,3E1],"tree_param":{"num_deleted":"0","num_feature":"5","num_nodes":"87","size_leaf_vector":"0"}},{"base_weights":[2.9521754E-1,1.335132E-1,7.7556074E-1,5.0949365E-2,3.6274433E-1,6.5451187E-1,1.169458E0,-4.9338383E-3,1.2381983E-1,3.0540416E-1,6.373615E-1,6.089648E-1,1.0051214E0,9.6326375E-1,1.497562E0,-1.6819311E-2,3.045543E-2,7.352299E-2,1.9407523E-1,2.372518E-1,3.4445354E-1,4.4178244E-1,6.888525E-1,4.3172196E-1,7.0418036E-1,7.466969E-1,1.3055015E0,1.0046532E0,5.359284E-1,1.1476226E0,1.8938149E0,-4.3755446E-2,-1.1616858E-2,1.3924885E-2,7.479868E-2,3.298332E-2,1.18319914E-1,1.3081294E-1,2.6577142E-1,2.1542075E-1,4.6845E-1,3.6329895E-1,1.9440651E-1,2.8042522E-1,5.400279E-1,7.676713E-1,4.8428932E-1,6.603932E-1,3.8862768E-1,5.587496E-1,9.042192E-1,-3.6143478E-2,-9.078843E-2,-3.2058288E-3,-3.634515E-2,-8.535072E-3,3.6061008E-2,-8.90448E-3,1.2813249E-1,4.2592138E-2,-1.13115445E-1,1.3135839E-1,-6.808315E-2,1.9866057E-1,9.759469E-2,3.494376E-1,1.1123474E-1,1.8723315E-1,3.034812E-1,3.0168465E-1,4.6276668E-1,3.459549E-1,9.784918E-2,8.4906757E-1,4.370711E-1,3.520274E-1,7.14798E-1,6.498537E-1,2.7037582E-1,7.0367706E-1,1.0478027E0],"categories":[],"categories_nodes":[],"categories_segments":[],"categories_sizes":[],"default_left":[1,1,1,1,1,1,1,1,1,1,1,1,1,1,1,1,1,1,1,1,1,1,1,1,1,0,0,0,0,0,0,1,1,1,1,1,1,1,1,1,0,1,1,0,0,1,0,0,1,1,1,0,0,0,0,0,0,0,0,0,0,0,0,0,0,0,0,0,0,0,0,0,0,0,0,0,0,0,0,0,0],"id":9,"left_children":[1,3,5,7,9,11,13,15,17,19,21,23,25,27,29,31,33,35,37,39,41,43,45,47,49,-1,-1,-1,-1,-1,-1,51,53,55,57,59,61,63,65,67,-1,69,71,-1,-1,73,-1,-1,75,77,79,-1,-1,-1,-1,-1,-1,-1,-1,-1,-1,-1,-1,-1,-1,-1,-1,-1,-1,-1,-1,-1,-1,-1,-1,-1,-1,-1,-1,-1,-1],"loss_changes":[1.1314456E2,2.064893E1,1.6733429E1,3.2746878E0,4.3561172E0,3.9072113E0,4.3079605E0,1.9231415E-1,1.2189655E0,5.596523E-1,1.891346E-1,3.9656906E0,1.4315777E0,4.3437576E-1,2.1252213E0,4.7417514E-2,8.325551E-2,3.6838806E-1,6.2290573E-1,3.5839033E-1,3.5635567E-1,5.4646492E-2,2.2479057E-1,6.401043E-1,4.236725E0,0E0,0E0,0E0,0E0,0E0,0E0,1.6409338E-2,5.9784725E-2,4.256777E-2,1.3953143E-1,1.5783596E-1,2.4469328E-1,1.586603E-1,8.274059E-1,1.5416622E-1,0E0,6.7549896E-1,2.4417764E-1,0E0,0E0,3.0163765E-1,0E0,0E0,6.9146824E-1,2.3726807E0,1.1919212E0,0E0,0E0,0E0,0E0,0E0,0E0,0E0,0E0,0E0,0E0,0E0,0E0,0E0,0E0,0E0,0E0,0E0,0E0,0E0,0E0,0E0,0E0,0E0,0E0,0E0,0E0,0E0,0E0,0E0,0E0],"parents":[2147483647,0,0,1,1,2,2,3,3,4,4,5,5,6,6,7,7,8,8,9,9,10,10,11,11,12,12,13,13,14,14,15,15,16,16,17,17,18,18,19,19,20,20,21,21,22,22,23,23,24,24,31,31,32,32,33,33,34,34,35,35,36,36,37,37,38,38,39,39,41,41,42,42,45,45,48,48,49,49,50,50],"right_children":[2,4,6,8,10,12,14,16,18,20,22,24,26,28,30,32,34,36,38,40,42,44,46,48,50,-1,-1,-1,-1,-1,-1,52,54,56,58,60,62,64,66,68,-1,70,72,-1,-1,74,-1,-1,76,78,80,-1,-1,-1,-1,-1,-1,-1,-1,-1,-1,-1,-1,-1,-1,-1,-1,-1,-1,-1,-1,-1,-1,-1,-1,-1,-1,-1,-1,-1,-1],"split_conditions":[6.041882E-1,-9.53354E-2,1.6180116E0,-7.224945E-1,8.539207E-1,1.0928205E0,9.7406137E-1,-6.176619E-1,-3.6700773E-1,-1.9316691E-1,5.4093957E-1,3.081414E-1,2.751002E0,1.2004042E0,5.3609306E-1,-2.2988024E0,1.3457388E-3,2.126053E-1,6.4819366E-1,7.644863E-1,5.318237E-1,-4.2069577E-2,6.5620583E-1,7.247957E-1,3.5784394E-1,2.2400908E-1,3.9165047E-1,3.0139598E-1,1.6077854E-1,3.442868E-1,5.681445E-1,-8.561876E-1,-8.038337E-1,-3.567403E-1,-4.4786388E-1,-3.993502E-1,9.2429894E-1,-3.5515246E-1,4.151945E-1,3.5784394E-1,1.4053501E-1,6.107979E-1,5.10141E-1,8.412757E-2,1.6200837E-1,9.2429894E-1,1.452868E-1,1.9811796E-1,1.6055877E0,1.3457388E-3,7.0433676E-1,-1.0843044E-2,-2.723653E-2,-9.617487E-4,-1.0903546E-2,-2.5605217E-3,1.0818303E-2,-2.6713442E-3,3.843975E-2,1.2777642E-2,-3.3934634E-2,3.9407518E-2,-2.0424947E-2,5.9598174E-2,2.9278409E-2,1.04831286E-1,3.3370424E-2,5.6169946E-2,9.104436E-2,9.05054E-2,1.3883E-1,1.03786476E-1,2.9354757E-2,2.5472027E-1,1.3112134E-1,1.0560822E-1,2.144394E-1,1.9495612E-1,8.111275E-2,2.1110313E-1,3.1434083E-1],"split_indices":[4,4,3,4,3,2,2,3,3,3,2,3,4,0,1,2,1,2,0,2,4,0,2,4,1,0,0,0,0,0,0,3,2,2,3,3,0,1,2,1,0,2,0,0,0,0,0,0,1,1,3,0,0,0,0,0,0,0,0,0,0,0,0,0,0,0,0,0,0,0,0,0,0,0,0,0,0,0,0,0,0],"split_type":[0,0,0,0,0,0,0,0,0,0,0,0,0,0,0,0,0,0,0,0,0,0,0,0,0,0,0,0,0,0,0,0,0,0,0,0,0,0,0,0,0,0,0,0,0,0,0,0,0,0,0,0,0,0,0,0,0,0,0,0,0,0,0,0,0,0,0,0,0,0,0,0,0,0,0,0,0,0,0,0,0],"sum_hessian":[1.457E3,1.091E3,3.66E2,8.03E2,2.88E2,2.82E2,8.4E1,4.55E2,3.48E2,2.4E2,4.8E1,2.52E2,3E1,5.4E1,3E1,3.41E2,1.14E2,2.04E2,1.44E2,9E1,1.5E2,1.2E1,3.6E1,9E1,1.62E2,1.8E1,1.2E1,4.8E1,6E0,1.8E1,1.2E1,5.4E1,2.87E2,8.4E1,3E1,1.08E2,9.6E1,7.8E1,6.6E1,8.4E1,6E0,1.32E2,1.8E1,6E0,6E0,2.4E1,1.2E1,1.2E1,7.8E1,9.6E1,6.6E1,4.8E1,6E0,2.15E2,7.2E1,4.2E1,4.2E1,1.2E1,1.8E1,1.02E2,6E0,9E1,6E0,2.4E1,5.4E1,4.2E1,2.4E1,6.6E1,1.8E1,8.4E1,4.8E1,6E0,1.2E1,1.8E1,6E0,7.2E1,6E0,7.2E1,2.4E1,3E1,3.6E1],"tree_param":{"num_deleted":"0","num_feature":"5","num_nodes":"81","size_leaf_vector":"0"}},{"base_weights":[2.1005179E-1,7.19042E-2,4.957932E-1,2.6706534E-2,2.0665711E-1,4.1189212E-1,7.9481566E-1,-1.654525E-3,8.1081115E-2,1.5494603E-1,3.8435856E-1,3.302433E-1,5.921978E-1,6.3401693E-1,1.0645102E0,-1.1512603E-2,3.0248601E-2,1.9356824E-2,1.05527475E-1,1.448757E-1,4.0183273E-1,3.248854E-1,5.5151147E-1,2.7615747E-1,4.0213978E-1,1.1417574E0,5.5147195E-1,1.5216146E-1,6.789181E-1,8.634004E-1,1.3693745E0,-1.0028939E-2,-8.744236E-2,1.2946638E-2,7.67137E-2,4.1380513E-2,-3.1900213E-3,8.7051384E-2,1.7508169E-1,1.3367309E-1,2.3689497E-1,2.9142085E-1,4.5535713E-1,3.1436723E-1,-5.8455216E-3,2.670119E-1,5.621533E-1,7.1957695E-1,4.5871362E-1,5.15113E-1,8.2082266E-1,-2.2768712E-2,8.751067E-5,6.7244325E-4,8.087507E-2,1.0523402E-1,-3.610366E-2,2.1991252E-3,1.13546215E-1,-2.8102303E-2,2.1890158E-2,1.0645751E-1,4.6858624E-2,1.4732976E-1,2.7297142E-1,1.3918035E-1,-1.3663428E-2,1.4544384E-1,3.7289062E-1,3.264496E-1,5.0248556E-2,-8.704049E-2,3.83245E-2,2.0145747E-1,4.013187E-1,8.411952E-1,2.6062524E-1,4.559775E-1,8.278656E-1,4.9662942E-1,2.4551538E-1,3.7952766E-1,6.7365205E-1,9.0093935E-1,4.174314E-1],"categories":[],"categories_nodes":[],"categories_segments":[],"categories_sizes":[],"default_left":[1,1,1,1,1,1,1,1,1,1,1,1,1,1,1,1,1,1,1,1,0,1,0,1,1,0,1,0,1,0,0,1,0,1,1,1,1,1,1,1,1,0,0,1,1,1,1,1,1,1,1,0,0,0,0,0,0,0,0,0,0,0,0,0,0,0,0,0,0,0,0,0,0,0,0,0,0,0,0,0,0,0,0,0,0],"id":10,"left_children":[1,3,5,7,9,11,13,15,17,19,21,23,25,27,29,31,33,35,37,39,-1,41,-1,43,45,-1,47,-1,49,-1,-1,51,-1,53,55,57,59,61,63,65,67,-1,-1,69,71,73,75,77,79,81,83,-1,-1,-1,-1,-1,-1,-1,-1,-1,-1,-1,-1,-1,-1,-1,-1,-1,-1,-1,-1,-1,-1,-1,-1,-1,-1,-1,-1,-1,-1,-1,-1,-1,-1],"loss_changes":[5.751815E1,5.9875493E0,1.1589569E1,1.1382191E0,2.2101603E0,5.295643E0,3.7918396E0,1.5319695E-1,3.797177E-1,4.2162704E-1,3.6758327E-1,8.9609146E-1,1.9442024E0,1.3462982E0,1.0861931E0,4.1030418E-2,9.145961E-2,3.638123E-2,2.1736026E-1,1.6110373E-1,0E0,5.5045128E-2,0E0,1.6289024E0,2.206726E0,0E0,1.3695717E0,0E0,9.9510956E-1,0E0,0E0,4.7172543E-2,0E0,7.081579E-2,1.0354452E-1,1.0436973E-1,2.373293E-2,1.08109474E-1,6.0298443E-2,1.3903141E-1,1.8206751E-1,0E0,0E0,4.080248E-1,7.147708E-2,4.5621967E-1,3.903573E0,6.786709E-1,4.6817112E-1,4.1069412E-1,6.2578964E-1,0E0,0E0,0E0,0E0,0E0,0E0,0E0,0E0,0E0,0E0,0E0,0E0,0E0,0E0,0E0,0E0,0E0,0E0,0E0,0E0,0E0,0E0,0E0,0E0,0E0,0E0,0E0,0E0,0E0,0E0,0E0,0E0,0E0,0E0],"parents":[2147483647,0,0,1,1,2,2,3,3,4,4,5,5,6,6,7,7,8,8,9,9,10,10,11,11,12,12,13,13,14,14,15,15,16,16,17,17,18,18,19,19,21,21,23,23,24,24,26,26,28,28,31,31,33,33,34,34,35,35,36,36,37,37,38,38,39,39,40,40,43,43,44,44,45,45,46,46,47,47,48,48,49,49,50,50],"right_children":[2,4,6,8,10,12,14,16,18,20,22,24,26,28,30,32,34,36,38,40,-1,42,-1,44,46,-1,48,-1,50,-1,-1,52,-1,54,56,58,60,62,64,66,68,-1,-1,70,72,74,76,78,80,82,84,-1,-1,-1,-1,-1,-1,-1,-1,-1,-1,-1,-1,-1,-1,-1,-1,-1,-1,-1,-1,-1,-1,-1,-1,-1,-1,-1,-1,-1,-1,-1,-1,-1,-1],"split_conditions":[2.1824415E-1,-2.7624667E-1,1.7378988E0,-5.5297697E-1,4.4963974E-1,9.0243435E-1,1.864623E0,-1.15728974E-1,-7.46616E-1,6.8065625E-1,7.143421E-1,7.8893673E-1,-4.5622754E-1,8.098942E-1,2.172086E0,-1.5764397E-1,-6.904324E-1,-3.629649E-1,3.121842E-1,7.143421E-1,1.2054982E-1,6.07305E-1,1.6545345E-1,9.2429894E-1,3.7686917E-1,3.425272E-1,-3.5515246E-1,4.564844E-2,5.7900965E-1,2.5902012E-1,4.1081238E-1,-9.6370953E-1,-2.623271E-2,2.964353E-1,2.719849E-1,-8.189805E-1,-2.5380906E-1,-2.3763782E-1,1.6301401E0,3.445267E-1,-7.3233277E-1,8.742626E-2,1.3660714E-1,7.8195083E-1,1.3457388E-3,1.2004042E0,8.797526E-1,-7.1165067E-1,8.2735884E-1,1.0928205E0,2.4428782E0,-6.8306136E-3,2.6253203E-5,2.0173298E-4,2.4262521E-2,3.1570207E-2,-1.0831098E-2,6.597376E-4,3.4063864E-2,-8.430691E-3,6.5670474E-3,3.1937253E-2,1.4057588E-2,4.419893E-2,8.189143E-2,4.1754104E-2,-4.0990287E-3,4.3633156E-2,1.1186719E-1,9.793489E-2,1.5074567E-2,-2.6112149E-2,1.149735E-2,6.0437243E-2,1.20395616E-1,2.523586E-1,7.818758E-2,1.3679326E-1,2.483597E-1,1.4898883E-1,7.3654614E-2,1.13858305E-1,2.0209563E-1,2.7028182E-1,1.2522943E-1],"split_indices":[4,4,4,3,3,3,3,2,4,2,1,2,0,2,4,2,3,3,3,1,0,2,0,0,3,0,1,0,3,0,0,4,0,2,2,4,3,3,3,3,0,0,0,2,1,0,2,1,2,2,0,0,0,0,0,0,0,0,0,0,0,0,0,0,0,0,0,0,0,0,0,0,0,0,0,0,0,0,0,0,0,0,0,0,0],"split_type":[0,0,0,0,0,0,0,0,0,0,0,0,0,0,0,0,0,0,0,0,0,0,0,0,0,0,0,0,0,0,0,0,0,0,0,0,0,0,0,0,0,0,0,0,0,0,0,0,0,0,0,0,0,0,0,0,0,0,0,0,0,0,0,0,0,0,0,0,0,0,0,0,0,0,0,0,0,0,0,0,0,0,0,0,0],"sum_hessian":[1.457E3,9.83E2,4.74E2,7.37E2,2.46E2,3.72E2,1.02E2,4.85E2,2.52E2,1.92E2,5.4E1,2.58E2,1.14E2,6.6E1,3.6E1,3.71E2,1.14E2,7.2E1,1.8E2,1.86E2,6E0,4.2E1,1.2E1,1.5E2,1.08E2,6E0,1.08E2,6E0,6E1,2.4E1,1.2E1,3.65E2,6E0,8.4E1,3E1,3.6E1,3.6E1,1.44E2,3.6E1,1.68E2,1.8E1,3.6E1,6E0,1.32E2,1.8E1,6E1,4.8E1,3.6E1,7.2E1,3E1,3E1,1.61E2,2.04E2,7.2E1,1.2E1,2.4E1,6E0,2.4E1,1.2E1,1.8E1,1.8E1,9.6E1,4.8E1,3E1,6E0,1.62E2,6E0,1.2E1,6E0,1.26E2,6E0,6E0,1.2E1,4.2E1,1.8E1,2.4E1,2.4E1,1.2E1,2.4E1,6E1,1.2E1,1.8E1,1.2E1,2.4E1,6E0],"tree_param":{"num_deleted":"0","num_feature":"5","num_nodes":"85","size_leaf_vector":"0"}},{"base_weights":[1.4971617E-1,6.659243E-2,3.96641E-1,2.5084268E-2,1.8183799E-1,3.554608E-1,7.5431657E-1,1.5412475E-3,7.138275E-2,1.5093464E-1,3.3012107E-1,3.222433E-1,5.704467E-1,6.7225844E-1,1.0099574E0,-9.818276E-3,2.1662574E-2,3.69191E-2,1.03845224E-1,1.3467653E-1,2.5672588E-1,2.1146744E-1,3.6288798E-1,2.158103E-1,3.6929438E-1,3.715741E-1,8.0209774E-1,-3.9481525E-3,-4.483865E-2,5.7547246E-3,4.1807197E-2,2.7486531E-2,2.0277868E-1,2.4409334E-1,8.867144E-2,2.6642042E-1,1.2100911E-1,1.0516724E-1,3.46912E-1,1.3337925E-1,2.59346E-1,4.2356896E-1,2.1827933E-1,3.8711357E-1,1.8488938E-1,1.985902E-2,3.9161184E-1,-8.736797E-3,3.6959916E-2,-6.0326096E-2,2.6901318E-3,-8.0883466E-2,1.1586886E-2,2.1468358E-2,1.1132799E-1,-6.880269E-2,3.8132384E-2,1.4161573E-1,3.117005E-1,-1.1140353E-1,9.95132E-2,3.202191E-1,1.2844849E-1,8.174694E-2,1.5452221E-1,4.6531647E-1,2.4974442E-1,2.4371828E-1,4.752069E-1,6.270333E-2,2.3706686E-1,-6.491252E-2,1.01793565E-1,2.9909098E-1,4.5507547E-1],"categories":[],"categories_nodes":[],"categories_segments":[],"categories_sizes":[],"default_left":[1,1,1,1,1,1,1,1,1,1,1,1,1,0,0,1,1,1,1,1,1,1,1,1,1,0,0,1,1,1,1,1,0,1,1,1,1,0,0,0,0,1,0,1,1,1,1,0,0,0,0,0,0,0,0,0,0,0,0,0,0,0,0,0,0,0,0,0,0,0,0,0,0,0,0],"id":11,"left_children":[1,3,5,7,9,11,13,15,17,19,21,23,25,-1,-1,27,29,31,33,35,37,39,41,43,45,-1,-1,47,49,51,53,55,-1,57,59,61,63,-1,-1,-1,-1,65,-1,67,69,71,73,-1,-1,-1,-1,-1,-1,-1,-1,-1,-1,-1,-1,-1,-1,-1,-1,-1,-1,-1,-1,-1,-1,-1,-1,-1,-1,-1,-1],"loss_changes":[2.9899494E1,5.2191644E0,5.1374626E0,8.76255E-1,1.2744989E0,2.1799507E0,9.721184E-2,1.2226837E-1,2.993543E-1,3.7993717E-1,1.13769054E-1,1.3675499E0,1.682929E0,0E0,0E0,7.012925E-2,6.160774E-2,2.0250241E-1,2.741611E-1,3.4768677E-1,3.8723898E-1,1.4012396E-2,2.3221827E-1,4.1044044E-1,1.5441265E0,0E0,0E0,5.79158E-2,3.6231168E-2,5.601357E-2,1.1779763E-1,1.328089E-1,0E0,4.592514E-2,2.865702E-1,9.989977E-2,2.4131703E-1,0E0,0E0,0E0,0E0,6.520891E-2,0E0,4.8401594E-2,4.8878884E-1,9.6902005E-2,9.619026E-1,0E0,0E0,0E0,0E0,0E0,0E0,0E0,0E0,0E0,0E0,0E0,0E0,0E0,0E0,0E0,0E0,0E0,0E0,0E0,0E0,0E0,0E0,0E0,0E0,0E0,0E0,0E0,0E0],"parents":[2147483647,0,0,1,1,2,2,3,3,4,4,5,5,6,6,7,7,8,8,9,9,10,10,11,11,12,12,15,15,16,16,17,17,18,18,19,19,20,20,21,21,22,22,23,23,24,24,27,27,28,28,29,29,30,30,31,31,33,33,34,34,35,35,36,36,41,41,43,43,44,44,45,45,46,46],"right_children":[2,4,6,8,10,12,14,16,18,20,22,24,26,-1,-1,28,30,32,34,36,38,40,42,44,46,-1,-1,48,50,52,54,56,-1,58,60,62,64,-1,-1,-1,-1,66,-1,68,70,72,74,-1,-1,-1,-1,-1,-1,-1,-1,-1,-1,-1,-1,-1,-1,-1,-1,-1,-1,-1,-1,-1,-1,-1,-1,-1,-1,-1,-1],"split_conditions":[6.041882E-1,-9.53354E-2,2.7055273E0,-5.287201E-1,8.539207E-1,1.0928205E0,2.1600251E0,-3.3578277E-1,1.5671861E-1,7.143421E-1,5.4093957E-1,3.081414E-1,2.7871842E0,2.0167755E-1,3.0298725E-1,-7.549329E-1,-6.904324E-1,1.3269293E0,1.8466195E-1,-1.246398E0,-7.3233277E-1,-4.2069577E-2,6.5620583E-1,7.247957E-1,-1.0681489E0,1.11472234E-1,2.4062933E-1,-8.672235E-1,-6.136191E-1,-1.4246471E0,1.3457388E-3,-4.519067E-1,6.0833607E-2,9.2429894E-1,2.2308405E-1,6.4819366E-1,-8.805388E-2,3.1550173E-2,1.0407361E-1,4.0013775E-2,7.7803805E-2,9.2429894E-1,6.54838E-2,3.5784394E-1,8.695247E-1,1.3384569E0,9.6601075E-1,-2.621039E-3,1.1087975E-2,-1.809783E-2,8.0703956E-4,-2.4265042E-2,3.4760658E-3,6.4405077E-3,3.3398397E-2,-2.064081E-2,1.14397155E-2,4.2484723E-2,9.351015E-2,-3.3421062E-2,2.9853962E-2,9.606574E-2,3.8534548E-2,2.4524083E-2,4.6356663E-2,1.3959494E-1,7.492333E-2,7.311549E-2,1.4256208E-1,1.8810999E-2,7.112006E-2,-1.9473758E-2,3.0538071E-2,8.97273E-2,1.3652265E-1],"split_indices":[4,4,3,3,3,2,4,2,2,1,2,3,4,0,0,2,3,3,2,1,0,0,2,4,1,0,0,4,3,1,1,3,0,0,2,0,3,0,0,0,0,0,0,1,4,0,4,0,0,0,0,0,0,0,0,0,0,0,0,0,0,0,0,0,0,0,0,0,0,0,0,0,0,0,0],"split_type":[0,0,0,0,0,0,0,0,0,0,0,0,0,0,0,0,0,0,0,0,0,0,0,0,0,0,0,0,0,0,0,0,0,0,0,0,0,0,0,0,0,0,0,0,0,0,0,0,0,0,0,0,0,0,0,0,0,0,0,0,0,0,0,0,0,0,0,0,0,0,0,0,0,0,0],"sum_hessian":[1.457E3,1.091E3,3.66E2,8.03E2,2.88E2,3.3E2,3.6E1,5.33E2,2.7E2,2.4E2,4.8E1,2.88E2,4.2E1,3E1,6E0,3.41E2,1.92E2,1.32E2,1.38E2,2.1E2,3E1,1.2E1,3.6E1,9E1,1.98E2,2.4E1,1.8E1,2.93E2,4.8E1,1.08E2,8.4E1,1.26E2,6E0,1.2E1,1.26E2,1.8E1,1.92E2,1.2E1,1.8E1,6E0,6E0,2.4E1,1.2E1,1.2E1,7.8E1,1.2E1,1.86E2,2.63E2,3E1,3.6E1,1.2E1,6E0,1.02E2,6.6E1,1.8E1,1.2E1,1.14E2,6E0,6E0,6E0,1.2E2,1.2E1,6E0,9E1,1.02E2,1.8E1,6E0,6E0,6E0,2.4E1,5.4E1,6E0,6E0,7.8E1,1.08E2],"tree_param":{"num_deleted":"0","num_feature":"5","num_nodes":"75","size_leaf_vector":"0"}},{"base_weights":[1.0640141E-1,3.6389247E-2,2.539614E-1,1.3482169E-2,1.17926985E-1,2.089587E-1,4.2439488E-1,-1.2177326E-3,4.5997795E-2,8.7009415E-2,1.955685E-1,1.5791032E-1,2.737578E-1,-3.984996E-3,4.526835E-1,1.6167819E-3,-7.8133084E-2,-8.923479E-2,4.983026E-2,4.617873E-2,1.3336007E-1,1.5232413E-1,2.831443E-1,1.1717874E-1,2.437039E-1,7.311434E-1,2.5162113E-1,5.401008E-1,3.105042E-1,-8.773915E-3,1.597435E-2,-3.727074E-2,-1.4285843E-1,3.1940825E-3,5.996252E-2,3.1579673E-2,9.522915E-2,2.3154324E-1,1.10249564E-1,2.2061725E-1,5.4447677E-2,8.89116E-2,3.659508E-1,1.3728543E-1,-9.754196E-2,8.521663E-1,1.698852E-1,3.66481E-1,2.064855E-1,3.8825226E-1,6.4513665E-1,-1.4306749E-2,3.7383235E-1,-7.335434E-3,-6.7936674E-2,9.582686E-3,6.467902E-2,-2.4205541E-2,3.907811E-2,1.01679325E-1,4.9749244E-2,4.578469E-2,-3.0947685E-2,1.5523228E-1,-2.9809406E-2,7.3148906E-2,1.8841161E-1,2.5417495E-1,9.8015375E-2,8.025301E-2,-1.2547629E-3,5.0372433E-2,1.7684558E-1,-3.9581843E-2,-1.415675E-1,-1.6867989E-3,2.4174526E-1,1.8149956E-1,4.322319E-1,1.511125E-1,2.9568884E-1,2.250121E-1,4.2795905E-1,4.1500503E-1,7.6864064E-1,5.038376E-1,2.6520598E-1],"categories":[],"categories_nodes":[],"categories_segments":[],"categories_sizes":[],"default_left":[1,1,1,1,1,1,1,1,1,1,1,1,1,0,1,1,1,0,1,1,1,1,1,1,1,0,1,1,1,1,1,0,0,1,1,1,1,0,1,1,1,0,0,1,1,0,1,1,1,1,1,0,1,0,0,0,0,0,0,0,0,0,0,0,0,0,0,0,0,0,0,0,0,0,0,0,0,0,0,0,0,0,0,0,0,0,0],"id":12,"left_children":[1,3,5,7,9,11,13,15,17,19,21,23,25,-1,27,29,31,-1,33,35,37,39,41,43,45,-1,47,49,51,53,55,-1,-1,57,59,61,63,-1,65,67,69,-1,-1,71,73,-1,75,77,79,81,83,-1,85,-1,-1,-1,-1,-1,-1,-1,-1,-1,-1,-1,-1,-1,-1,-1,-1,-1,-1,-1,-1,-1,-1,-1,-1,-1,-1,-1,-1,-1,-1,-1,-1,-1,-1],"loss_changes":[1.505335E1,1.8475238E0,3.5085316E0,3.7000978E-1,5.038893E-1,1.1906128E0,1.1772766E0,1.1654776E-1,1.2935084E-1,2.9096878E-1,1.8788695E-1,7.087846E-1,1.466404E0,0E0,9.633293E-1,7.7119686E-2,4.492733E-2,0E0,1.1085296E-1,5.7860345E-2,1.4011395E-1,2.7541226E-1,2.7305365E-1,6.394031E-1,2.8645954E0,0E0,7.382574E-1,6.2675095E-1,7.6642656E-1,2.5032997E-2,6.693314E-2,0E0,0E0,4.3223888E-2,7.71721E-2,6.0926467E-2,1.4717877E-1,0E0,1.6310966E-1,7.794285E-2,2.7411688E-2,0E0,0E0,4.4838476E-1,2.7568929E-2,0E0,7.524873E-1,4.4454575E-1,5.233555E-1,6.574726E-2,5.6209755E-1,0E0,3.041606E-1,0E0,0E0,0E0,0E0,0E0,0E0,0E0,0E0,0E0,0E0,0E0,0E0,0E0,0E0,0E0,0E0,0E0,0E0,0E0,0E0,0E0,0E0,0E0,0E0,0E0,0E0,0E0,0E0,0E0,0E0,0E0,0E0,0E0,0E0],"parents":[2147483647,0,0,1,1,2,2,3,3,4,4,5,5,6,6,7,7,8,8,9,9,10,10,11,11,12,12,14,14,15,15,16,16,18,18,19,19,20,20,21,21,22,22,23,23,24,24,26,26,27,27,28,28,29,29,30,30,33,33,34,34,35,35,36,36,38,38,39,39,40,40,43,43,44,44,46,46,47,47,48,48,49,49,50,50,52,52],"right_children":[2,4,6,8,10,12,14,16,18,20,22,24,26,-1,28,30,32,-1,34,36,38,40,42,44,46,-1,48,50,52,54,56,-1,-1,58,60,62,64,-1,66,68,70,-1,-1,72,74,-1,76,78,80,82,84,-1,86,-1,-1,-1,-1,-1,-1,-1,-1,-1,-1,-1,-1,-1,-1,-1,-1,-1,-1,-1,-1,-1,-1,-1,-1,-1,-1,-1,-1,-1,-1,-1,-1,-1,-1],"split_conditions":[1.8685713E-1,1.1506141E-3,1.7378988E0,-5.898262E-1,3.5784394E-1,9.0243435E-1,7.924296E-1,1.00831926E-1,-1.2845433E0,6.9113505E-1,7.120925E-1,7.8893673E-1,-4.5622754E-1,-1.1954989E-3,1.2004042E0,-8.036311E-1,-4.2069584E-2,-2.6770439E-2,-6.904324E-1,-8.805388E-2,-1.4246471E0,-1.3252479E-1,-4.2069584E-2,7.8195083E-1,8.815855E-1,2.1934304E-1,-3.5515246E-1,3.7208837E-1,1.0823418E0,-6.5013E-1,-6.742515E-1,-1.1181222E-2,-4.285753E-2,2.964353E-1,1.8466195E-1,-1.810385E-1,9.598307E-2,6.946298E-2,1.4765096E0,5.10141E-1,6.876421E-1,2.667348E-2,1.09785244E-1,4.6758828E-1,5.10141E-1,2.556499E-1,6.4819366E-1,6.1624897E-1,3.5784394E-1,-3.551525E-1,2.0273569E0,-4.2920248E-3,6.5178025E-1,-2.2006303E-3,-2.0381004E-2,2.874806E-3,1.9403707E-2,-7.2616627E-3,1.1723434E-2,3.0503798E-2,1.4924774E-2,1.3735407E-2,-9.284306E-3,4.6569686E-2,-8.942822E-3,2.1944672E-2,5.6523483E-2,7.625249E-2,2.9404614E-2,2.4075905E-2,-3.7642888E-4,1.511173E-2,5.3053677E-2,-1.1874554E-2,-4.247025E-2,-5.060397E-4,7.252358E-2,5.4449867E-2,1.2966958E-1,4.533375E-2,8.870666E-2,6.750363E-2,1.2838772E-1,1.2450151E-1,2.305922E-1,1.5115128E-1,7.95618E-2],"split_indices":[3,4,4,4,1,3,2,2,0,2,2,2,0,0,0,3,0,0,3,3,1,3,0,2,4,0,1,0,2,4,4,0,0,2,2,3,0,0,0,0,2,0,0,2,0,0,0,4,1,1,4,0,3,0,0,0,0,0,0,0,0,0,0,0,0,0,0,0,0,0,0,0,0,0,0,0,0,0,0,0,0,0,0,0,0,0,0],"split_type":[0,0,0,0,0,0,0,0,0,0,0,0,0,0,0,0,0,0,0,0,0,0,0,0,0,0,0,0,0,0,0,0,0,0,0,0,0,0,0,0,0,0,0,0,0,0,0,0,0,0,0,0,0,0,0,0,0,0,0,0,0,0,0,0,0,0,0,0,0,0,0,0,0,0,0,0,0,0,0,0,0,0,0,0,0,0,0],"sum_hessian":[1.457E3,9.89E2,4.68E2,7.73E2,2.16E2,3.72E2,9.6E1,5.33E2,2.4E2,1.56E2,6E1,2.1E2,1.62E2,6E0,9E1,5.15E2,1.8E1,6E0,2.34E2,8.4E1,7.2E1,4.2E1,1.8E1,1.44E2,6.6E1,6E0,1.56E2,5.4E1,3.6E1,2.99E2,2.16E2,1.2E1,6E0,4.2E1,1.92E2,6.6E1,1.8E1,1.2E1,6E1,2.4E1,1.8E1,6E0,1.2E1,1.32E2,1.2E1,6E0,6E1,4.2E1,1.14E2,2.4E1,3E1,6E0,3E1,2.93E2,6E0,1.92E2,2.4E1,2.4E1,1.8E1,3.6E1,1.56E2,5.4E1,1.2E1,1.2E1,6E0,4.2E1,1.8E1,1.8E1,6E0,1.2E1,6E0,4.2E1,9E1,6E0,6E0,1.8E1,4.2E1,1.2E1,3E1,7.2E1,4.2E1,6E0,1.8E1,1.2E1,1.8E1,1.2E1,1.8E1],"tree_param":{"num_deleted":"0","num_feature":"5","num_nodes":"87","size_leaf_vector":"0"}},{"base_weights":[7.590745E-2,3.343632E-2,2.0207246E-1,1.2553956E-2,9.14155E-2,1.7769502E-1,4.146903E-1,4.8357E-3,5.875433E-2,7.4563414E-2,1.7243467E-1,1.3479604E-1,2.2438055E-1,3.2143503E-1,4.8611972E-1,6.7982827E-3,-6.4832255E-2,7.529269E-2,2.1854736E-2,6.507378E-2,1.3674887E-1,2.0049724E-1,7.9300076E-2,1.9756846E-1,4.4380188E-2,5.43135E-1,2.081179E-1,4.6346034E-3,1.1612369E-1,-3.7611518E-2,-1.0612331E-1,6.0864355E-2,1.4386235E-1,1.09287806E-1,1.4067927E-3,1.4536993E-1,5.6831803E-2,5.8043335E-2,1.8340272E-1,1.4739464E-1,2.8719476E-1,3.0648913E-2,1.1662265E-1,5.9266735E-2,2.535929E-1,5.4820618E-3,4.103508E-1,3.283551E-2,2.3159344E-1,-2.956348E-3,1.8934412E-2,2.0540285E-1,1.0255439E-2,-1.8000254E-2,-5.1849704E-2,1.96678E-2,7.55964E-2,-1.2556126E-2,2.1705922E-2,1.6742375E-1,8.364569E-2,6.2145885E-2,-9.324891E-2,7.1696006E-2,3.6098752E-2,6.0224533E-2,1.7175233E-1,-1.5301631E-2,1.071679E-1,4.27461E-1,1.2234865E-1,-1.1938917E-1,3.4897406E-2,-2.9599327E-3,4.958417E-2,2.0078933E-1,4.0585026E-1],"categories":[],"categories_nodes":[],"categories_segments":[],"categories_sizes":[],"default_left":[1,1,1,1,1,1,1,1,1,1,1,1,1,0,0,1,1,1,1,1,1,1,1,1,1,0,1,1,1,1,0,1,0,0,1,1,1,1,0,1,0,0,0,1,1,1,0,1,1,0,0,0,0,0,0,0,0,0,0,0,0,0,0,0,0,0,0,0,0,0,0,0,0,0,0,0,0],"id":13,"left_children":[1,3,5,7,9,11,13,15,17,19,21,23,25,-1,-1,27,29,31,33,35,37,39,41,43,45,-1,47,49,51,53,-1,55,-1,-1,57,59,61,63,-1,65,-1,-1,-1,67,69,71,-1,73,75,-1,-1,-1,-1,-1,-1,-1,-1,-1,-1,-1,-1,-1,-1,-1,-1,-1,-1,-1,-1,-1,-1,-1,-1,-1,-1,-1,-1],"loss_changes":[7.805746E0,1.3209832E0,1.8285027E0,2.8641126E-1,3.817265E-1,6.3266754E-1,9.020758E-2,9.478384E-2,6.8534255E-2,1.333195E-1,1.1216688E-1,9.844661E-1,7.008195E-1,0E0,0E0,1.5842016E-1,1.736404E-2,6.940231E-2,6.599583E-2,1.3137794E-1,1.03184044E-1,1.2801194E-1,2.0030871E-2,7.830429E-1,1.0369473E0,0E0,6.1373806E-1,7.169841E-2,1.20767295E-1,2.6966687E-3,0E0,3.9176077E-2,0E0,0E0,9.05903E-3,1.1859626E-2,1.5972054E-1,1.306694E-3,0E0,4.273784E-2,0E0,0E0,0E0,1.12369105E-1,1.613502E0,2.5026608E-1,0E0,1.1537757E-2,6.3243055E-1,0E0,0E0,0E0,0E0,0E0,0E0,0E0,0E0,0E0,0E0,0E0,0E0,0E0,0E0,0E0,0E0,0E0,0E0,0E0,0E0,0E0,0E0,0E0,0E0,0E0,0E0,0E0,0E0],"parents":[2147483647,0,0,1,1,2,2,3,3,4,4,5,5,6,6,7,7,8,8,9,9,10,10,11,11,12,12,15,15,16,16,17,17,18,18,19,19,20,20,21,21,22,22,23,23,24,24,26,26,27,27,28,28,29,29,31,31,34,34,35,35,36,36,37,37,39,39,43,43,44,44,45,45,47,47,48,48],"right_children":[2,4,6,8,10,12,14,16,18,20,22,24,26,-1,-1,28,30,32,34,36,38,40,42,44,46,-1,48,50,52,54,-1,56,-1,-1,58,60,62,64,-1,66,-1,-1,-1,68,70,72,-1,74,76,-1,-1,-1,-1,-1,-1,-1,-1,-1,-1,-1,-1,-1,-1,-1,-1,-1,-1,-1,-1,-1,-1,-1,-1,-1,-1,-1,-1],"split_conditions":[6.041882E-1,-9.53354E-2,2.7055273E0,-2.0529535E-1,8.539207E-1,1.1831043E0,3.2796063E0,-2.3763782E-1,4.151945E-1,7.143421E-1,2.539772E0,9.2429894E-1,-4.5622754E-1,9.643052E-2,1.4583592E-1,-2.5380906E-1,-1.8012223E-1,9.2429894E-1,-1.7295288E-1,-1.246398E0,-7.3233277E-1,1.7959484E-1,-4.2069577E-2,2.3403572E-1,7.143422E-1,1.629405E-1,7.959225E-1,-7.224945E-1,1.4765096E0,-1.2845434E0,-3.1836994E-2,-1.0874313E-1,4.3158706E-2,3.2786343E-2,4.7457412E-1,6.4819366E-1,7.644863E-1,-1.422596E0,5.5020817E-2,-1.8012223E-1,8.615843E-2,9.194674E-3,3.4986798E-2,-3.5515246E-1,1.3457388E-3,7.924296E-1,1.2310524E-1,7.862463E-1,2.7871842E0,-8.869044E-4,5.6803236E-3,6.1620858E-2,3.0766318E-3,-5.4000765E-3,-1.5554911E-2,5.9003406E-3,2.2678921E-2,-3.766838E-3,6.5117767E-3,5.0227128E-2,2.5093706E-2,1.8643767E-2,-2.7974674E-2,2.1508802E-2,1.0829626E-2,1.806736E-2,5.15257E-2,-4.5904894E-3,3.2150373E-2,1.282383E-1,3.6704596E-2,-3.581675E-2,1.0469222E-2,-8.879798E-4,1.4875251E-2,6.02368E-2,1.21755086E-1],"split_indices":[4,4,3,3,3,4,3,3,2,1,3,0,0,0,0,3,0,0,3,1,0,1,0,0,1,0,2,4,0,0,0,2,0,0,2,0,2,0,0,0,0,0,0,1,1,2,0,0,4,0,0,0,0,0,0,0,0,0,0,0,0,0,0,0,0,0,0,0,0,0,0,0,0,0,0,0,0],"split_type":[0,0,0,0,0,0,0,0,0,0,0,0,0,0,0,0,0,0,0,0,0,0,0,0,0,0,0,0,0,0,0,0,0,0,0,0,0,0,0,0,0,0,0,0,0,0,0,0,0,0,0,0,0,0,0,0,0,0,0,0,0,0,0,0,0,0,0,0,0,0,0,0,0,0,0,0,0],"sum_hessian":[1.457E3,1.091E3,3.66E2,8.03E2,2.88E2,3.3E2,3.6E1,6.89E2,1.14E2,2.4E2,4.8E1,1.74E2,1.56E2,1.8E1,1.8E1,6.71E2,1.8E1,7.8E1,3.6E1,2.1E2,3E1,3.6E1,1.2E1,1.02E2,7.2E1,6E0,1.5E2,6.59E2,1.2E1,1.2E1,6E0,6.6E1,1.2E1,6E0,3E1,1.8E1,1.92E2,1.2E1,1.8E1,2.4E1,1.2E1,6E0,6E0,3E1,7.2E1,6.6E1,6E0,1.8E1,1.32E2,4.31E2,2.28E2,6E0,6E0,6E0,6E0,1.8E1,4.8E1,1.8E1,1.2E1,1.2E1,6E0,1.86E2,6E0,6E0,6E0,6E0,1.8E1,1.2E1,1.8E1,3E1,4.2E1,1.2E1,5.4E1,6E0,1.2E1,1.14E2,1.8E1],"tree_param":{"num_deleted":"0","num_feature":"5","num_nodes":"77","size_leaf_vector":"0"}},{"base_weights":[5.407398E-2,1.40590295E-2,1.24319404E-1,1.7383636E-4,3.782123E-2,1.111201E-1,2.9683128E-1,-6.497953E-3,8.673901E-3,2.5317768E-2,6.927002E-2,9.06713E-2,1.8766727E-1,2.577276E-1,4.2760032E-1,-1.3783816E-2,2.8928642E-3,1.6255908E-3,7.458106E-2,1.7001022E-2,7.2061434E-2,1.16388164E-1,4.6435215E-2,7.72958E-2,1.7097805E-1,5.1390465E-2,2.0507309E-1,-1.05592245E-2,-4.1570533E-2,5.975334E-3,-5.8729444E-2,4.0993057E-3,-4.0933177E-2,2.7604079E-2,-4.5455564E-2,9.461754E-2,-3.8124356E-2,3.653658E-2,1.6489777E-1,3.349287E-2,1.525849E-1,9.6064396E-2,3.7155397E-2,4.6411186E-1,1.2561245E-1,8.805207E-3,8.6634226E-2,4.0347126E-1,1.863218E-1,-1.583041E-2,-1.0535306E-3,2.1077497E-2,-5.7614665E-3,-4.7607487E-3,3.1249303E-2,-7.115752E-2,-4.8612356E-3,2.0968247E-2,1.117465E-1,-1.5930025E-2,-8.511169E-2,1.1851942E-1,7.328375E-2,1.1022704E-2,5.683095E-2,2.3018536E-1,2.0092556E-2,-3.677958E-2,6.376458E-2,1.0382227E-1,-4.0821955E-2,5.2744687E-2,-3.946465E-2,-3.470817E-2,1.7854638E-1,1.3918701E-1,2.437078E-1],"categories":[],"categories_nodes":[],"categories_segments":[],"categories_sizes":[],"default_left":[1,1,1,1,1,1,1,1,1,1,1,1,1,0,0,1,1,1,0,1,1,1,1,1,1,1,1,1,0,1,0,1,1,1,1,1,0,1,1,1,0,1,1,0,1,0,0,0,1,0,0,0,0,0,0,0,0,0,0,0,0,0,0,0,0,0,0,0,0,0,0,0,0,0,0,0,0],"id":14,"left_children":[1,3,5,7,9,11,13,15,17,19,21,23,25,-1,-1,27,29,31,-1,33,35,37,39,41,43,45,47,49,-1,51,-1,53,55,57,59,61,-1,63,65,67,-1,69,71,-1,73,-1,-1,-1,75,-1,-1,-1,-1,-1,-1,-1,-1,-1,-1,-1,-1,-1,-1,-1,-1,-1,-1,-1,-1,-1,-1,-1,-1,-1,-1,-1,-1],"loss_changes":[4.096496E0,3.0684018E-1,1.1715689E0,3.340222E-2,1.3312027E-1,7.5467587E-1,7.8997135E-2,2.2618543E-2,1.2019309E-1,9.479742E-2,9.8961085E-2,4.067738E-1,2.3377824E-1,0E0,0E0,1.6226798E-2,2.789352E-2,2.4908187E-2,0E0,1.4098543E-1,9.556563E-2,1.1405581E-1,8.693582E-2,2.5031948E-1,6.731025E-1,1.874841E-2,2.633648E-1,8.401178E-3,0E0,2.4759337E-2,0E0,5.3791527E-2,1.382735E-2,9.871909E-2,3.4941092E-2,7.121891E-3,0E0,6.104814E-3,1.7500067E-1,1.3210857E-1,0E0,2.4742413E-1,1.3227686E-1,0E0,4.2203063E-1,0E0,0E0,0E0,1.9599366E-1,0E0,0E0,0E0,0E0,0E0,0E0,0E0,0E0,0E0,0E0,0E0,0E0,0E0,0E0,0E0,0E0,0E0,0E0,0E0,0E0,0E0,0E0,0E0,0E0,0E0,0E0,0E0,0E0],"parents":[2147483647,0,0,1,1,2,2,3,3,4,4,5,5,6,6,7,7,8,8,9,9,10,10,11,11,12,12,15,15,16,16,17,17,19,19,20,20,21,21,22,22,23,23,24,24,25,25,26,26,27,27,29,29,31,31,32,32,33,33,34,34,35,35,37,37,38,38,39,39,41,41,42,42,44,44,48,48],"right_children":[2,4,6,8,10,12,14,16,18,20,22,24,26,-1,-1,28,30,32,-1,34,36,38,40,42,44,46,48,50,-1,52,-1,54,56,58,60,62,-1,64,66,68,-1,70,72,-1,74,-1,-1,-1,76,-1,-1,-1,-1,-1,-1,-1,-1,-1,-1,-1,-1,-1,-1,-1,-1,-1,-1,-1,-1,-1,-1,-1,-1,-1,-1,-1,-1],"split_conditions":[8.578691E-2,-4.8127946E-1,2.7419124E0,1.3457388E-3,3.5784394E-1,7.143421E-1,2.1600251E0,-3.567403E-1,-4.4786388E-1,-1.24439165E-1,7.143421E-1,1.9308709E0,5.2347493E-1,7.731828E-2,1.282801E-1,-5.418649E-1,2.6499906E-1,-5.206344E-1,2.2374317E-2,-1.7295288E-1,7.77013E-2,5.514183E-1,9.2429894E-1,1.3457388E-3,2.2323897E0,-4.5622748E-1,-4.5622754E-1,-1.0483379E0,-1.2471161E-2,-6.378759E-1,-1.7618833E-2,-7.915027E-1,-1.2845433E0,8.029084E-1,5.8285457E-1,-1.8012223E-1,-1.1437307E-2,6.4819366E-1,-1.0422512E-1,2.2657695E-1,4.577547E-2,2.1112342E0,8.2735884E-1,1.3923356E-1,1.0823418E0,2.6415621E-3,2.5990268E-2,1.2104138E-1,9.2429894E-1,-4.7491235E-3,-3.160592E-4,6.3232495E-3,-1.72844E-3,-1.4282246E-3,9.374792E-3,-2.1347258E-2,-1.4583707E-3,6.2904744E-3,3.352395E-2,-4.7790078E-3,-2.5533509E-2,3.555583E-2,2.1985125E-2,3.3068112E-3,1.7049287E-2,6.905561E-2,6.027767E-3,-1.1033874E-2,1.9129375E-2,3.1146681E-2,-1.2246587E-2,1.5823407E-2,-1.1839395E-2,-1.0412451E-2,5.356392E-2,4.1756105E-2,7.3112346E-2],"split_indices":[3,4,3,1,1,1,4,2,3,3,1,4,2,0,0,2,2,3,0,3,3,2,0,1,4,0,0,2,0,3,0,3,0,2,2,0,0,0,3,2,0,3,2,0,2,0,0,0,0,0,0,0,0,0,0,0,0,0,0,0,0,0,0,0,0,0,0,0,0,0,0,0,0,0,0,0,0],"split_type":[0,0,0,0,0,0,0,0,0,0,0,0,0,0,0,0,0,0,0,0,0,0,0,0,0,0,0,0,0,0,0,0,0,0,0,0,0,0,0,0,0,0,0,0,0,0,0,0,0,0,0,0,0,0,0,0,0,0,0,0,0,0,0,0,0,0,0,0,0,0,0,0,0,0,0,0,0],"sum_hessian":[1.457E3,9.29E2,5.28E2,5.87E2,3.42E2,4.92E2,3.6E1,3.29E2,2.58E2,2.46E2,9.6E1,3.9E2,1.02E2,3E1,6E0,1.85E2,1.44E2,2.34E2,2.4E1,2.1E2,3.6E1,3E1,6.6E1,3.36E2,5.4E1,1.2E1,9E1,1.67E2,1.8E1,1.38E2,6E0,2.22E2,1.2E1,1.8E2,3E1,3E1,6E0,1.2E1,1.8E1,6E1,6E0,2.28E2,1.08E2,6E0,4.8E1,6E0,6E0,6E0,8.4E1,1.07E2,6E1,6E1,7.8E1,1.68E2,5.4E1,6E0,6E0,1.68E2,1.2E1,1.8E1,1.2E1,1.2E1,1.8E1,6E0,6E0,1.2E1,6E0,1.8E1,4.2E1,2.16E2,1.2E1,9E1,1.8E1,1.2E1,3.6E1,4.8E1,3.6E1],"tree_param":{"num_deleted":"0","num_feature":"5","num_nodes":"77","size_leaf_vector":"0"}},{"base_weights":[3.8439743E-2,1.6341584E-2,1.0705363E-1,1.2128246E-2,9.648092E-2,9.640159E-2,2.4380447E-1,3.595166E-4,2.850714E-2,4.7740057E-2,1.3267578E-1,2.2182198E-1,8.587419E-2,2.0376807E-1,3.176455E-1,1.6181186E-3,-3.900728E-2,3.10017E-2,-1.2987164E-1,-8.15882E-3,6.5821745E-2,1.5183057E-1,9.44745E-2,3.1137392E-1,1.1520679E-1,-6.739642E-3,9.8202005E-2,1.40872E-4,1.2547567E-1,1.1155101E-2,-1.2659352E-1,2.0223318E-2,5.365365E-2,1.8108867E-1,7.580403E-2,9.20432E-3,1.6624832E-1,1.6825758E-1,-4.6037737E-2,4.964218E-1,8.7312415E-2,-2.6211394E-3,1.7969795E-2,1.5767813E-2,4.948803E-3,1.3104756E-2,6.1636638E-2,7.735634E-2,-1.3779614E-2,-7.4464895E-2,-9.489793E-4,-3.0786453E-2,1.0251988E-1],"categories":[],"categories_nodes":[],"categories_segments":[],"categories_sizes":[],"default_left":[1,1,1,1,1,1,1,1,1,1,1,1,1,0,0,1,1,1,0,0,0,1,1,0,0,1,1,1,0,1,0,1,1,0,0,0,0,0,1,0,1,0,0,0,0,0,0,0,0,0,0,0,0],"id":15,"left_children":[1,3,5,7,9,11,13,15,17,19,21,23,25,-1,-1,27,29,31,-1,-1,-1,33,35,-1,-1,37,39,41,-1,43,-1,45,47,-1,-1,-1,-1,-1,49,-1,51,-1,-1,-1,-1,-1,-1,-1,-1,-1,-1,-1,-1],"loss_changes":[2.208929E0,3.716001E-1,4.9361658E-1,2.0238642E-1,9.069532E-2,4.179871E-1,9.182334E-3,3.0385962E-2,1.7746869E-1,2.5805682E-2,8.339703E-3,2.0281756E-1,3.5117173E-1,0E0,0E0,1.0866542E-1,8.488932E-2,1.046325E-1,0E0,0E0,0E0,2.85362E-2,7.803196E-2,0E0,0E0,2.6219732E-1,1.131834E0,2.9002389E-2,0E0,2.941303E-4,0E0,8.615923E-2,2.2323656E-1,0E0,0E0,0E0,0E0,0E0,3.966344E-2,0E0,4.7909188E-1,0E0,0E0,0E0,0E0,0E0,0E0,0E0,0E0,0E0,0E0,0E0,0E0],"parents":[2147483647,0,0,1,1,2,2,3,3,4,4,5,5,6,6,7,7,8,8,9,9,10,10,11,11,12,12,15,15,16,16,17,17,21,21,22,22,25,25,26,26,27,27,29,29,31,31,32,32,38,38,40,40],"right_children":[2,4,6,8,10,12,14,16,18,20,22,24,26,-1,-1,28,30,32,-1,-1,-1,34,36,-1,-1,38,40,42,-1,44,-1,46,48,-1,-1,-1,-1,-1,50,-1,52,-1,-1,-1,-1,-1,-1,-1,-1,-1,-1,-1,-1],"split_conditions":[6.283097E-1,1.2541587E0,3.0774655E0,-4.2360705E-1,5.2347493E-1,6.765527E-1,2.1600251E0,9.2429894E-1,6.041882E-1,1.525027E0,6.5620583E-1,-1.7690335E-1,7.9716027E-1,6.1130423E-2,9.529365E-2,-4.5594952E-1,-3.5515246E-1,1.3381888E-1,-3.8961492E-2,-2.447646E-3,1.9746523E-2,9.2429894E-1,9.598307E-2,9.3412176E-2,3.456204E-2,-1.9720973E-1,8.2128173E-1,-4.0891495E-1,3.7642702E-2,1.3384569E0,-3.7978057E-2,9.2429894E-1,3.7208837E-1,5.4326605E-2,2.274121E-2,2.761296E-3,4.98745E-2,5.0477277E-2,7.924296E-1,1.4892656E-1,8.695247E-1,-7.8634184E-4,5.3909384E-3,4.730344E-3,1.484641E-3,3.931427E-3,1.8490992E-2,2.3206903E-2,-4.1338843E-3,-2.2339469E-2,-2.846938E-4,-9.235936E-3,3.0755965E-2],"split_indices":[4,3,3,3,2,4,4,0,4,3,2,1,4,0,0,3,1,4,0,0,0,0,0,0,0,3,4,4,0,0,0,0,0,0,0,0,0,0,2,0,4,0,0,0,0,0,0,0,0,0,0,0,0],"split_type":[0,0,0,0,0,0,0,0,0,0,0,0,0,0,0,0,0,0,0,0,0,0,0,0,0,0,0,0,0,0,0,0,0,0,0,0,0,0,0,0,0,0,0,0,0,0,0,0,0,0,0,0,0],"sum_hessian":[1.457E3,1.103E3,3.54E2,1.049E3,5.4E1,3.3E2,2.4E1,6.11E2,4.38E2,2.4E1,3E1,2.4E1,3.06E2,1.8E1,6E0,5.93E2,1.8E1,4.32E2,6E0,6E0,1.8E1,1.8E1,1.2E1,1.2E1,1.2E1,3.6E1,2.7E2,5.87E2,6E0,1.2E1,6E0,2.94E2,1.38E2,1.2E1,6E0,6E0,6E0,6E0,3E1,6E0,2.64E2,5.09E2,7.8E1,6E0,6E0,2.52E2,4.2E1,1.02E2,3.6E1,1.8E1,1.2E1,3E1,2.34E2],"tree_param":{"num_deleted":"0","num_feature":"5","num_nodes":"53","size_leaf_vector":"0"}},{"base_weights":[2.7348647E-2,9.598656E-3,7.679317E-2,2.2221163E-3,3.0208621E-2,5.0138768E-2,1.23605E-1,3.0918205E-3,-9.5750675E-2,2.7107479E-2,1.4860971E-1,5.6501284E-2,-6.8732776E-2,-7.001848E-2,1.4245147E-1,-7.934782E-3,6.356559E-3,3.7866578E-2,-3.232264E-2,3.4285117E-2,9.530293E-2,-1.5247782E-1,2.24435E-2,3.2619503E-1,1.3064438E-1,-1.0036556E-2,4.544288E-2,-4.054775E-2,7.370676E-3,2.1217875E-2,7.047391E-2,-7.03029E-2,6.0732033E-2,1.7882181E-2,1.1624061E-1,2.437257E-1,6.7565955E-2,3.7276153E-2,1.5336151E-1,-8.057913E-3,-5.6090202E-2,-6.333906E-2,-1.1963904E-2,2.058578E-3,1.6222883E-2,7.337369E-3,5.16619E-2,3.42187E-2,1.1070365E-1,-1.6440256E-2,-8.2572326E-2,3.031005E-2,-9.34322E-2,3.6877033E-1,1.7085427E-2,5.2759696E-2,1.9963074E-1,2.733585E-1,-5.1663447E-2,1.1814496E-1,2.2452754E-1],"categories":[],"categories_nodes":[],"categories_segments":[],"categories_sizes":[],"default_left":[1,1,1,1,1,1,1,1,0,1,0,1,0,1,1,1,1,1,1,1,1,0,0,0,1,1,0,1,1,1,1,1,0,1,1,0,1,1,1,0,0,0,0,0,0,0,0,0,0,0,0,0,0,0,0,0,0,0,0,0,0],"id":16,"left_children":[1,3,5,7,9,11,13,15,-1,17,-1,19,-1,21,23,25,27,29,31,33,35,-1,-1,-1,37,39,-1,41,43,45,47,49,-1,51,53,-1,55,57,59,-1,-1,-1,-1,-1,-1,-1,-1,-1,-1,-1,-1,-1,-1,-1,-1,-1,-1,-1,-1,-1,-1],"loss_changes":[1.2788619E0,1.6321334E-1,4.7418308E-1,6.7780256E-2,9.988308E-2,1.9069505E-1,5.172014E-1,2.8345635E-2,0E0,1.7834173E-1,0E0,1.9930804E-1,0E0,1.0253873E-1,2.3290777E-1,2.0649899E-2,2.9171698E-2,1.2607911E-1,1.56242E-1,2.0091227E-1,3.334604E-1,0E0,0E0,0E0,2.5093126E-1,1.5403559E-2,0E0,7.711243E-3,2.794576E-2,6.596575E-2,1.1143628E-1,1.9129261E-2,0E0,1.785238E-1,6.196902E-1,0E0,1.322107E-1,5.390494E-1,2.1657658E-1,0E0,0E0,0E0,0E0,0E0,0E0,0E0,0E0,0E0,0E0,0E0,0E0,0E0,0E0,0E0,0E0,0E0,0E0,0E0,0E0,0E0,0E0],"parents":[2147483647,0,0,1,1,2,2,3,3,4,4,5,5,6,6,7,7,9,9,11,11,13,13,14,14,15,15,16,16,17,17,18,18,19,19,20,20,24,24,25,25,27,27,28,28,29,29,30,30,31,31,33,33,34,34,36,36,37,37,38,38],"right_children":[2,4,6,8,10,12,14,16,-1,18,-1,20,-1,22,24,26,28,30,32,34,36,-1,-1,-1,38,40,-1,42,44,46,48,50,-1,52,54,-1,56,58,60,-1,-1,-1,-1,-1,-1,-1,-1,-1,-1,-1,-1,-1,-1,-1,-1,-1,-1,-1,-1,-1,-1],"split_conditions":[3.849548E-1,1.1506141E-3,1.1710435E0,3.5261232E-1,1.6055877E0,1.1107397E0,-1.0681489E0,-9.6370953E-1,-2.8725203E-2,8.3085173E-1,4.4582915E-2,1.1530886E0,-2.0619834E-2,1.6145623E0,4.7793943E-1,4.2793245E0,-1.0138571E0,6.4819366E-1,1.0683701E0,7.8893673E-1,1.2986298E0,-4.5743346E-2,6.73305E-3,9.785851E-2,8.098942E-1,-7.619188E-1,1.3632865E-2,-7.323328E-1,1.3457388E-3,3.5784394E-1,7.051067E-1,-1.0681489E0,1.821961E-2,9.2429894E-1,7.862463E-1,7.311771E-2,9.298285E-1,-4.2069584E-2,3.5784394E-1,-2.417374E-3,-1.6827062E-2,-1.9001719E-2,-3.5891712E-3,6.175734E-4,4.866865E-3,2.2012107E-3,1.5498571E-2,1.026561E-2,3.3211097E-2,-4.9320767E-3,-2.47717E-2,9.093015E-3,-2.8029662E-2,1.106311E-1,5.1256283E-3,1.582791E-2,5.9889223E-2,8.200755E-2,-1.5499035E-2,3.544349E-2,6.735826E-2],"split_indices":[3,4,4,3,1,4,1,4,0,2,0,3,0,0,3,1,3,0,2,2,3,0,0,0,2,2,0,0,1,1,2,1,0,0,0,0,4,0,1,0,0,0,0,0,0,0,0,0,0,0,0,0,0,0,0,0,0,0,0,0,0],"split_type":[0,0,0,0,0,0,0,0,0,0,0,0,0,0,0,0,0,0,0,0,0,0,0,0,0,0,0,0,0,0,0,0,0,0,0,0,0,0,0,0,0,0,0,0,0,0,0,0,0,0,0,0,0,0,0,0,0,0,0,0,0],"sum_hessian":[1.457E3,1.073E3,3.84E2,7.91E2,2.82E2,2.46E2,1.38E2,7.85E2,6E0,2.76E2,6E0,2.34E2,1.2E1,1.2E1,1.26E2,1.79E2,6.06E2,2.34E2,4.2E1,1.5E2,8.4E1,6E0,6E0,6E0,1.2E2,1.73E2,6E0,1.2E1,5.94E2,1.56E2,7.8E1,3E1,1.2E1,1.26E2,2.4E1,1.2E1,7.2E1,2.4E1,9.6E1,1.67E2,6E0,6E0,6E0,3.72E2,2.22E2,1.08E2,4.8E1,4.2E1,3.6E1,6E0,2.4E1,1.14E2,1.2E1,6E0,1.8E1,6.6E1,6E0,6E0,1.8E1,6.6E1,3E1],"tree_param":{"num_deleted":"0","num_feature":"5","num_nodes":"61","size_leaf_vector":"0"}},{"base_weights":[1.948427E-2,6.758994E-3,5.4932225E-2,1.5795357E-3,2.2565039E-2,4.448791E-2,1.16789244E-1,2.2106066E-3,-7.112912E-2,3.1660303E-2,-1.7904517E-3,-5.6884363E-2,5.0499365E-2,3.686684E-2,1.5467401E-1,-2.9090778E-3,7.959354E-3,1.9318433E-2,9.553334E-2,-1.3484727E-2,1.1039625E-1,-2.2147838E-2,-1.1326872E-1,1.6242115E-1,4.549776E-2,1.5905527E-2,7.0528306E-2,-6.351471E-3,1.8604513E-1,-1.2956093E-3,-3.7403084E-2,1.9449064E-3,1.702789E-2,8.022443E-3,5.7569038E-2,1.1218128E-1,2.2428785E-2,-2.6806537E-2,4.391406E-2,-1.0227748E-2,-3.0903952E-2,5.93229E-2,2.4231638E-1,6.798712E-2,2.7529813E-2,2.2576362E-1,1.1368385E-1,-3.1043207E-3,5.3900186E-2,-2.491669E-2,-5.5248804E-2,6.6842707E-3,-7.731562E-2,7.552174E-2,5.379275E-3,5.2341398E-2,-6.224052E-3,2.5600662E-2,1.146183E-1,5.912263E-2,1.2582493E-1,3.690535E-3,-6.355064E-2,5.5994306E-2,2.5560379E-2,3.8745057E-2,1.282904E-1,1.064706E-2,7.6752596E-2,-1.0190146E-2,2.2131729E-1],"categories":[],"categories_nodes":[],"categories_segments":[],"categories_sizes":[],"default_left":[1,1,1,1,1,1,1,1,0,1,1,1,1,1,1,1,1,1,1,1,0,1,0,1,1,0,0,0,1,1,1,1,1,1,1,1,0,1,1,0,0,0,0,1,1,0,1,0,0,0,0,0,0,0,0,0,0,0,0,0,0,0,0,0,0,0,0,0,0,0,0],"id":17,"left_children":[1,3,5,7,9,11,13,15,-1,17,19,21,23,25,27,29,31,33,35,37,-1,39,-1,41,43,-1,-1,-1,45,47,49,51,53,55,57,59,-1,61,63,-1,-1,-1,-1,65,67,-1,69,-1,-1,-1,-1,-1,-1,-1,-1,-1,-1,-1,-1,-1,-1,-1,-1,-1,-1,-1,-1,-1,-1,-1,-1],"loss_changes":[6.573107E-1,8.7889254E-2,2.4353516E-1,3.7323534E-2,5.8759376E-2,2.0458227E-1,1.6082895E-1,2.3686297E-2,0E0,1.502988E-1,9.726044E-2,3.470468E-2,1.6782403E-1,1.2284391E-2,1.8808901E-1,2.3660569E-2,2.0638391E-2,6.996695E-2,3.521213E-2,5.2409112E-2,0E0,1.0407795E-3,0E0,9.270683E-2,1.19758725E-1,0E0,0E0,0E0,6.3430786E-2,4.08993E-2,2.8571282E-3,8.653939E-2,1.0248096E-1,8.051228E-2,6.454525E-2,1.0658741E-2,0E0,6.1866865E-2,1.4510844E-3,0E0,0E0,0E0,0E0,2.2956061E-1,1.3962449E-1,0E0,1.755841E-1,0E0,0E0,0E0,0E0,0E0,0E0,0E0,0E0,0E0,0E0,0E0,0E0,0E0,0E0,0E0,0E0,0E0,0E0,0E0,0E0,0E0,0E0,0E0,0E0],"parents":[2147483647,0,0,1,1,2,2,3,3,4,4,5,5,6,6,7,7,9,9,10,10,11,11,12,12,13,13,14,14,15,15,16,16,17,17,18,18,19,19,21,21,23,23,24,24,28,28,29,29,30,30,31,31,32,32,33,33,34,34,35,35,37,37,38,38,43,43,44,44,46,46],"right_children":[2,4,6,8,10,12,14,16,-1,18,20,22,24,26,28,30,32,34,36,38,-1,40,-1,42,44,-1,-1,-1,46,48,50,52,54,56,58,60,-1,62,64,-1,-1,-1,-1,66,68,-1,70,-1,-1,-1,-1,-1,-1,-1,-1,-1,-1,-1,-1,-1,-1,-1,-1,-1,-1,-1,-1,-1,-1,-1,-1],"split_conditions":[3.849548E-1,5.339537E-1,2.111782E0,3.5261232E-1,8.4540325E-1,-1.0681489E0,-3.5515246E-1,-6.500044E-1,-2.1338737E-2,1.6260028E-1,1.6055877E0,-1.6028962E0,4.5772535E-1,-7.1165067E-1,8.62288E-1,-6.661756E-1,2.335628E-1,7.120925E-1,3.323983E-1,1.0683701E0,3.3118878E-2,6.481937E-1,-3.3980615E-2,7.862463E-1,6.4819366E-1,4.771658E-3,2.1158492E-2,-1.9054414E-3,1.3384569E0,-6.904324E-1,2.0911238E-1,1.8466195E-1,2.929424E-1,5.6539E-1,5.10141E-1,2.1515681E-1,6.7286356E-3,1.706859E-1,2.0287201E0,-3.0683246E-3,-9.271186E-3,1.779687E-2,7.269492E-2,7.489172E-1,1.2554688E0,6.7729086E-2,1.8906674E0,-9.3129626E-4,1.6170057E-2,-7.4750073E-3,-1.6574642E-2,2.0052814E-3,-2.3194687E-2,2.2656523E-2,1.6137826E-3,1.570242E-2,-1.8672157E-3,7.680199E-3,3.438549E-2,1.7736789E-2,3.774748E-2,1.1071606E-3,-1.9065194E-2,1.6798293E-2,7.668114E-3,1.1623518E-2,3.848712E-2,3.1941182E-3,2.3025779E-2,-3.057044E-3,6.639519E-2],"split_indices":[3,2,4,3,4,1,1,3,0,3,1,1,3,1,2,3,2,2,3,2,0,0,0,0,0,0,0,0,0,3,2,2,2,2,0,3,0,3,0,0,0,0,0,4,4,0,0,0,0,0,0,0,0,0,0,0,0,0,0,0,0,0,0,0,0,0,0,0,0,0,0],"split_type":[0,0,0,0,0,0,0,0,0,0,0,0,0,0,0,0,0,0,0,0,0,0,0,0,0,0,0,0,0,0,0,0,0,0,0,0,0,0,0,0,0,0,0,0,0,0,0,0,0,0,0,0,0,0,0,0,0,0,0,0,0,0,0,0,0,0,0,0,0,0,0],"sum_hessian":[1.457E3,1.073E3,3.84E2,8.09E2,2.64E2,3.3E2,5.4E1,8.03E2,6E0,1.92E2,7.2E1,1.8E1,3.12E2,1.8E1,3.6E1,4.25E2,3.78E2,1.62E2,3E1,6.6E1,6E0,1.2E1,6E0,1.2E1,3E2,1.2E1,6E0,6E0,3E1,4.07E2,1.8E1,2.28E2,1.5E2,1.26E2,3.6E1,2.4E1,6E0,5.4E1,1.2E1,6E0,6E0,6E0,6E0,1.32E2,1.68E2,1.8E1,1.2E1,3.95E2,1.2E1,1.2E1,6E0,2.16E2,1.2E1,2.4E1,1.26E2,3E1,9.6E1,2.4E1,1.2E1,6E0,1.8E1,3E1,2.4E1,6E0,6E0,9E1,4.2E1,1.26E2,4.2E1,6E0,6E0],"tree_param":{"num_deleted":"0","num_feature":"5","num_nodes":"71","size_leaf_vector":"0"}},{"base_weights":[1.39176585E-2,4.852988E-3,3.9168406E-2,1.4610833E-3,1.7790431E-2,2.5208598E-2,6.542903E-2,1.9086445E-3,-5.2838597E-2,6.0012214E-2,1.379041E-2,2.116163E-2,1.6440746E-1,4.8971236E-2,1.615984E-1,-1.8564316E-3,6.8277935E-3,9.4213486E-2,3.697982E-2,6.5075725E-2,1.0264506E-2,1.4643844E-2,7.8453824E-2,1.8000658E-1,4.0106844E-2,2.0261765E-1,1.2708047E-1,2.7329528E-3,-7.720305E-3,6.5105164E-4,1.276984E-2,4.5174737E-2,2.3502078E-2,-6.7759524E-3,2.1881303E-2,2.0211913E-2,-4.6203412E-2,1.1293118E-1,3.7941568E-2,7.9410905E-3,6.528742E-2,-2.7449832E-3,1.7553478E-2,-2.8127396E-2,-5.2215037E-4,3.8182181E-3,-7.862111E-2,4.2455018E-2,3.8785804E-3,-3.2637864E-2,5.1026605E-3,8.277602E-2,9.727891E-3,1.2659152E-2,1.307866E-1,-5.8184404E-2,-1.7352512E-2,5.627387E-2,1.4189039E-2,4.677125E-2,-1.6114203E-2,1.3196205E-1,1.8472465E-2],"categories":[],"categories_nodes":[],"categories_segments":[],"categories_sizes":[],"default_left":[1,1,1,1,1,1,1,1,0,1,1,1,0,1,1,1,1,0,1,0,1,1,1,0,1,0,0,1,1,1,1,0,0,1,1,1,1,0,1,1,1,0,0,0,0,0,0,0,0,0,0,0,0,0,0,0,0,0,0,0,0,0,0],"id":18,"left_children":[1,3,5,7,9,11,13,15,-1,17,19,21,-1,23,25,27,29,-1,31,-1,33,35,37,-1,39,-1,-1,41,43,45,47,-1,-1,49,51,53,55,-1,57,59,61,-1,-1,-1,-1,-1,-1,-1,-1,-1,-1,-1,-1,-1,-1,-1,-1,-1,-1,-1,-1,-1,-1],"loss_changes":[3.335311E-1,4.710389E-2,1.3948905E-1,2.0806517E-2,3.683444E-2,1.3904414E-1,2.0259029E-1,1.5681416E-2,0E0,1.1483006E-2,3.6401596E-2,9.108546E-2,0E0,1.263586E-1,1.1533499E-3,1.2938653E-2,1.3461497E-2,0E0,3.741365E-4,0E0,3.835369E-2,7.648664E-2,3.0634105E-2,0E0,8.7766334E-2,0E0,0E0,2.1968372E-2,3.097982E-2,4.5743525E-2,4.9191855E-2,0E0,0E0,2.4435624E-2,8.43038E-2,1.6954891E-1,5.5579394E-3,0E0,4.8622284E-3,4.6523154E-2,1.879659E-1,0E0,0E0,0E0,0E0,0E0,0E0,0E0,0E0,0E0,0E0,0E0,0E0,0E0,0E0,0E0,0E0,0E0,0E0,0E0,0E0,0E0,0E0],"parents":[2147483647,0,0,1,1,2,2,3,3,4,4,5,5,6,6,7,7,9,9,10,10,11,11,13,13,14,14,15,15,16,16,18,18,20,20,21,21,22,22,24,24,27,27,28,28,29,29,30,30,33,33,34,34,35,35,36,36,38,38,39,39,40,40],"right_children":[2,4,6,8,10,12,14,16,-1,18,20,22,-1,24,26,28,30,-1,32,-1,34,36,38,-1,40,-1,-1,42,44,46,48,-1,-1,50,52,54,56,-1,58,60,62,-1,-1,-1,-1,-1,-1,-1,-1,-1,-1,-1,-1,-1,-1,-1,-1,-1,-1,-1,-1,-1,-1],"split_conditions":[3.849548E-1,1.3381888E-1,3.5784394E-1,3.5261232E-1,5.6539E-1,2.7871842E0,9.7406137E-1,-5.691482E-1,-1.585158E-2,9.598307E-2,-1.4246471E0,2.7055273E0,4.932224E-2,4.5772535E-1,7.143421E-1,-8.038337E-1,2.335628E-1,2.8264048E-2,5.10141E-1,1.952272E-2,-6.379703E-2,2.1112342E0,9.5659673E-1,5.4001976E-2,8.781775E-1,6.0785297E-2,3.8124144E-2,-1.2159979E0,-3.3578277E-1,-4.3303645E-1,3.5581493E-1,1.3552422E-2,7.0506237E-3,3.7503392E-1,-1.8012223E-1,1.8282377E0,1.2004042E0,3.3879355E-2,5.10141E-1,5.2645314E-1,1.4562993E0,-8.23495E-4,5.266044E-3,-8.438219E-3,-1.5664511E-4,1.1454655E-3,-2.3586335E-2,1.2736506E-2,1.1635742E-3,-9.791359E-3,1.5307983E-3,2.4832806E-2,2.9183673E-3,3.7977458E-3,3.923598E-2,-1.7455323E-2,-5.2057537E-3,1.6882163E-2,4.256712E-3,1.4031376E-2,-4.8342613E-3,3.9588615E-2,5.5417395E-3],"split_indices":[3,4,1,3,2,4,2,3,0,0,1,3,0,3,1,2,2,0,0,0,3,3,2,0,3,0,0,2,2,4,2,0,0,4,0,3,0,0,0,3,3,0,0,0,0,0,0,0,0,0,0,0,0,0,0,0,0,0,0,0,0,0,0],"split_type":[0,0,0,0,0,0,0,0,0,0,0,0,0,0,0,0,0,0,0,0,0,0,0,0,0,0,0,0,0,0,0,0,0,0,0,0,0,0,0,0,0,0,0,0,0,0,0,0,0,0,0,0,0,0,0,0,0,0,0,0,0,0,0],"sum_hessian":[1.457E3,1.073E3,3.84E2,8.51E2,2.22E2,2.52E2,1.32E2,8.45E2,6E0,1.8E1,2.04E2,2.46E2,6E0,1.14E2,1.8E1,4.79E2,3.66E2,6E0,1.2E1,1.2E1,1.92E2,2.22E2,2.4E1,6E0,1.08E2,6E0,1.2E1,2.69E2,2.1E2,1.8E2,1.86E2,6E0,6E0,7.8E1,1.14E2,2.04E2,1.8E1,1.2E1,1.2E1,4.8E1,6E1,1.97E2,7.2E1,5.4E1,1.56E2,1.74E2,6E0,4.2E1,1.44E2,2.4E1,5.4E1,1.8E1,9.6E1,1.92E2,1.2E1,1.2E1,6E0,6E0,6E0,1.8E1,3E1,2.4E1,3.6E1],"tree_param":{"num_deleted":"0","num_feature":"5","num_nodes":"63","size_leaf_vector":"0"}},{"base_weights":[1.0010796E-2,2.929648E-3,2.7800454E-2,-1.0466707E-3,7.9216305E-3,-3.2237664E-2,3.1568106E-2,1.2747609E-3,-2.6324177E-2,3.639475E-2,5.864844E-3,-1.0219122E-2,-8.73969E-2,2.4581809E-2,6.49857E-2,1.1050599E-5,5.1919535E-2,-5.297679E-2,-9.139538E-3,1.3685294E-2,4.1297607E-2,7.0925355E-3,-3.43446E-2,-1.9957837E-2,9.326935E-3,1.1797551E-1,2.2455357E-2,4.2977E-2,1.1832468E-1,-4.6717696E-4,3.5261672E-2,1.44961905E-2,8.19258E-2,-3.2222353E-2,-8.395263E-2,-4.2550564E-2,5.8113097E-4,1.2403722E-3,1.8956346E-2,-1.9160679E-2,-4.462215E-2,-1.0852678E-2,-2.6211875E-2,1.9477278E-2,6.845254E-2,8.350633E-2,1.675009E-2,1.5051596E-1,9.188902E-2,-6.2029525E-3,2.4438787E-3,-2.1008747E-2,-3.8832765E-2,-2.3630948E-3,3.4806544E-3,1.2472518E-2,-5.7627377E-3,-1.1420632E-2,2.5395198E-2,2.4148444E-2,-3.305832E-2,8.165712E-2,3.4150805E-2,5.520957E-3,1.19074896E-1,-1.47012565E-2,3.7387848E-2],"categories":[],"categories_nodes":[],"categories_segments":[],"categories_sizes":[],"default_left":[1,1,1,1,1,1,1,1,1,1,1,1,0,1,1,1,1,1,1,0,0,1,1,1,0,0,1,1,1,1,0,0,0,1,0,0,1,1,1,0,0,0,0,1,1,1,1,0,0,0,0,0,0,0,0,0,0,0,0,0,0,0,0,0,0,0,0],"id":19,"left_children":[1,3,5,7,9,11,13,15,17,19,21,23,-1,25,27,29,31,33,35,-1,-1,37,39,41,-1,-1,43,45,47,49,-1,-1,-1,51,-1,-1,53,55,57,-1,-1,-1,-1,59,61,63,65,-1,-1,-1,-1,-1,-1,-1,-1,-1,-1,-1,-1,-1,-1,-1,-1,-1,-1,-1,-1],"loss_changes":[1.8358457E-1,2.0731391E-2,9.489182E-2,3.418532E-2,2.6901271E-2,2.9470025E-2,8.968747E-2,3.41756E-2,2.1958578E-2,2.8864108E-3,2.1618538E-2,3.8028616E-3,0E0,6.1894864E-2,7.356751E-2,8.816255E-3,1.3410538E-2,9.509683E-3,1.009283E-2,0E0,0E0,2.9206075E-2,1.1737058E-3,4.5580277E-4,0E0,0E0,4.236439E-2,5.0686255E-2,2.3382306E-3,8.630894E-3,0E0,0E0,0E0,1.4781859E-4,0E0,0E0,2.2164642E-4,2.2332642E-2,2.747744E-2,0E0,0E0,0E0,0E0,7.466444E-2,5.817212E-3,5.204533E-2,2.067129E-2,0E0,0E0,0E0,0E0,0E0,0E0,0E0,0E0,0E0,0E0,0E0,0E0,0E0,0E0,0E0,0E0,0E0,0E0,0E0,0E0],"parents":[2147483647,0,0,1,1,2,2,3,3,4,4,5,5,6,6,7,7,8,8,9,9,10,10,11,11,13,13,14,14,15,15,16,16,17,17,18,18,21,21,22,22,23,23,26,26,27,27,28,28,29,29,33,33,36,36,37,37,38,38,43,43,44,44,45,45,46,46],"right_children":[2,4,6,8,10,12,14,16,18,20,22,24,-1,26,28,30,32,34,36,-1,-1,38,40,42,-1,-1,44,46,48,50,-1,-1,-1,52,-1,-1,54,56,58,-1,-1,-1,-1,60,62,64,66,-1,-1,-1,-1,-1,-1,-1,-1,-1,-1,-1,-1,-1,-1,-1,-1,-1,-1,-1,-1],"split_conditions":[3.121842E-1,-5.295225E-1,-1.0681489E0,1.00831926E-1,-1.4246471E0,-1.6028962E0,9.6707547E-1,7.6381505E-2,1.3576111E-1,4.7806704E-1,2.919702E-1,2.4428782E0,-2.621907E-2,3.2026985E-1,3.5784394E-1,4.2793245E0,-4.5622754E-1,-4.2069584E-2,-1.246398E0,4.1055884E-3,1.2389283E-2,3.5784394E-1,1.0623516E0,6.481937E-1,2.7980804E-3,3.5392653E-2,2.7419124E0,6.5178025E-1,7.143421E-1,-9.6370953E-1,1.0578502E-2,4.3488573E-3,2.4577742E-2,-1.4225961E0,-2.518579E-2,-1.276517E-2,-5.5364394E-1,-1.8012223E-1,-5.942802E-1,-5.748204E-3,-1.3386645E-2,-3.2558034E-3,-7.863563E-3,8.762597E-1,5.3609306E-1,7.862463E-1,1.3633146E0,4.5154788E-2,2.7566707E-2,-1.8608858E-3,7.331636E-4,-6.3026245E-3,-1.164983E-2,-7.0892845E-4,1.0441964E-3,3.7417554E-3,-1.7288214E-3,-3.4261898E-3,7.6185595E-3,7.2445334E-3,-9.917496E-3,2.4497136E-2,1.0245242E-2,1.6562872E-3,3.572247E-2,-4.4103772E-3,1.1216355E-2],"split_indices":[3,4,1,2,1,1,2,2,2,2,3,0,0,3,1,1,0,0,1,0,0,1,0,0,0,0,3,3,1,4,0,0,0,0,0,0,4,0,0,0,0,0,0,2,1,0,3,0,0,0,0,0,0,0,0,0,0,0,0,0,0,0,0,0,0,0,0],"split_type":[0,0,0,0,0,0,0,0,0,0,0,0,0,0,0,0,0,0,0,0,0,0,0,0,0,0,0,0,0,0,0,0,0,0,0,0,0,0,0,0,0,0,0,0,0,0,0,0,0,0,0,0,0,0,0,0,0,0,0,0,0,0,0,0,0,0,0],"sum_hessian":[1.457E3,1.043E3,4.14E2,5.81E2,4.62E2,2.4E1,3.9E2,5.33E2,4.8E1,3E1,4.32E2,1.8E1,6E0,3.24E2,6.6E1,5.21E2,1.2E1,1.8E1,3E1,6E0,2.4E1,4.2E2,1.2E1,1.2E1,6E0,6E0,3.18E2,4.8E1,1.8E1,5.15E2,6E0,6E0,6E0,1.2E1,6E0,6E0,2.4E1,2.82E2,1.38E2,6E0,6E0,6E0,6E0,3E2,1.8E1,1.8E1,3E1,6E0,1.2E1,1.73E2,3.42E2,6E0,6E0,1.2E1,1.2E1,1.08E2,1.74E2,2.4E1,1.14E2,2.76E2,2.4E1,1.2E1,6E0,6E0,1.2E1,1.2E1,1.8E1],"tree_param":{"num_deleted":"0","num_feature":"5","num_nodes":"67","size_leaf_vector":"0"}},{"base_weights":[7.1010333E-3,4.161839E-3,3.0426769E-2,1.3542199E-3,2.2876823E-2,1.4657241E-1,2.0225974E-2,5.963308E-4,6.631191E-2,3.506732E-2,-4.8743133E-2,-2.4304759E-2,3.1467516E-2,1.4667016E-3,-7.336411E-2,1.2993458E-1,-6.7838943E-3,2.0162748E-2,1.8485509E-1,-5.9457477E-2,-1.2698038E-2,3.462146E-2,-6.33435E-2,5.2371625E-2,1.969101E-2,3.0643574E-3,-3.802579E-2,-1.2550081E-2,-1.2369756E-1,-6.654004E-2,2.478288E-2,2.3149027E-1,1.1181205E-1,5.7368416E-2,6.9285803E-3,-3.1830516E-2,-7.543945E-2,2.7713928E-2,8.205956E-2,-3.8909912E-2,3.076744E-2,2.0402668E-3,3.7057813E-2,-7.332983E-2,-9.67369E-3,3.353363E-2,-2.672316E-2,1.5568366E-2,3.772765E-2,-5.3161077E-2,-1.910019E-2,1.9815445E-2,5.7392724E-2],"categories":[],"categories_nodes":[],"categories_segments":[],"categories_sizes":[],"default_left":[1,1,1,1,1,0,1,1,1,1,1,1,1,1,1,0,0,1,1,0,0,1,1,1,1,1,1,0,0,0,1,0,0,0,0,0,0,1,0,1,1,0,0,0,0,0,0,0,0,0,0,0,0],"id":20,"left_children":[1,3,5,7,9,-1,11,13,15,17,19,21,23,25,27,-1,-1,29,31,-1,-1,33,35,37,39,41,43,-1,-1,-1,45,-1,-1,-1,-1,-1,-1,47,-1,49,51,-1,-1,-1,-1,-1,-1,-1,-1,-1,-1,-1,-1],"loss_changes":[9.98322E-2,6.806676E-2,1.9015424E-1,5.5492707E-2,1.4926031E-1,0E0,7.635453E-2,7.194788E-2,6.1338626E-2,3.1998867E-1,8.900002E-3,7.350562E-2,2.8756216E-2,6.977385E-2,3.824032E-2,0E0,0E0,5.4925963E-2,1.8399477E-2,0E0,0E0,7.791589E-3,4.841134E-3,2.9203363E-2,5.2475195E-2,3.689514E-2,4.2331196E-2,0E0,0E0,0E0,5.8137126E-2,0E0,0E0,0E0,0E0,0E0,0E0,2.4531987E-3,0E0,2.654666E-3,1.8399939E-2,0E0,0E0,0E0,0E0,0E0,0E0,0E0,0E0,0E0,0E0,0E0,0E0],"parents":[2147483647,0,0,1,1,2,2,3,3,4,4,6,6,7,7,8,8,9,9,10,10,11,11,12,12,13,13,14,14,17,17,18,18,21,21,22,22,23,23,24,24,25,25,26,26,30,30,37,37,39,39,40,40],"right_children":[2,4,6,8,10,-1,12,14,16,18,20,22,24,26,28,-1,-1,30,32,-1,-1,34,36,38,40,42,44,-1,-1,-1,46,-1,-1,-1,-1,-1,-1,48,-1,50,52,-1,-1,-1,-1,-1,-1,-1,-1,-1,-1,-1,-1],"split_conditions":[1.1530886E0,7.8893673E-1,1.2339447E0,1.1469221E0,8.337066E-1,4.3971725E-2,1.5573695E0,1.015633E0,-4.2069584E-2,7.0433676E-1,1.6172915E0,1.4239568E0,2.1112342E0,7.489172E-1,9.598307E-2,3.8980376E-2,-2.0351685E-3,7.959225E-1,6.4819366E-1,-1.7837243E-2,-3.8094113E-3,1.7526149E0,9.2429894E-1,1.8282377E0,2.3740168E0,6.1624897E-1,8.9364624E-1,-3.7650245E-3,-3.7109267E-2,-1.9962013E-2,6.35609E-1,6.9447085E-2,3.3543617E-2,1.7210526E-2,2.0785742E-3,-9.549155E-3,-2.2631837E-2,4.8854578E-1,2.461787E-2,1.0623516E0,3.2796063E0,6.1208004E-4,1.1117345E-2,-2.199895E-2,-2.9021073E-3,1.0060089E-2,-8.016949E-3,4.67051E-3,1.1318295E-2,-1.5948324E-2,-5.730057E-3,5.944634E-3,1.7217819E-2],"split_indices":[3,2,3,4,3,0,3,3,0,3,4,3,3,4,0,0,0,2,0,0,0,0,0,3,3,4,4,0,0,0,3,0,0,0,0,0,0,2,0,0,3,0,0,0,0,0,0,0,0,0,0,0,0],"split_type":[0,0,0,0,0,0,0,0,0,0,0,0,0,0,0,0,0,0,0,0,0,0,0,0,0,0,0,0,0,0,0,0,0,0,0,0,0,0,0,0,0,0,0,0,0,0,0,0,0,0,0,0,0],"sum_hessian":[1.457E3,1.295E3,1.62E2,1.127E3,1.68E2,1.2E1,1.5E2,1.115E3,1.2E1,1.44E2,2.4E1,3E1,1.2E2,1.103E3,1.2E1,6E0,6E0,1.32E2,1.2E1,1.8E1,6E0,1.2E1,1.8E1,4.2E1,7.8E1,1.061E3,4.2E1,6E0,6E0,6E0,1.26E2,6E0,6E0,6E0,6E0,6E0,1.2E1,2.4E1,1.8E1,1.2E1,6.6E1,1.031E3,3E1,1.8E1,2.4E1,1.08E2,1.8E1,1.2E1,1.2E1,6E0,6E0,4.8E1,1.8E1],"tree_param":{"num_deleted":"0","num_feature":"5","num_nodes":"53","size_leaf_vector":"0"}},{"base_weights":[5.052655E-3,1.1087463E-3,1.6041499E-2,2.068242E-3,-1.900455E-2,7.7518314E-2,1.3855869E-2,3.245686E-4,2.4827095E-2,-4.796631E-2,1.0717392E-2,2.507564E-2,1.1888695E-1,-2.9577933E-2,1.6141465E-2,9.0801483E-4,-4.1977808E-2,3.703449E-2,-3.4363527E-2,-5.5191543E-2,-2.150263E-2,2.9491123E-2,-4.1770935E-2,2.6582172E-2,-5.7542764E-2,4.4746973E-2,1.0860918E-2,1.2577481E-3,-4.5986038E-2,8.934514E-3,6.39398E-2,-1.4388493E-2,-4.9429484E-2,-6.838549E-2,-2.2803988E-2,4.5570374E-2,1.8564519E-2,1.3630024E-1,1.602745E-2,2.5225987E-3,2.8371172E-2,-7.875581E-4,1.0544952E-2,-2.1838596E-2,1.7193604E-2,8.3640024E-2,4.7095448E-2,2.3942675E-2,1.05342865E-2,-4.013397E-2,8.908051E-2,-1.3040126E-2,1.8060833E-2,9.652274E-2,2.2816973E-2],"categories":[],"categories_nodes":[],"categories_segments":[],"categories_sizes":[],"default_left":[1,1,1,1,1,1,1,1,1,1,1,0,0,1,1,1,0,1,1,1,0,1,0,0,0,1,1,1,0,1,1,0,0,0,0,0,1,0,1,1,1,0,0,0,0,0,0,0,0,0,0,0,0,0,0],"id":21,"left_children":[1,3,5,7,9,11,13,15,17,19,21,-1,-1,23,25,27,-1,29,31,33,-1,35,-1,-1,-1,37,39,41,-1,43,45,-1,-1,-1,-1,-1,47,-1,49,51,53,-1,-1,-1,-1,-1,-1,-1,-1,-1,-1,-1,-1,-1,-1],"loss_changes":[6.317048E-2,2.0766027E-2,5.0656654E-2,4.0707733E-2,4.2693257E-2,2.52221E-2,3.7505925E-2,2.3583945E-2,5.4019753E-2,3.5933964E-3,2.5866916E-2,0E0,0E0,3.136926E-2,5.3137712E-2,1.5507026E-2,0E0,4.554709E-2,3.2010432E-3,6.559618E-3,0E0,2.4921484E-3,0E0,0E0,0E0,1.4243057E-1,4.3876268E-2,1.778779E-2,0E0,8.25438E-3,6.3478947E-3,0E0,0E0,0E0,0E0,0E0,3.0922377E-4,0E0,1.79994E-1,4.9808055E-2,3.45148E-2,0E0,0E0,0E0,0E0,0E0,0E0,0E0,0E0,0E0,0E0,0E0,0E0,0E0,0E0],"parents":[2147483647,0,0,1,1,2,2,3,3,4,4,5,5,6,6,7,7,8,8,9,9,10,10,13,13,14,14,15,15,17,17,18,18,19,19,21,21,25,25,26,26,27,27,29,29,30,30,36,36,38,38,39,39,40,40],"right_children":[2,4,6,8,10,12,14,16,18,20,22,-1,-1,24,26,28,-1,30,32,34,-1,36,-1,-1,-1,38,40,42,-1,44,46,-1,-1,-1,-1,-1,48,-1,50,52,54,-1,-1,-1,-1,-1,-1,-1,-1,-1,-1,-1,-1,-1,-1],"split_conditions":[3.849548E-1,8.3085173E-1,4.5772535E-1,7.120925E-1,1.8343849E0,7.862463E-1,5.1028186E-1,5.318237E-1,1.0708404E0,7.143421E-1,2.919702E-1,7.5226924E-3,3.5666086E-2,4.9411064E-1,6.35609E-1,3.6474073E-1,-1.2593343E-2,5.10141E-1,9.598306E-2,1.4765096E0,-6.4507895E-3,7.862463E-1,-1.2531281E-2,7.974652E-3,-1.726283E-2,7.051067E-1,3.5784394E-1,-2.0125255E-1,-1.3795812E-2,-7.323328E-1,1.3457388E-3,-4.3165484E-3,-1.4828846E-2,-2.0515647E-2,-6.8411967E-3,1.3671112E-2,2.0287201E0,4.089007E-2,9.2429894E-1,1.1530886E0,-4.5622754E-1,-2.3626744E-4,3.1634858E-3,-6.551579E-3,5.1580817E-3,2.5092008E-2,1.4128635E-2,7.182803E-3,3.160286E-3,-1.2040192E-2,2.6724154E-2,-3.912038E-3,5.4182503E-3,2.8956823E-2,6.845092E-3],"split_indices":[3,2,3,2,4,0,3,4,1,1,3,0,0,3,3,3,0,0,0,0,0,0,0,0,0,2,1,3,0,0,1,0,0,0,0,0,0,0,0,3,0,0,0,0,0,0,0,0,0,0,0,0,0,0,0],"split_type":[0,0,0,0,0,0,0,0,0,0,0,0,0,0,0,0,0,0,0,0,0,0,0,0,0,0,0,0,0,0,0,0,0,0,0,0,0,0,0,0,0,0,0,0,0,0,0,0,0,0,0,0,0,0,0],"sum_hessian":[1.457E3,1.073E3,3.84E2,1.025E3,4.8E1,1.2E1,3.72E2,9.53E2,7.2E1,2.4E1,2.4E1,6E0,6E0,1.8E1,3.54E2,9.41E2,1.2E1,6E1,1.2E1,1.8E1,6E0,1.8E1,6E0,6E0,1.2E1,5.4E1,3E2,9.35E2,6E0,3E1,3E1,6E0,6E0,1.2E1,6E0,6E0,1.2E1,1.2E1,4.2E1,2.04E2,9.6E1,7.67E2,1.68E2,6E0,2.4E1,1.2E1,1.8E1,6E0,6E0,2.4E1,1.8E1,1.02E2,1.02E2,6E0,9E1],"tree_param":{"num_deleted":"0","num_feature":"5","num_nodes":"55","size_leaf_vector":"0"}},{"base_weights":[3.605169E-3,-7.092721E-4,9.260877E-3,3.061302E-4,-1.12152295E-2,6.1629475E-3,2.0814307E-2,-7.5676234E-4,1.2428542E-2,-4.2800684E-2,-4.300047E-3,-2.8046828E-2,7.06349E-3,4.3440707E-2,9.893984E-3,4.340706E-4,-3.273608E-2,3.365389E-2,-9.197728E-3,-7.5657708E-3,-7.1921214E-2,-4.073504E-2,4.153165E-4,1.1648764E-2,-3.5485864E-4,2.5118673E-2,8.3790116E-2,4.6804887E-3,4.0814914E-2,-3.3063313E-4,3.9224103E-2,-9.445062E-3,-5.350894E-2,-4.0380037E-3,5.7671823E-2,-2.4198752E-2,1.5502227E-3,6.700793E-3,-7.3952866E-3,-1.0772648E-2,1.7991683E-2,2.6310895E-2,-6.8865013E-3,-1.0688782E-2,3.4140013E-2,2.1435134E-2,-2.1953644E-2,8.5942453E-4,-3.0592475E-2,8.377484E-2,-1.0930078E-2,-1.2026412E-2,-5.5144173E-3,-5.717141E-3,-1.7820086E-3,6.666624E-2,3.272908E-2,-1.6811811E-3,7.329941E-3,2.7798843E-3,1.974678E-2,-2.8289795E-2,6.919158E-4,-2.5126024E-3,-4.489033E-2,1.0789422E-3,2.739295E-2,4.101954E-3,4.713505E-2,-1.2417335E-2,2.1485595E-2,1.752908E-2,3.846299E-2,-8.4965E-3,6.9142796E-2,-2.77459E-3,-4.829583E-2],"categories":[],"categories_nodes":[],"categories_segments":[],"categories_sizes":[],"default_left":[1,1,1,1,1,1,1,1,1,1,1,0,1,1,1,1,1,1,1,0,0,0,1,1,1,1,0,1,0,1,1,1,0,1,1,0,1,1,1,1,1,1,1,0,1,1,1,0,0,0,0,0,0,0,0,0,0,0,0,0,0,0,0,0,0,0,0,0,0,0,0,0,0,0,0,0,0],"id":22,"left_children":[1,3,5,7,9,11,13,15,17,19,21,-1,23,25,27,29,31,33,35,-1,-1,-1,37,39,41,43,-1,45,-1,47,49,51,-1,53,55,-1,57,59,61,63,65,67,69,-1,71,73,75,-1,-1,-1,-1,-1,-1,-1,-1,-1,-1,-1,-1,-1,-1,-1,-1,-1,-1,-1,-1,-1,-1,-1,-1,-1,-1,-1,-1,-1,-1],"loss_changes":[3.5583545E-2,8.8363495E-3,2.2456296E-2,9.75033E-3,1.5760556E-2,1.557098E-2,3.2432847E-2,2.6519302E-2,2.831007E-2,1.2794631E-2,1.0496977E-2,0E0,1.6569516E-2,2.9684491E-2,1.4478721E-2,1.9946426E-2,1.15901325E-2,2.8296601E-2,5.0356514E-3,0E0,0E0,0E0,2.749689E-3,4.3001186E-2,3.27512E-2,1.0378884E-2,0E0,3.572397E-2,0E0,2.3795094E-2,2.9962942E-2,6.5584085E-5,0E0,3.905763E-5,2.0806342E-3,0E0,3.671784E-4,1.5308223E-3,4.244027E-3,1.876872E-2,3.733573E-2,1.6918505E-2,2.396192E-2,0E0,1.1209976E-3,7.0557915E-2,1.55277625E-2,0E0,0E0,0E0,0E0,0E0,0E0,0E0,0E0,0E0,0E0,0E0,0E0,0E0,0E0,0E0,0E0,0E0,0E0,0E0,0E0,0E0,0E0,0E0,0E0,0E0,0E0,0E0,0E0,0E0,0E0],"parents":[2147483647,0,0,1,1,2,2,3,3,4,4,5,5,6,6,7,7,8,8,9,9,10,10,12,12,13,13,14,14,15,15,16,16,17,17,18,18,22,22,23,23,24,24,25,25,27,27,29,29,30,30,31,31,33,33,34,34,36,36,37,37,38,38,39,39,40,40,41,41,42,42,44,44,45,45,46,46],"right_children":[2,4,6,8,10,12,14,16,18,20,22,-1,24,26,28,30,32,34,36,-1,-1,-1,38,40,42,44,-1,46,-1,48,50,52,-1,54,56,-1,58,60,62,64,66,68,70,-1,72,74,76,-1,-1,-1,-1,-1,-1,-1,-1,-1,-1,-1,-1,-1,-1,-1,-1,-1,-1,-1,-1,-1,-1,-1,-1,-1,-1,-1,-1,-1,-1],"split_conditions":[-2.297089E-2,1.221722E-1,7.143421E-1,-2.0125255E-1,2.3941366E-1,-5.610626E-1,-1.8012223E-1,-2.3763782E-1,-1.676999E-1,-1.801222E-1,-7.46616E-1,-8.414049E-3,1.3457388E-3,6.719942E-1,9.7406137E-1,-2.5380906E-1,-3.5515246E-1,2.4404156E-1,-1.1635354E-1,-2.2697314E-3,-2.1576365E-2,-1.2220512E-2,2.5102738E-1,-1.24439165E-1,-1.850813E-1,-2.1742377E-1,2.5137035E-2,1.2192866E0,1.2244475E-2,9.2429894E-1,1.4765096E0,-1.0084381E0,-1.6052684E-2,-1.801222E-1,-3.5515246E-1,-7.259626E-3,9.598306E-2,1.5322569E-1,3.732795E-1,-1.7295288E-1,-7.1165067E-1,5.514183E-1,9.670755E-1,-3.2066347E-3,-1.0084381E0,9.2429894E-1,9.2429894E-1,2.5782737E-4,-9.1777425E-3,2.5132453E-2,-3.2790236E-3,-3.6079239E-3,-1.6543253E-3,-1.7151424E-3,-5.346026E-4,1.9999873E-2,9.818725E-3,-5.0435436E-4,2.1989823E-3,8.339653E-4,5.9240344E-3,-8.486939E-3,2.0757475E-4,-7.5378077E-4,-1.34670995E-2,3.2368267E-4,8.217885E-3,1.2305862E-3,1.4140516E-2,-3.7252007E-3,6.445679E-3,5.258724E-3,1.1538897E-2,-2.54895E-3,2.074284E-2,-8.32377E-4,-1.4488749E-2],"split_indices":[4,3,1,3,3,3,0,3,4,0,4,0,1,3,2,3,1,2,3,0,0,0,2,3,3,3,0,4,0,0,0,0,0,0,1,0,0,2,2,3,1,2,2,0,0,0,0,0,0,0,0,0,0,0,0,0,0,0,0,0,0,0,0,0,0,0,0,0,0,0,0,0,0,0,0,0,0],"split_type":[0,0,0,0,0,0,0,0,0,0,0,0,0,0,0,0,0,0,0,0,0,0,0,0,0,0,0,0,0,0,0,0,0,0,0,0,0,0,0,0,0,0,0,0,0,0,0,0,0,0,0,0,0,0,0,0,0,0,0,0,0,0,0,0,0,0,0,0,0,0,0,0,0,0,0,0,0],"sum_hessian":[1.457E3,8.27E2,6.3E2,7.55E2,7.2E1,4.98E2,1.32E2,6.95E2,6E1,1.2E1,6E1,1.2E1,4.86E2,4.2E1,9E1,6.71E2,2.4E1,3E1,3E1,6E0,6E0,6E0,5.4E1,3E2,1.86E2,3E1,1.2E1,7.8E1,1.2E1,6.59E2,1.2E1,1.2E1,1.2E1,1.2E1,1.8E1,1.2E1,1.8E1,3E1,2.4E1,6.6E1,2.34E2,3.6E1,1.5E2,6E0,2.4E1,4.8E1,3E1,6.35E2,2.4E1,6E0,6E0,6E0,6E0,6E0,6E0,1.2E1,6E0,1.2E1,6E0,2.4E1,6E0,6E0,1.8E1,5.4E1,1.2E1,8.4E1,1.5E2,1.8E1,1.8E1,1.26E2,2.4E1,6E0,1.8E1,3E1,1.8E1,1.8E1,1.2E1],"tree_param":{"num_deleted":"0","num_feature":"5","num_nodes":"77","size_leaf_vector":"0"}},{"base_weights":[2.5468234E-3,1.6770269E-3,1.77085E-2,2.4638185E-3,-1.7322298E-2,3.2148115E-2,8.211836E-3,1.9441706E-3,5.4798715E-2,-3.6684494E-2,-1.1488391E-3,1.3983174E-2,5.6223944E-2,-2.3836723E-2,1.92502E-2,1.5499524E-3,4.1277077E-2,6.518718E-2,3.6581855E-2,-4.264701E-2,-1.5259879E-2,-1.0120191E-2,1.2051509E-2,2.396066E-2,7.5350543E-3,3.2748085E-2,7.1667805E-2,-7.714135E-3,-3.6554065E-2,-1.960461E-3,2.9509734E-2,1.9162942E-3,-3.4921646E-2,-6.251115E-3,-1.5859876E-2,7.2620935E-3,1.511928E-2,-3.8648334E-3,2.2397723E-4,1.9324854E-2,5.2938733E-2,-1.6287179E-4,9.520475E-3,2.1641659E-2,1.2261527E-2],"categories":[],"categories_nodes":[],"categories_segments":[],"categories_sizes":[],"default_left":[1,1,1,1,1,1,1,1,1,1,1,1,1,1,1,1,0,0,0,0,0,1,1,0,0,0,0,0,0,1,1,1,0,0,0,0,0,0,0,1,0,0,0,0,0],"id":23,"left_children":[1,3,5,7,9,11,13,15,17,19,21,23,25,27,29,31,-1,-1,-1,-1,-1,33,35,-1,-1,-1,-1,-1,-1,37,39,41,-1,-1,-1,-1,-1,-1,-1,43,-1,-1,-1,-1,-1],"loss_changes":[1.9197788E-2,2.0671625E-2,1.0569131E-2,3.595499E-2,1.7181309E-2,1.27712265E-2,1.779328E-2,2.0310571E-2,7.5519085E-5,2.5428236E-3,3.7931376E-3,1.0418396E-3,2.3662671E-3,2.3834915E-3,8.109478E-3,1.746303E-2,0E0,0E0,0E0,0E0,0E0,3.2279652E-4,8.1209E-5,0E0,0E0,0E0,0E0,0E0,0E0,5.494542E-5,4.9425066E-3,2.0396907E-2,0E0,0E0,0E0,0E0,0E0,0E0,0E0,4.5562163E-5,0E0,0E0,0E0,0E0,0E0],"parents":[2147483647,0,0,1,1,2,2,3,3,4,4,5,5,6,6,7,7,8,8,9,9,10,10,11,11,12,12,13,13,14,14,15,15,21,21,22,22,29,29,30,30,31,31,39,39],"right_children":[2,4,6,8,10,12,14,16,18,20,22,24,26,28,30,32,-1,-1,-1,-1,-1,34,36,-1,-1,-1,-1,-1,-1,38,40,42,-1,-1,-1,-1,-1,-1,-1,44,-1,-1,-1,-1,-1],"split_conditions":[2.0635393E0,1.4725623E0,2.4494834E0,1.3157725E0,1.6534736E0,6.2348056E-1,1.0823418E0,2.7419124E0,1.2004042E0,7.143421E-1,3.0774655E0,-4.2069577E-2,6.4819366E-1,1.2004042E0,2.6786375E0,1.2313473E0,1.2383124E-2,1.9556154E-2,1.0974557E-2,-1.2794104E-2,-4.5779636E-3,2.6731849E0,5.10141E-1,7.188198E-3,2.2605164E-3,9.824426E-3,2.1500342E-2,-2.3142407E-3,-1.096622E-2,2.1667728E0,2.0287201E0,7.143421E-1,-1.0476494E-2,-1.8753345E-3,-4.757963E-3,2.1786282E-3,4.535784E-3,-1.15945E-3,6.719317E-5,1.6145622E0,1.588162E-2,-4.8861537E-5,2.8561426E-3,6.492498E-3,3.678458E-3],"split_indices":[4,4,4,4,4,3,2,3,0,1,3,0,0,0,4,4,0,0,0,0,0,3,0,0,0,0,0,0,0,0,0,1,0,0,0,0,0,0,0,0,0,0,0,0,0],"split_type":[0,0,0,0,0,0,0,0,0,0,0,0,0,0,0,0,0,0,0,0,0,0,0,0,0,0,0,0,0,0,0,0,0,0,0,0,0,0,0,0,0,0,0,0,0],"sum_hessian":[1.457E3,1.379E3,7.8E1,1.325E3,5.4E1,3E1,4.8E1,1.313E3,1.2E1,2.4E1,3E1,1.8E1,1.2E1,1.2E1,3.6E1,1.301E3,1.2E1,6E0,6E0,1.8E1,6E0,1.8E1,1.2E1,6E0,1.2E1,6E0,6E0,6E0,6E0,1.2E1,2.4E1,1.289E3,1.2E1,1.2E1,6E0,6E0,6E0,6E0,6E0,1.8E1,6E0,1.013E3,2.76E2,1.2E1,6E0],"tree_param":{"num_deleted":"0","num_feature":"5","num_nodes":"45","size_leaf_vector":"0"}},{"base_weights":[1.8310302E-3,-1.1502849E-3,5.740219E-3,-4.160958E-3,8.430463E-4,1.3573436E-2,2.583783E-3,6.238344E-3,-1.0133122E-2,-3.185498E-3,9.638892E-3,5.4906583E-3,4.4882335E-2,-1.2663684E-2,6.742714E-3,-2.403452E-3,2.1970054E-2,-4.400466E-3,-2.2302814E-2,1.2822006E-3,-1.5571676E-2,-4.3577007E-3,2.1546094E-2,2.7104178E-3,5.9913907E-2,1.1146218E-1,2.840036E-2,2.680884E-2,-2.1996776E-2,5.8402635E-2,2.8205365E-3,5.9544696E-3,-2.069474E-2,-6.676015E-3,3.327421E-2,-3.2961932E-3,-2.5541782E-2,-7.486162E-3,-4.689534E-2,4.2194217E-3,-8.031993E-3,-9.713672E-3,-4.9972497E-2,1.8824143E-2,-2.7421769E-2,5.0765023E-2,4.6854974E-3,5.1646843E-3,-4.4307847E-2,2.1243548E-2,3.6675673E-2,3.140171E-2,1.4449392E-2,-2.6946995E-2,3.276934E-2,3.535321E-2,